{"learner":{"attributes":{"scikit_learn":"{\"_estimator_type\": \"regressor\"}"},"feature_names":["cycle_length_mean","period_duration_avg","days_since_last_period","irregular","stress_period_interaction","nutrition_period_interaction"],"feature_types":["float","float","int","int","float","float"],"gradient_booster":{"model":{"gbtree_model_param":{"num_parallel_tree":"1","num_trees":"100"},"iteration_indptr":[0,1,2,3,4,5,6,7,8,9,10,11,12,13,14,15,16,17,18,19,20,21,22,23,24,25,26,27,28,29,30,31,32,33,34,35,36,37,38,39,40,41,42,43,44,45,46,47,48,49,50,51,52,53,54,55,56,57,58,59,60,61,62,63,64,65,66,67,68,69,70,71,72,73,74,75,76,77,78,79,80,81,82,83,84,85,86,87,88,89,90,91,92,93,94,95,96,97,98,99,100],"tree_info":[0,0,0,0,0,0,0,0,0,0,0,0,0,0,0,0,0,0,0,0,0,0,0,0,0,0,0,0,0,0,0,0,0,0,0,0,0,0,0,0,0,0,0,0,0,0,0,0,0,0,0,0,0,0,0,0,0,0,0,0,0,0,0,0,0,0,0,0,0,0,0,0,0,0,0,0,0,0,0,0,0,0,0,0,0,0,0,0,0,0,0,0,0,0,0,0,0,0,0,0],"trees":[{"base_weights":[1.6668466E-8,8.557846E0,-8.388803E0,1.3512961E1,4.5909176E0,-3.8513E0,-1.1789989E1,1.5365797E0,1.1395277E0,7.087605E0,2.702041E0,-1.3393413E0,-5.635944E0,-9.842995E-1,-1.2962943E0,8.1846875E-1,6.0230047E-1,3.537484E0,1.3713235E0,-1.9641364E0,4.4581246E-1,-4.569853E0,-6.573149E0,2.5651705E-1,3.8507017E-1,4.799285E-2,3.1258824E-1,-1.0399194E-1,-3.0316E-1,1.1748333E-1,-1.4510417E-1,-5.1378053E-1,-2.0375001E-1,-1.870625E-1,-6.6286767E-1],"categories":[],"categories_nodes":[],"categories_segments":[],"categories_sizes":[],"default_left":[0,0,0,0,0,0,0,0,0,0,0,0,0,0,0,0,0,0,0,0,0,0,0,0,0,0,0,0,0,0,0,0,0,0,0],"id":0,"left_children":[1,3,5,7,9,11,13,-1,-1,15,17,19,21,-1,-1,-1,-1,23,25,27,29,31,33,-1,-1,-1,-1,-1,-1,-1,-1,-1,-1,-1,-1],"loss_changes":[5.757565E4,7.741629E3,6.204914E3,5.1547656E2,1.0277866E3,7.76968E2,3.9994922E2,0E0,0E0,6.165918E1,1.3745154E2,8.341194E1,7.1874756E1,0E0,0E0,0E0,0E0,1.3876892E1,7.826406E1,5.1108612E1,2.9361656E1,6.288269E1,1.1784668E0,0E0,0E0,0E0,0E0,0E0,0E0,0E0,0E0,0E0,0E0,0E0,0E0],"parents":[2147483647,0,0,1,1,2,2,3,3,4,4,5,5,6,6,9,9,10,10,11,11,12,12,17,17,18,18,19,19,20,20,21,21,22,22],"right_children":[2,4,6,8,10,12,14,-1,-1,16,18,20,22,-1,-1,-1,-1,24,26,28,30,32,34,-1,-1,-1,-1,-1,-1,-1,-1,-1,-1,-1,-1],"split_conditions":[1.7E1,8E0,2.5E1,4E0,1.2E1,2.1E1,2.9E1,1.5365797E0,1.1395277E0,1E1,1.5E1,1E0,2.3E1,-9.842995E-1,-1.2962943E0,8.1846875E-1,6.0230047E-1,1.2833333E1,1E0,1.9E1,1.668E1,1E0,7.645E0,2.5651705E-1,3.8507017E-1,4.799285E-2,3.1258824E-1,-1.0399194E-1,-3.0316E-1,1.1748333E-1,-1.4510417E-1,-5.1378053E-1,-2.0375001E-1,-1.870625E-1,-6.6286767E-1],"split_indices":[2,2,2,2,2,2,2,0,0,2,2,3,2,0,0,0,0,5,3,2,4,3,5,0,0,0,0,0,0,0,0,0,0,0,0],"split_type":[0,0,0,0,0,0,0,0,0,0,0,0,0,0,0,0,0,0,0,0,0,0,0,0,0,0,0,0,0,0,0,0,0,0,0],"sum_hessian":[8E2,3.96E2,4.04E2,1.75E2,2.21E2,1.74E2,2.3E2,9E1,8.5E1,9.4E1,1.27E2,7.3E1,1.01E2,9E1,1.4E2,4.3E1,5.1E1,7.7E1,5E1,5.4E1,1.9E1,5E1,5.1E1,2.1E1,5.6E1,3.4E1,1.6E1,3E1,2.4E1,1.4E1,5E0,4E1,1E1,1E0,5E1],"tree_param":{"num_deleted":"0","num_feature":"6","num_nodes":"35","size_leaf_vector":"1"}},{"base_weights":[1.0189075E-3,7.7149057E0,-7.5604973E0,1.217687E1,4.1427402E0,-3.7416894E0,-1.0851714E1,1.3846102E1,1.0268999E1,6.3938E0,2.4396663E0,-1.2112826E0,-5.3236585E0,-9.201665E0,-1.1675843E0,1.217682E0,1.5426306E0,9.083304E-1,1.2400678E0,5.5422935E0,9.5081264E-1,1.3785261E0,4.1795144E0,-2.587328E0,3.1307995E-1,-5.95773E0,-1.2806709E0,-9.549106E-1,-4.3631005E-1,3.973708E-1,6.136808E-1,2.2090697E-1,-1.0703399E-2,4.823208E-1,2.4418414E-1,-1.8318275E-1,-3.3669773E-1,-3.2578018E-2,2.2658579E-1,-4.7554374E-1,-6.7463654E-1,-2.0707689E-1,-1.3296462E-2],"categories":[],"categories_nodes":[],"categories_segments":[],"categories_sizes":[],"default_left":[0,0,0,0,0,0,0,0,0,0,0,0,0,0,0,0,0,0,0,0,0,0,0,0,0,0,0,0,0,0,0,0,0,0,0,0,0,0,0,0,0,0,0],"id":1,"left_children":[1,3,5,7,9,11,13,15,17,19,21,23,25,27,-1,-1,-1,-1,-1,29,-1,31,33,35,37,39,41,-1,-1,-1,-1,-1,-1,-1,-1,-1,-1,-1,-1,-1,-1,-1,-1],"loss_changes":[4.67796E4,6.277289E3,5.0496504E3,4.1831836E2,8.3548755E2,7.5012354E2,1.8765039E2,5.2197266E1,1.0472754E2,1.9923047E2,2.3055493E2,1.5603186E2,2.8974097E2,8.778174E1,0E0,0E0,0E0,0E0,0E0,4.7420166E1,0E0,1.0017607E2,4.1911926E1,1.680429E1,4.5650047E1,6.2734863E1,1.514027E1,0E0,0E0,0E0,0E0,0E0,0E0,0E0,0E0,0E0,0E0,0E0,0E0,0E0,0E0,0E0,0E0],"parents":[2147483647,0,0,1,1,2,2,3,3,4,4,5,5,6,6,7,7,8,8,9,9,10,10,11,11,12,12,13,13,19,19,21,21,22,22,23,23,24,24,25,25,26,26],"right_children":[2,4,6,8,10,12,14,16,18,20,22,24,26,28,-1,-1,-1,-1,-1,30,-1,32,34,36,38,40,42,-1,-1,-1,-1,-1,-1,-1,-1,-1,-1,-1,-1,-1,-1,-1,-1],"split_conditions":[1.7E1,8E0,2.6E1,4E0,1.2E1,2.1E1,2.9E1,3.0666666E1,3.1166666E1,3.15E1,3.0666666E1,3.0666666E1,3.25E1,3.2333332E1,-1.1675843E0,1.217682E0,1.5426306E0,9.083304E-1,1.2400678E0,2.9333334E1,9.5081264E-1,1.5E1,1.6E1,1.9E1,3.2833332E1,2.3E1,3.45E1,-9.549106E-1,-4.3631005E-1,3.973708E-1,6.136808E-1,2.2090697E-1,-1.0703399E-2,4.823208E-1,2.4418414E-1,-1.8318275E-1,-3.3669773E-1,-3.2578018E-2,2.2658579E-1,-4.7554374E-1,-6.7463654E-1,-2.0707689E-1,-1.3296462E-2],"split_indices":[2,2,2,2,2,2,2,0,0,0,0,0,0,0,0,0,0,0,0,0,0,2,2,2,0,2,0,0,0,0,0,0,0,0,0,0,0,0,0,0,0,0,0],"split_type":[0,0,0,0,0,0,0,0,0,0,0,0,0,0,0,0,0,0,0,0,0,0,0,0,0,0,0,0,0,0,0,0,0,0,0,0,0,0,0,0,0,0,0],"sum_hessian":[8E2,3.96E2,4.04E2,1.75E2,2.21E2,1.88E2,2.16E2,9E1,8.5E1,9.4E1,1.27E2,7.3E1,1.15E2,7.6E1,1.4E2,4.8E1,4.2E1,5.8E1,2.7E1,7.6E1,1.8E1,8E1,4.7E1,3.8E1,3.5E1,9.9E1,1.6E1,7E1,6E0,2.3E1,5.3E1,5.1E1,2.9E1,3.3E1,1.4E1,2.1E1,1.7E1,2.7E1,8E0,4.2E1,5.7E1,9E0,7E0],"tree_param":{"num_deleted":"0","num_feature":"6","num_nodes":"43","size_leaf_vector":"1"}},{"base_weights":[5.351549E-3,-7.7313614E-1,1.3219705E0,-3.6939672E-1,-3.356386E0,2.5398376E0,1.9394591E-2,3.5199442E0,-6.240021E-1,-7.913094E-1,-2.9479494E0,1.9287611E0,6.118625E0,-2.9467235E0,8.854344E-1,6.8163905E0,-1.8945582E0,-2.1678553E0,-3.845224E-2,2.831868E-1,-3.9428523E0,-1.3506013E0,2.4210005E0,6.7503986E0,-1.3273907E-1,-3.503782E0,7.439577E-1,5.4232913E-1,8.188042E0,-2.875963E-1,7.60191E-1,-5.7649E-1,2.291543E-1,-9.07419E-2,-3.5281944E-1,4.6836495E-2,-1.7031594E-1,1.9667374E-1,-2.8505203E-1,-5.257224E-1,-1.3871446E-1,2.2366178E-1,-8.89781E-1,4.6310064E-1,1.24150395E-1,9.962136E-1,5.5976135E-1,3.939577E-1,-4.1386858E-1,-1.8956684E-1,-8.091165E-1,7.632582E-2,-7.518248E-1,9.059558E-1,2.3509884E-1],"categories":[],"categories_nodes":[],"categories_segments":[],"categories_sizes":[],"default_left":[0,0,0,0,0,0,0,0,0,0,0,0,0,0,0,0,0,0,0,0,0,0,0,0,0,0,0,0,0,0,0,0,0,0,0,0,0,0,0,0,0,0,0,0,0,0,0,0,0,0,0,0,0,0,0],"id":2,"left_children":[1,3,5,7,9,11,13,15,17,-1,19,21,23,25,27,29,31,33,35,37,39,41,43,45,47,49,-1,51,53,-1,-1,-1,-1,-1,-1,-1,-1,-1,-1,-1,-1,-1,-1,-1,-1,-1,-1,-1,-1,-1,-1,-1,-1,-1,-1],"loss_changes":[8.220243E2,5.2441187E2,4.7268732E2,4.3493445E2,1.03229065E2,3.2498328E2,3.750817E2,4.9482666E2,3.7146185E2,0E0,2.0685522E2,2.1796255E2,8.778375E1,2.1699734E2,2.78688E2,1.5129285E2,1.9142857E2,1.905506E2,2.5306465E2,9.001829E1,1.5730579E2,5.0722382E2,2.9662714E2,1.8284729E1,6.524512E1,2.207269E2,0E0,1.998472E2,4.136505E0,0E0,0E0,0E0,0E0,0E0,0E0,0E0,0E0,0E0,0E0,0E0,0E0,0E0,0E0,0E0,0E0,0E0,0E0,0E0,0E0,0E0,0E0,0E0,0E0,0E0,0E0],"parents":[2147483647,0,0,1,1,2,2,3,3,4,4,5,5,6,6,7,7,8,8,10,10,11,11,12,12,13,13,14,14,15,15,16,16,17,17,18,18,19,19,20,20,21,21,22,22,23,23,24,24,25,25,27,27,28,28],"right_children":[2,4,6,8,10,12,14,16,18,-1,20,22,24,26,28,30,32,34,36,38,40,42,44,46,48,50,-1,52,54,-1,-1,-1,-1,-1,-1,-1,-1,-1,-1,-1,-1,-1,-1,-1,-1,-1,-1,-1,-1,-1,-1,-1,-1,-1,-1],"split_conditions":[3.1E1,1E0,1.5295E1,1E1,9.34E0,1.4681666E1,5E0,4.3333335E0,1.3325E1,-7.913094E-1,1.375E1,4.3333335E0,5.8333335E0,3.6833332E1,6.5E0,7.5E0,4.8333335E0,1.2285E1,3.0333334E1,3.05E1,2.9833334E1,3.25E1,1.2233334E1,4.5E0,3.1666666E1,3.5166668E1,7.439577E-1,2.6736666E1,3.1833334E1,-2.875963E-1,7.60191E-1,-5.7649E-1,2.291543E-1,-9.07419E-2,-3.5281944E-1,4.6836495E-2,-1.7031594E-1,1.9667374E-1,-2.8505203E-1,-5.257224E-1,-1.3871446E-1,2.2366178E-1,-8.89781E-1,4.6310064E-1,1.24150395E-1,9.962136E-1,5.5976135E-1,3.939577E-1,-4.1386858E-1,-1.8956684E-1,-8.091165E-1,7.632582E-2,-7.518248E-1,9.059558E-1,2.3509884E-1],"split_indices":[0,3,4,4,4,4,1,1,4,0,4,1,1,0,1,4,1,4,0,0,0,0,4,1,0,0,0,4,0,0,0,0,0,0,0,0,0,0,0,0,0,0,0,0,0,0,0,0,0,0,0,0,0,0,0],"split_type":[0,0,0,0,0,0,0,0,0,0,0,0,0,0,0,0,0,0,0,0,0,0,0,0,0,0,0,0,0,0,0,0,0,0,0,0,0,0,0,0,0,0,0,0,0,0,0,0,0,0,0,0,0,0,0],"sum_hessian":[8E2,5.03E2,2.97E2,4.36E2,6.7E1,1.53E2,1.44E2,2.6E1,4.1E2,4E0,6.3E1,1.32E2,2.1E1,3.2E1,1.12E2,1.6E1,1E1,1.12E2,2.98E2,1.5E1,4.8E1,1.7E1,1.15E2,1.9E1,2E0,3.1E1,1E0,1.08E2,4E0,1E0,1.5E1,5E0,5E0,5.9E1,5.3E1,2.29E2,6.9E1,1E1,5E0,3.1E1,1.7E1,1.2E1,5E0,3.9E1,7.6E1,3E0,1.6E1,1E0,1E0,2.4E1,7E0,1.06E2,2E0,3E0,1E0],"tree_param":{"num_deleted":"0","num_feature":"6","num_nodes":"55","size_leaf_vector":"1"}},{"base_weights":[4.4194805E-3,6.884355E0,-6.739627E0,1.0618813E1,3.508343E0,-3.3423398E0,-9.667496E0,1.231826E1,8.9324E0,5.5160747E0,2.1790457E0,-1.120751E0,-4.7307467E0,-8.232804E0,-1.0382416E0,1.0816884E0,1.3612624E0,7.992123E-1,1.0706803E0,4.903663E0,9.4963104E-1,7.377824E-1,3.0934737E0,-2.2525773E0,1.3652611E-1,-5.28932E0,-1.1667429E0,-8.5022116E-1,-3.6277938E-1,3.694195E-1,5.519864E-1,1.7317902E-1,-1.4057353E-2,2.5593022E-1,5.003432E-1,-1.5835647E-1,-2.9451162E-1,-5.045529E-2,1.6393922E-1,-4.2325735E-1,-5.981575E-1,-1.8732725E-1,-1.3773811E-2],"categories":[],"categories_nodes":[],"categories_segments":[],"categories_sizes":[],"default_left":[0,0,0,0,0,0,0,0,0,0,0,0,0,0,0,0,0,0,0,0,0,0,0,0,0,0,0,0,0,0,0,0,0,0,0,0,0,0,0,0,0,0,0],"id":3,"left_children":[1,3,5,7,9,11,13,15,17,19,21,23,25,27,-1,-1,-1,-1,-1,29,-1,31,33,35,37,39,41,-1,-1,-1,-1,-1,-1,-1,-1,-1,-1,-1,-1,-1,-1,-1,-1],"loss_changes":[3.721168E4,4.967951E3,3.9961465E3,4.2877148E2,5.4844336E2,5.7766284E2,1.3709766E2,2.9597656E1,7.7936035E1,1.5574927E2,1.6641296E2,1.0561097E2,2.2475659E2,6.4683105E1,0E0,0E0,0E0,0E0,0E0,3.4759033E1,0E0,4.477117E1,6.6773865E1,1.3405594E1,3.5511574E1,4.7836426E1,1.2101358E1,0E0,0E0,0E0,0E0,0E0,0E0,0E0,0E0,0E0,0E0,0E0,0E0,0E0,0E0,0E0,0E0],"parents":[2147483647,0,0,1,1,2,2,3,3,4,4,5,5,6,6,7,7,8,8,9,9,10,10,11,11,12,12,13,13,19,19,21,21,22,22,23,23,24,24,25,25,26,26],"right_children":[2,4,6,8,10,12,14,16,18,20,22,24,26,28,-1,-1,-1,-1,-1,30,-1,32,34,36,38,40,42,-1,-1,-1,-1,-1,-1,-1,-1,-1,-1,-1,-1,-1,-1,-1,-1],"split_conditions":[1.7E1,9E0,2.6E1,4E0,1.2E1,2.1E1,2.9E1,3.0333334E1,3.1166666E1,3.3333332E1,2.9833334E1,3.0666666E1,3.25E1,3.2666668E1,-1.0382416E0,1.0816884E0,1.3612624E0,7.992123E-1,1.0706803E0,2.9666666E1,9.4963104E-1,1.4E1,3.2666668E1,1.9E1,3.2333332E1,2.3E1,3.45E1,-8.5022116E-1,-3.6277938E-1,3.694195E-1,5.519864E-1,1.7317902E-1,-1.4057353E-2,2.5593022E-1,5.003432E-1,-1.5835647E-1,-2.9451162E-1,-5.045529E-2,1.6393922E-1,-4.2325735E-1,-5.981575E-1,-1.8732725E-1,-1.3773811E-2],"split_indices":[2,2,2,2,2,2,2,0,0,0,0,0,0,0,0,0,0,0,0,0,0,2,0,2,0,2,0,0,0,0,0,0,0,0,0,0,0,0,0,0,0,0,0],"split_type":[0,0,0,0,0,0,0,0,0,0,0,0,0,0,0,0,0,0,0,0,0,0,0,0,0,0,0,0,0,0,0,0,0,0,0,0,0,0,0,0,0,0,0],"sum_hessian":[8E2,3.96E2,4.04E2,1.87E2,2.09E2,1.88E2,2.16E2,9E1,9.7E1,8.2E1,1.27E2,7.3E1,1.15E2,7.6E1,1.4E2,4.6E1,4.4E1,6.7E1,3E1,7.3E1,9E0,5E1,7.7E1,3.8E1,3.5E1,9.9E1,1.6E1,7.1E1,5E0,2.7E1,4.6E1,2.3E1,2.7E1,6.2E1,1.5E1,2.1E1,1.7E1,2.5E1,1E1,4.2E1,5.7E1,9E0,7E0],"tree_param":{"num_deleted":"0","num_feature":"6","num_nodes":"43","size_leaf_vector":"1"}},{"base_weights":[8.080062E-3,6.213802E0,-6.0750794E0,9.793099E0,3.3481703E0,-2.7920523E0,-8.535922E0,1.1113279E1,8.282291E0,5.1721296E0,1.9682928E0,-1.0132622E0,-4.055174E0,-6.721174E0,-9.176446E0,9.111539E-1,1.1858314E0,6.9680667E-1,9.434468E-1,4.496633E0,7.6374507E-1,8.0231655E-1,2.893058E0,-2.163576E0,1.8593883E-2,-4.5676055E0,-1.0153787E0,-7.306048E-1,-4.509923E0,-9.2613316E-1,-5.340962E-1,1.2687016E-1,4.6561265E-1,1.7476836E-1,-7.744448E-3,2.3724528E-1,4.53436E-1,-1.5591277E-1,-2.7839127E-1,-4.5654234E-2,1.705901E-1,-6.034404E-1,-3.9783135E-1,-1.7046778E-1,1.1438834E-2,-4.690171E-1,-9.031029E-2],"categories":[],"categories_nodes":[],"categories_segments":[],"categories_sizes":[],"default_left":[0,0,0,0,0,0,0,0,0,0,0,0,0,0,0,0,0,0,0,0,0,0,0,0,0,0,0,0,0,0,0,0,0,0,0,0,0,0,0,0,0,0,0,0,0,0,0],"id":4,"left_children":[1,3,5,7,9,11,13,15,17,19,21,23,25,27,29,-1,-1,-1,-1,31,-1,33,35,37,39,41,43,-1,45,-1,-1,-1,-1,-1,-1,-1,-1,-1,-1,-1,-1,-1,-1,-1,-1,-1,-1],"loss_changes":[3.0275814E4,4.0392188E3,3.248169E3,2.5899414E2,5.4855835E2,3.8908594E2,2.0683398E2,2.7667969E1,6.448291E1,1.2386206E2,1.3569537E2,8.787514E1,1.542461E2,4.9821777E1,5.2333984E0,0E0,0E0,0E0,0E0,3.3734985E1,0E0,4.837378E1,4.990985E1,8.783173E0,3.2846844E1,5.1193726E1,1.2654951E1,0E0,6.1662292E0,0E0,0E0,0E0,0E0,0E0,0E0,0E0,0E0,0E0,0E0,0E0,0E0,0E0,0E0,0E0,0E0,0E0,0E0],"parents":[2147483647,0,0,1,1,2,2,3,3,4,4,5,5,6,6,7,7,8,8,9,9,10,10,11,11,12,12,13,13,14,14,19,19,21,21,22,22,23,23,24,24,25,25,26,26,28,28],"right_children":[2,4,6,8,10,12,14,16,18,20,22,24,26,28,30,-1,-1,-1,-1,32,-1,34,36,38,40,42,44,-1,46,-1,-1,-1,-1,-1,-1,-1,-1,-1,-1,-1,-1,-1,-1,-1,-1,-1,-1],"split_conditions":[1.7E1,8E0,2.5E1,4E0,1.2E1,2.1E1,2.8E1,2.9666666E1,3.0333334E1,3.15E1,3E1,3.05E1,3.25E1,3.1333334E1,3.6833332E1,9.111539E-1,1.1858314E0,6.9680667E-1,9.434468E-1,2.7833334E1,7.6374507E-1,1.4E1,3.2666668E1,1.9E1,3.2833332E1,2.95E1,3.45E1,-7.306048E-1,3.5166668E1,-9.2613316E-1,-5.340962E-1,1.2687016E-1,4.6561265E-1,1.7476836E-1,-7.744448E-3,2.3724528E-1,4.53436E-1,-1.5591277E-1,-2.7839127E-1,-4.5654234E-2,1.705901E-1,-6.034404E-1,-3.9783135E-1,-1.7046778E-1,1.1438834E-2,-4.690171E-1,-9.031029E-2],"split_indices":[2,2,2,2,2,2,2,0,0,0,0,0,0,0,0,0,0,0,0,0,0,2,0,2,0,0,0,0,0,0,0,0,0,0,0,0,0,0,0,0,0,0,0,0,0,0,0],"split_type":[0,0,0,0,0,0,0,0,0,0,0,0,0,0,0,0,0,0,0,0,0,0,0,0,0,0,0,0,0,0,0,0,0,0,0,0,0,0,0,0,0,0,0,0,0,0,0],"sum_hessian":[8E2,3.96E2,4.04E2,1.75E2,2.21E2,1.74E2,2.3E2,9E1,8.5E1,9.4E1,1.27E2,7.3E1,1.01E2,6.3E1,1.67E2,2.8E1,6.2E1,4.3E1,4.2E1,7.6E1,1.8E1,5.7E1,7E1,3.4E1,3.9E1,8.6E1,1.5E1,4.8E1,1.5E1,1.62E2,5E0,4E0,7.2E1,2.7E1,3E1,5.5E1,1.5E1,1.9E1,1.5E1,3.1E1,8E0,2.2E1,6.4E1,9E0,6E0,1.4E1,1E0],"tree_param":{"num_deleted":"0","num_feature":"6","num_nodes":"47","size_leaf_vector":"1"}},{"base_weights":[9.433544E-3,-6.039424E-1,1.0467893E0,-2.9637837E-1,-2.571612E0,7.8535414E-1,5.3219624E0,2.5368798E0,-4.8178372E-1,3.2779324E0,-3.1905665E0,1.1611059E0,-2.1864905E0,-4.203143E-1,7.663281E0,-7.2812486E-1,3.949941E0,-1.6052666E0,-5.557851E-2,-1.834643E0,5.689891E-1,-4.0169797E0,-3.3334103E-1,-1.8351078E0,1.515491E0,2.4642277E0,-4.7399254E0,9.0051764E-1,-4.89068E-1,-2.3572467E-1,3.3158678E-1,5.788576E-1,1.2638389E-1,-6.894117E-2,-2.593156E-1,4.9132197E-3,-5.17714E-1,6.183524E-2,-3.370317E-1,-3.133838E-1,-5.750968E-1,2.0330532E-1,-5.47274E-1,4.996789E-1,-2.8972945E-1,4.297197E-1,9.2724495E-2,-1.4558499E-1,6.626947E-1,6.034487E-2,-6.032687E-1],"categories":[],"categories_nodes":[],"categories_segments":[],"categories_sizes":[],"default_left":[0,0,0,0,0,0,0,0,0,0,0,0,0,0,0,0,0,0,0,0,0,0,0,0,0,0,0,0,0,0,0,0,0,0,0,0,0,0,0,0,0,0,0,0,0,0,0,0,0,0,0],"id":5,"left_children":[1,3,5,7,9,11,13,15,17,19,21,23,25,-1,27,29,31,33,35,37,-1,39,41,43,45,47,49,-1,-1,-1,-1,-1,-1,-1,-1,-1,-1,-1,-1,-1,-1,-1,-1,-1,-1,-1,-1,-1,-1,-1,-1],"loss_changes":[5.1029968E2,3.0425073E2,3.2888928E2,2.3077884E2,2.5665945E2,3.1744128E2,4.1133206E2,1.2744461E2,1.9671167E2,9.675816E1,1.4505835E2,2.692963E2,3.9169006E2,0E0,2.7988696E2,6.7109726E1,8.65206E1,1.0045053E2,1.606028E2,1.3385047E1,0E0,5.5482544E1,1.9355402E2,2.1040942E2,3.6418915E2,2.0546603E2,1.4870221E2,0E0,0E0,0E0,0E0,0E0,0E0,0E0,0E0,0E0,0E0,0E0,0E0,0E0,0E0,0E0,0E0,0E0,0E0,0E0,0E0,0E0,0E0,0E0,0E0],"parents":[2147483647,0,0,1,1,2,2,3,3,4,4,5,5,6,6,7,7,8,8,9,9,10,10,11,11,12,12,14,14,15,15,16,16,17,17,18,18,19,19,21,21,22,22,23,23,24,24,25,25,26,26],"right_children":[2,4,6,8,10,12,14,16,18,20,22,24,26,-1,28,30,32,34,36,38,-1,40,42,44,46,48,50,-1,-1,-1,-1,-1,-1,-1,-1,-1,-1,-1,-1,-1,-1,-1,-1,-1,-1,-1,-1,-1,-1,-1,-1],"split_conditions":[3.1E1,1E0,3.7E1,1E1,1.166E1,3.5166668E1,1.3405E1,8.333333E0,1.3325E1,1.1916667E1,1.771E1,1.127E1,1.4788333E1,-4.203143E-1,1.8515E1,1.20633335E1,9.34E0,1.2285E1,2.3265E1,2.8166666E1,5.689891E-1,1.599E1,2.1666666E1,3.1333334E1,1.2233334E1,1.3325E1,1.2925E1,9.0051764E-1,-4.89068E-1,-2.3572467E-1,3.3158678E-1,5.788576E-1,1.2638389E-1,-6.894117E-2,-2.593156E-1,4.9132197E-3,-5.17714E-1,6.183524E-2,-3.370317E-1,-3.133838E-1,-5.750968E-1,2.0330532E-1,-5.47274E-1,4.996789E-1,-2.8972945E-1,4.297197E-1,9.2724495E-2,-1.4558499E-1,6.626947E-1,6.034487E-2,-6.032687E-1],"split_indices":[0,3,0,4,5,0,4,4,4,4,5,5,4,0,4,5,4,4,4,0,0,5,5,0,4,4,5,0,0,0,0,0,0,0,0,0,0,0,0,0,0,0,0,0,0,0,0,0,0,0,0],"split_type":[0,0,0,0,0,0,0,0,0,0,0,0,0,0,0,0,0,0,0,0,0,0,0,0,0,0,0,0,0,0,0,0,0,0,0,0,0,0,0,0,0,0,0,0,0,0,0,0,0,0,0],"sum_hessian":[8E2,5.03E2,2.97E2,4.36E2,6.7E1,2.81E2,1.6E1,2.6E1,4.1E2,6E0,6.1E1,2.5E2,3.1E1,3E0,1.3E1,8E0,1.8E1,1.12E2,2.98E2,2E0,4E0,4.7E1,1.4E1,2.6E1,2.24E2,1.1E1,2E1,1.2E1,1E0,6E0,2E0,1E1,8E0,5.9E1,5.3E1,2.93E2,5E0,1E0,1E0,3.3E1,1.4E1,1E1,4E0,3E0,2.3E1,3.8E1,1.86E2,6E0,5E0,4E0,1.6E1],"tree_param":{"num_deleted":"0","num_feature":"6","num_nodes":"51","size_leaf_vector":"1"}},{"base_weights":[8.13944E-3,-5.454899E-1,9.444517E-1,-2.6683205E-1,-2.3282542E0,7.0932424E-1,4.789244E0,2.3128622E0,-4.356518E-1,-5.676001E-1,-2.0303326E0,1.0479131E0,-1.9686482E0,-3.8879076E-1,6.9263415E0,4.653753E0,-1.5151381E0,-1.447645E0,-5.173582E-2,1.5056616E-1,-2.7010274E0,9.155308E-1,6.300935E0,2.2608974E0,-4.291786E0,8.173929E0,-4.646146E-1,-2.1009532E-1,5.2072316E-1,-4.2018944E-1,1.424141E-1,-9.637338E-2,-3.0298194E-1,4.4235582E-3,-4.745712E-1,1.2551348E-1,-1.8995708E-1,-3.6666885E-1,-8.3423994E-2,2.2953908E-1,4.2795386E-2,6.8770474E-1,1.710187E-1,-1.3310626E-1,6.0747015E-1,-4.9823886E-1,1.5126233E-1,8.987927E-1,4.0954515E-1],"categories":[],"categories_nodes":[],"categories_segments":[],"categories_sizes":[],"default_left":[0,0,0,0,0,0,0,0,0,0,0,0,0,0,0,0,0,0,0,0,0,0,0,0,0,0,0,0,0,0,0,0,0,0,0,0,0,0,0,0,0,0,0,0,0,0,0,0,0],"id":6,"left_children":[1,3,5,7,9,11,13,15,17,-1,19,21,23,-1,25,27,29,31,33,35,37,39,41,43,45,47,-1,-1,-1,-1,-1,-1,-1,-1,-1,-1,-1,-1,-1,-1,-1,-1,-1,-1,-1,-1,-1,-1,-1],"loss_changes":[4.157295E2,2.4975647E2,2.6599966E2,1.9132256E2,5.6296753E1,2.5776123E2,3.4217554E2,2.4899617E2,1.5960696E2,0E0,9.402063E1,1.6877847E2,3.2412946E2,0E0,2.4010492E2,7.4496124E1,9.285248E1,8.3596466E1,1.3490567E2,3.8616486E1,8.527261E1,1.645235E2,4.107666E0,1.7247418E2,9.171576E1,6.348694E0,0E0,0E0,0E0,0E0,0E0,0E0,0E0,0E0,0E0,0E0,0E0,0E0,0E0,0E0,0E0,0E0,0E0,0E0,0E0,0E0,0E0,0E0,0E0],"parents":[2147483647,0,0,1,1,2,2,3,3,4,4,5,5,6,6,7,7,8,8,10,10,11,11,12,12,14,14,15,15,16,16,17,17,18,18,19,19,20,20,21,21,22,22,23,23,24,24,25,25],"right_children":[2,4,6,8,10,12,14,16,18,-1,20,22,24,-1,26,28,30,32,34,36,38,40,42,44,46,48,-1,-1,-1,-1,-1,-1,-1,-1,-1,-1,-1,-1,-1,-1,-1,-1,-1,-1,-1,-1,-1,-1,-1],"split_conditions":[3.1E1,1E0,3.7E1,1E1,9.34E0,3.5166668E1,1.3405E1,4.3333335E0,1.3325E1,-5.676001E-1,1.375E1,6.5E0,1.4788333E1,-3.8879076E-1,1.8515E1,7.5E0,4.8333335E0,5.3333335E0,2.3265E1,3.05E1,2.9833334E1,1.288E1,3.1833334E1,1.3325E1,2.0833334E1,1.6518333E1,-4.646146E-1,-2.1009532E-1,5.2072316E-1,-4.2018944E-1,1.424141E-1,-9.637338E-2,-3.0298194E-1,4.4235582E-3,-4.745712E-1,1.2551348E-1,-1.8995708E-1,-3.6666885E-1,-8.3423994E-2,2.2953908E-1,4.2795386E-2,6.8770474E-1,1.710187E-1,-1.3310626E-1,6.0747015E-1,-4.9823886E-1,1.5126233E-1,8.987927E-1,4.0954515E-1],"split_indices":[0,3,0,4,4,0,4,1,4,0,4,1,4,0,4,4,1,1,4,0,0,4,0,4,4,4,0,0,0,0,0,0,0,0,0,0,0,0,0,0,0,0,0,0,0,0,0,0,0],"split_type":[0,0,0,0,0,0,0,0,0,0,0,0,0,0,0,0,0,0,0,0,0,0,0,0,0,0,0,0,0,0,0,0,0,0,0,0,0,0,0,0,0,0,0,0,0,0,0,0,0],"sum_hessian":[8E2,5.03E2,2.97E2,4.36E2,6.7E1,2.81E2,1.6E1,2.6E1,4.1E2,4E0,6.3E1,2.5E2,3.1E1,3E0,1.3E1,1.6E1,1E1,1.12E2,2.98E2,1.5E1,4.8E1,2.45E2,5E0,1.1E1,2E1,1.2E1,1E0,1E0,1.5E1,5E0,5E0,8.7E1,2.5E1,2.93E2,5E0,1E1,5E0,3.1E1,1.7E1,6.3E1,1.82E2,4E0,1E0,6E0,5E0,1.8E1,2E0,9E0,3E0],"tree_param":{"num_deleted":"0","num_feature":"6","num_nodes":"49","size_leaf_vector":"1"}},{"base_weights":[7.069237E-3,-4.9474776E-1,8.5575616E-1,-2.4206309E-1,-2.1113427E0,6.4285445E-1,4.337081E0,1.3868244E0,-4.4192088E-1,3.029754E0,-2.6577353E0,9.476281E-1,-1.7678025E0,1.8215096E0,8.645376E0,1.5950992E0,-2.2689974E-1,-1.5429331E0,-1.877831E-1,-1.7214298E0,5.2745132E0,-3.39378E0,-1.2520975E-1,-1.7403629E0,1.2659754E0,1.4645451E0,-3.3036218E0,8.3189183E-1,-2.4670596E0,2.5618362E-1,9.3497175E-1,-1.7380428E-1,1.8680637E-1,-1.03211634E-1,-3.4492835E-1,1.4745256E-1,-3.7247334E-2,5.2467823E-2,-3.106823E-1,1.41185E-1,5.887217E-1,-2.6008716E-1,-4.964787E-1,2.0177583E-1,-4.8146978E-1,-6.840336E-1,-2.703539E-2,3.4055826E-1,9.320253E-2,-4.4081473E-1,3.2593822E-1,-4.9225757E-1,1.4486956E-2,-4.411757E-2,-3.5943547E-1],"categories":[],"categories_nodes":[],"categories_segments":[],"categories_sizes":[],"default_left":[0,0,0,0,0,0,0,0,0,0,0,0,0,0,0,0,0,0,0,0,0,0,0,0,0,0,0,0,0,0,0,0,0,0,0,0,0,0,0,0,0,0,0,0,0,0,0,0,0,0,0,0,0,0,0],"id":7,"left_children":[1,3,5,7,9,11,13,15,17,19,21,23,25,27,29,31,-1,33,35,37,39,41,43,45,47,49,51,-1,53,-1,-1,-1,-1,-1,-1,-1,-1,-1,-1,-1,-1,-1,-1,-1,-1,-1,-1,-1,-1,-1,-1,-1,-1,-1,-1],"loss_changes":[3.4155768E2,2.0536726E2,2.1808351E2,1.428764E2,1.9906815E2,2.0886191E2,1.6849533E2,4.016722E1,1.08835686E2,8.373656E1,1.1514627E2,2.1698761E2,1.6369595E2,3.5489832E2,1.7568665E0,4.509893E1,0E0,6.752704E1,9.817909E1,1.096531E1,3.5214539E0,4.687921E1,1.6045624E2,2.0056985E2,1.5759329E2,1.3031363E2,1.2353801E2,0E0,1.6684406E1,0E0,0E0,0E0,0E0,0E0,0E0,0E0,0E0,0E0,0E0,0E0,0E0,0E0,0E0,0E0,0E0,0E0,0E0,0E0,0E0,0E0,0E0,0E0,0E0,0E0,0E0],"parents":[2147483647,0,0,1,1,2,2,3,3,4,4,5,5,6,6,7,7,8,8,9,9,10,10,11,11,12,12,13,13,14,14,15,15,17,17,18,18,19,19,20,20,21,21,22,22,23,23,24,24,25,25,26,26,28,28],"right_children":[2,4,6,8,10,12,14,16,18,20,22,24,26,28,30,32,-1,34,36,38,40,42,44,46,48,50,52,-1,54,-1,-1,-1,-1,-1,-1,-1,-1,-1,-1,-1,-1,-1,-1,-1,-1,-1,-1,-1,-1,-1,-1,-1,-1,-1,-1],"split_conditions":[3.1E1,1E0,3.7E1,4.3333335E0,1.166E1,3.5166668E1,1.7481667E1,1.5425E1,1.2128333E1,9.34E0,1.771E1,1.127E1,1.2925E1,3.75E1,3.75E1,7.245E0,-2.2689974E-1,1.1815E1,4.6666665E0,2.8166666E1,2.6E1,1.599E1,2.1666666E1,4.3333335E0,4.6666665E0,3.5333332E1,1.807E1,8.3189183E-1,3.8E1,2.5618362E-1,9.3497175E-1,-1.7380428E-1,1.8680637E-1,-1.03211634E-1,-3.4492835E-1,1.4745256E-1,-3.7247334E-2,5.2467823E-2,-3.106823E-1,1.41185E-1,5.887217E-1,-2.6008716E-1,-4.964787E-1,2.0177583E-1,-4.8146978E-1,-6.840336E-1,-2.703539E-2,3.4055826E-1,9.320253E-2,-4.4081473E-1,3.2593822E-1,-4.9225757E-1,1.4486956E-2,-4.411757E-2,-3.5943547E-1],"split_indices":[0,3,0,1,5,0,5,5,5,5,5,5,5,0,0,5,0,5,1,0,0,5,5,1,1,0,5,0,0,0,0,0,0,0,0,0,0,0,0,0,0,0,0,0,0,0,0,0,0,0,0,0,0,0,0],"split_type":[0,0,0,0,0,0,0,0,0,0,0,0,0,0,0,0,0,0,0,0,0,0,0,0,0,0,0,0,0,0,0,0,0,0,0,0,0,0,0,0,0,0,0,0,0,0,0,0,0,0,0,0,0,0,0],"sum_hessian":[8E2,5.03E2,2.97E2,4.36E2,6.7E1,2.81E2,1.6E1,4.7E1,3.89E2,6E0,6.1E1,2.5E2,3.1E1,1.1E1,5E0,4.5E1,2E0,7.2E1,3.17E2,2E0,4E0,4.7E1,1.4E1,2.6E1,2.24E2,1E1,2.1E1,4E0,7E0,1E0,4E0,3E0,4.2E1,5.8E1,1.4E1,3.1E1,2.86E2,1E0,1E0,1E0,3E0,3.3E1,1.4E1,1E1,4E0,5E0,2.1E1,2.9E1,1.95E2,2E0,8E0,1.4E1,7E0,3E0,4E0],"tree_param":{"num_deleted":"0","num_feature":"6","num_nodes":"55","size_leaf_vector":"1"}},{"base_weights":[5.904318E-3,5.4290285E0,-5.310111E0,7.9118924E0,2.3610046E0,-2.0573807E0,-7.1752734E0,9.416702E0,6.2487583E0,3.5681274E0,1.3716964E0,-9.65089E-1,-3.0938573E0,-5.2615685E0,-7.8224134E0,7.4375057E0,9.9515945E-1,5.786032E0,8.215236E-1,2.2146673E0,4.254324E0,9.204572E-1,2.9297054E0,-1.383847E0,6.3939935E-1,-3.511209E0,-8.012132E-1,-5.510409E0,-1.7718159E0,-8.024357E-1,-5.5825887E0,1.3412571E-1,7.6136166E-1,3.6836663E-1,6.0027826E-1,1.4330873E-1,2.6820716E-1,3.8785204E-1,5.618884E-1,1.6026816E-1,2.1522144E-2,2.070361E-1,3.6008355E-1,-7.8522824E-2,-2.0642386E-1,1.22604845E-2,1.7518263E-1,-4.5792586E-1,-3.0597913E-1,-1.3237447E-1,7.054188E-2,-5.998174E-1,-4.467868E-1,-2.3992498E-1,-3.4463216E-2,-2.6314193E-1,-7.0848197E-1],"categories":[],"categories_nodes":[],"categories_segments":[],"categories_sizes":[],"default_left":[0,0,0,0,0,0,0,0,0,0,0,0,0,0,0,0,0,0,0,0,0,0,0,0,0,0,0,0,0,0,0,0,0,0,0,0,0,0,0,0,0,0,0,0,0,0,0,0,0,0,0,0,0,0,0,0,0],"id":8,"left_children":[1,3,5,7,9,11,13,15,17,19,21,23,25,27,29,31,-1,33,-1,35,37,39,41,43,45,47,49,51,53,-1,55,-1,-1,-1,-1,-1,-1,-1,-1,-1,-1,-1,-1,-1,-1,-1,-1,-1,-1,-1,-1,-1,-1,-1,-1,-1,-1],"loss_changes":[2.3121188E4,3.005462E3,2.4423203E3,4.8924805E2,2.0887042E2,1.6570221E2,2.7712012E2,4.561328E1,4.983008E1,6.487714E1,6.760681E1,5.0604866E1,6.9906555E1,4.928711E1,4.1143555E1,1.9849487E1,0E0,1.8899658E1,0E0,6.750458E0,4.872986E0,3.766426E1,5.2330627E0,2.2409515E1,8.983556E0,1.6845093E1,1.1168208E1,5.2374268E0,4.545923E0,0E0,6.559027E1,0E0,0E0,0E0,0E0,0E0,0E0,0E0,0E0,0E0,0E0,0E0,0E0,0E0,0E0,0E0,0E0,0E0,0E0,0E0,0E0,0E0,0E0,0E0,0E0,0E0,0E0],"parents":[2147483647,0,0,1,1,2,2,3,3,4,4,5,5,6,6,7,7,8,8,9,9,10,10,11,11,12,12,13,13,14,14,15,15,17,17,19,19,20,20,21,21,22,22,23,23,24,24,25,25,26,26,27,27,28,28,30,30],"right_children":[2,4,6,8,10,12,14,16,18,20,22,24,26,28,30,32,-1,34,-1,36,38,40,42,44,46,48,50,52,54,-1,56,-1,-1,-1,-1,-1,-1,-1,-1,-1,-1,-1,-1,-1,-1,-1,-1,-1,-1,-1,-1,-1,-1,-1,-1,-1,-1],"split_conditions":[1.7E1,1E1,2.4E1,5E0,1.3E1,2.1E1,2.7E1,2.9333334E1,3.2166668E1,2.9666666E1,3.2E1,3.1833334E1,3.2666668E1,3.4166668E1,3.5333332E1,2.6E1,9.9515945E-1,2.8833334E1,8.215236E-1,2.8333334E1,3.2333332E1,1.5E1,3.4166668E1,1.9E1,3.4333332E1,2.95E1,3.4666668E1,3.05E1,3.5166668E1,-8.024357E-1,3.4E1,1.3412571E-1,7.6136166E-1,3.6836663E-1,6.0027826E-1,1.4330873E-1,2.6820716E-1,3.8785204E-1,5.618884E-1,1.6026816E-1,2.1522144E-2,2.070361E-1,3.6008355E-1,-7.8522824E-2,-2.0642386E-1,1.22604845E-2,1.7518263E-1,-4.5792586E-1,-3.0597913E-1,-1.3237447E-1,7.054188E-2,-5.998174E-1,-4.467868E-1,-2.3992498E-1,-3.4463216E-2,-2.6314193E-1,-7.0848197E-1],"split_indices":[2,2,2,2,2,2,2,0,0,0,0,0,0,0,0,0,0,0,0,0,0,2,0,2,0,0,0,0,0,0,2,0,0,0,0,0,0,0,0,0,0,0,0,0,0,0,0,0,0,0,0,0,0,0,0,0,0],"split_type":[0,0,0,0,0,0,0,0,0,0,0,0,0,0,0,0,0,0,0,0,0,0,0,0,0,0,0,0,0,0,0,0,0,0,0,0,0,0,0,0,0,0,0,0,0,0,0,0,0,0,0,0,0,0,0,0,0],"sum_hessian":[8E2,3.96E2,4.04E2,2.18E2,1.78E2,1.48E2,2.56E2,1.12E2,1.06E2,7.9E1,9.9E1,7.3E1,7.5E1,6.7E1,1.89E2,2.7E1,8.5E1,8.9E1,1.7E1,2.8E1,5.1E1,7.8E1,2.1E1,5.8E1,1.5E1,6.3E1,1.2E1,6.2E1,5E0,1.71E2,1.8E1,1E0,2.6E1,1E1,7.9E1,1.2E1,1.6E1,4.3E1,8E0,3.9E1,3.9E1,1.1E1,1E1,3.2E1,2.6E1,1.1E1,4E0,1.6E1,4.7E1,9E0,3E0,3.9E1,2.3E1,3E0,2E0,7E0,1.1E1],"tree_param":{"num_deleted":"0","num_feature":"6","num_nodes":"57","size_leaf_vector":"1"}},{"base_weights":[7.526971E-3,-4.957353E-1,6.4119095E-1,-2.7132758E-1,-1.6417238E0,-8.435404E-1,1.0088216E0,-1.617399E-2,-1.8559129E0,8.585439E-1,-2.8838658E0,-3.5005937E0,2.670804E-1,9.294238E-1,8.1624025E-1,1.8457116E0,-2.1244024E-1,3.5120254E0,-2.6324272E0,-3.6767526E0,2.484256E0,-3.2072606E0,-1.3019005E0,-5.2543054E0,5.9757233E-3,2.7038608E0,-1.3922572E0,3.111552E0,7.152052E-1,1.0394015E-1,5.032103E-1,-1.9954197E-1,2.6291242E-2,1.23159125E-1,4.914453E-1,-3.3791897E-1,5.0834394E-3,-4.5644757E-1,8.2479194E-2,1.0267891E-1,5.4709697E-1,-1.8248901E-1,-3.7345305E-1,-3.2750842E-1,1.3263E-1,-6.1982626E-1,-2.3155299E-1,3.6010382E-1,-2.8712693E-1,7.780232E-2,5.185197E-1,-4.9565744E-1,-8.333456E-2,-2.5457856E-1,4.310368E-1,3.9366296E-1,5.5644598E-2],"categories":[],"categories_nodes":[],"categories_segments":[],"categories_sizes":[],"default_left":[0,0,0,0,0,0,0,0,0,0,0,0,0,0,0,0,0,0,0,0,0,0,0,0,0,0,0,0,0,0,0,0,0,0,0,0,0,0,0,0,0,0,0,0,0,0,0,0,0,0,0,0,0,0,0,0,0],"id":9,"left_children":[1,3,5,7,9,11,13,15,17,19,21,23,25,27,-1,29,31,33,35,37,39,41,43,45,47,49,51,53,55,-1,-1,-1,-1,-1,-1,-1,-1,-1,-1,-1,-1,-1,-1,-1,-1,-1,-1,-1,-1,-1,-1,-1,-1,-1,-1,-1,-1],"loss_changes":[2.5575609E2,1.1450894E2,1.946216E2,1.5158722E2,2.2919113E2,2.1045444E2,1.5428741E2,1.187899E2,2.2599571E2,1.9346117E2,2.0892853E1,1.2917111E2,2.0997997E2,1.3006366E2,0E0,7.4415436E1,2.4970256E2,1.6334404E1,9.2344696E1,3.173761E1,7.7090164E1,2.234018E1,5.6202972E1,2.4484833E1,9.309055E1,9.6317444E1,5.7625755E1,1.8052594E2,1.3027007E2,0E0,0E0,0E0,0E0,0E0,0E0,0E0,0E0,0E0,0E0,0E0,0E0,0E0,0E0,0E0,0E0,0E0,0E0,0E0,0E0,0E0,0E0,0E0,0E0,0E0,0E0,0E0,0E0],"parents":[2147483647,0,0,1,1,2,2,3,3,4,4,5,5,6,6,7,7,8,8,9,9,10,10,11,11,12,12,13,13,15,15,16,16,17,17,18,18,19,19,20,20,21,21,22,22,23,23,24,24,25,25,26,26,27,27,28,28],"right_children":[2,4,6,8,10,12,14,16,18,20,22,24,26,28,-1,30,32,34,36,38,40,42,44,46,48,50,52,54,56,-1,-1,-1,-1,-1,-1,-1,-1,-1,-1,-1,-1,-1,-1,-1,-1,-1,-1,-1,-1,-1,-1,-1,-1,-1,-1,-1,-1],"split_conditions":[3.0666666E1,3.0333334E1,1.24366665E1,1E0,1.323E1,1.2631667E1,3.85E1,1.101E1,1.20633335E1,1.1083333E1,1E0,1.1546667E1,1.0851666E1,1.1201667E1,8.1624025E-1,3.0166666E1,1.3231667E1,1.3603333E1,1.732E1,1.2766666E1,1.2268333E1,1.3333333E1,1.7E1,3.4666668E1,1.1675E1,1.0118333E1,1.1083333E1,1.2925E1,1.288E1,1.0394015E-1,5.032103E-1,-1.9954197E-1,2.6291242E-2,1.23159125E-1,4.914453E-1,-3.3791897E-1,5.0834394E-3,-4.5644757E-1,8.2479194E-2,1.0267891E-1,5.4709697E-1,-1.8248901E-1,-3.7345305E-1,-3.2750842E-1,1.3263E-1,-6.1982626E-1,-2.3155299E-1,3.6010382E-1,-2.8712693E-1,7.780232E-2,5.185197E-1,-4.9565744E-1,-8.333456E-2,-2.5457856E-1,4.310368E-1,3.9366296E-1,5.5644598E-2],"split_indices":[0,0,5,3,4,4,0,4,5,5,3,5,5,4,0,0,4,4,5,4,4,5,4,0,5,5,5,5,5,0,0,0,0,0,0,0,0,0,0,0,0,0,0,0,0,0,0,0,0,0,0,0,0,0,0,0,0],"split_type":[0,0,0,0,0,0,0,0,0,0,0,0,0,0,0,0,0,0,0,0,0,0,0,0,0,0,0,0,0,0,0,0,0,0,0,0,0,0,0,0,0,0,0,0,0,0,0,0,0,0,0,0,0,0,0,0,0],"sum_hessian":[8E2,4.46E2,3.54E2,3.74E2,7.2E1,7E1,2.84E2,3.23E2,5.1E1,2.4E1,4.8E1,2E1,5E1,2.82E2,2E0,3E1,2.93E2,6E0,4.5E1,6E0,1.8E1,3.9E1,9E0,1.3E1,7E0,2E1,3E1,2.4E1,2.58E2,2.5E1,5E0,6.1E1,2.32E2,3E0,3E0,3.5E1,1E1,5E0,1E0,1.3E1,5E0,1.2E1,2.7E1,5E0,4E0,9E0,4E0,3E0,4E0,1.2E1,8E0,3E0,2.7E1,4E0,2E1,1.1E1,2.47E2],"tree_param":{"num_deleted":"0","num_feature":"6","num_nodes":"57","size_leaf_vector":"1"}},{"base_weights":[7.924815E-3,-2.8285006E-1,9.708786E-1,-3.9704714E0,-2.400694E-1,3.108271E0,4.7232854E-1,2.1909778E-1,-5.6901187E-1,-3.1376103E-1,2.3489244E0,4.601081E0,2.4955463E0,-2.6450443E0,9.375551E-1,1.212615E-1,-8.839684E-2,7.525986E-1,-4.3945068E-1,1.0883331E-1,5.533507E0,5.321751E0,-5.8213998E-2,-1.1016903E0,2.9911046E0,1.3627275E0,-3.7321577E0,5.507346E-1,3.5446398E0,1.0608953E-1,-2.353036E-1,-5.5627353E-2,3.7963722E-2,1.3905622E-1,-1.7073539E-1,6.059555E-1,1.1886115E-1,9.678812E-2,5.805464E-1,-3.1022653E-1,2.450017E-1,3.10264E-1,1.1761446E-1,-3.6850864E-1,3.5459527E-1,-1.5699618E-1,-5.239426E-1,1.2958294E-1,-1.4689182E-1,1.4785233E-1,7.0861E-1],"categories":[],"categories_nodes":[],"categories_segments":[],"categories_sizes":[],"default_left":[0,0,0,0,0,0,0,0,0,0,0,0,0,0,0,0,0,0,0,0,0,0,0,0,0,0,0,0,0,0,0,0,0,0,0,0,0,0,0,0,0,0,0,0,0,0,0,0,0,0,0],"id":10,"left_children":[1,3,5,7,9,11,13,15,-1,17,19,21,23,25,27,-1,-1,29,31,33,35,37,-1,39,41,43,45,47,49,-1,-1,-1,-1,-1,-1,-1,-1,-1,-1,-1,-1,-1,-1,-1,-1,-1,-1,-1,-1,-1,-1],"loss_changes":[2.2455682E2,9.622626E1,1.9673293E2,5.1678757E1,1.1711717E2,2.0531647E1,2.2292311E2,4.3596587E0,0E0,7.994478E1,1.20671616E2,3.6716553E1,5.142656E1,9.222397E1,1.3217487E2,0E0,0E0,6.281611E1,5.111731E1,2.7980637E1,8.79689E0,1.12291565E1,0E0,3.6022427E1,1.2092133E0,6.81697E1,4.391841E1,1.7796892E2,1.1391319E2,0E0,0E0,0E0,0E0,0E0,0E0,0E0,0E0,0E0,0E0,0E0,0E0,0E0,0E0,0E0,0E0,0E0,0E0,0E0,0E0,0E0,0E0],"parents":[2147483647,0,0,1,1,2,2,3,3,4,4,5,5,6,6,7,7,9,9,10,10,11,11,12,12,13,13,14,14,17,17,18,18,19,19,20,20,21,21,23,23,24,24,25,25,26,26,27,27,28,28],"right_children":[2,4,6,8,10,12,14,16,-1,18,20,22,24,26,28,-1,-1,30,32,34,36,38,-1,40,42,44,46,48,50,-1,-1,-1,-1,-1,-1,-1,-1,-1,-1,-1,-1,-1,-1,-1,-1,-1,-1,-1,-1,-1,-1],"split_conditions":[3.1833334E1,2.65E1,1E0,1.251E1,6.1666665E0,4.8333335E0,3.2333332E1,2.6E1,-5.6901187E-1,4.3333335E0,3.0666666E1,1.4043333E1,1.2075E1,4.6666665E0,3.7E1,1.212615E-1,-8.839684E-2,1.5425E1,1.932E1,6.5E0,1.8461666E1,4.1666665E0,-5.8213998E-2,3.2333332E1,3.25E1,4E0,1.5876667E1,3.5166668E1,1.7481667E1,1.0608953E-1,-2.353036E-1,-5.5627353E-2,3.7963722E-2,1.3905622E-1,-1.7073539E-1,6.059555E-1,1.1886115E-1,9.678812E-2,5.805464E-1,-3.1022653E-1,2.450017E-1,3.10264E-1,1.1761446E-1,-3.6850864E-1,3.5459527E-1,-1.5699618E-1,-5.239426E-1,1.2958294E-1,-1.4689182E-1,1.4785233E-1,7.0861E-1],"split_indices":[0,0,3,5,1,1,0,0,0,1,0,5,5,1,0,0,0,5,5,1,5,1,0,0,0,1,5,0,5,0,0,0,0,0,0,0,0,0,0,0,0,0,0,0,0,0,0,0,0,0,0],"split_type":[0,0,0,0,0,0,0,0,0,0,0,0,0,0,0,0,0,0,0,0,0,0,0,0,0,0,0,0,0,0,0,0,0,0,0,0,0,0,0,0,0,0,0,0,0,0,0,0,0,0,0],"sum_hessian":[8E2,6.15E2,1.85E2,6E0,6.09E2,3.4E1,1.51E2,2E0,4E0,5.93E2,1.6E1,8E0,2.6E1,1.9E1,1.32E2,1E0,1E0,6.2E1,5.31E2,1E1,6E0,7E0,1E0,3E0,2.3E1,4E0,1.5E1,1.16E2,1.6E1,5.7E1,5E0,4.65E2,6.6E1,6E0,4E0,5E0,1E0,1E0,6E0,2E0,1E0,2.1E1,2E0,1E0,3E0,7E0,8E0,8.5E1,3.1E1,1.1E1,5E0],"tree_param":{"num_deleted":"0","num_feature":"6","num_nodes":"51","size_leaf_vector":"1"}},{"base_weights":[8.551014E-3,4.8056073E0,-4.6937695E0,7.3663473E0,2.490251E0,-1.8177704E0,-6.342914E0,8.955332E0,6.4124856E0,3.6040835E0,1.2289944E0,-8.368222E-1,-2.748986E0,-4.6842165E0,-6.903169E0,5.639083E-1,9.1853064E-1,6.805238E-1,5.2073467E-1,4.176238E0,2.874596E0,1.6274468E0,3.7069872E-1,-1.1517873E0,7.117281E-2,-3.003881E0,-1.9383621E0,-5.0002855E-1,-3.6059195E-1,-6.002813E0,-7.1734864E-1,3.7183407E-1,5.697966E-1,4.5428183E-2,2.9131457E-1,2.0669226E-1,1.3061778E-1,5.6261206E-3,1.5305722E-1,-6.5222465E-2,-1.7251736E-1,-1.1993255E-2,1.1940807E-1,-2.2186625E-1,-3.3174407E-1,-9.276106E-2,-3.1829628E-1,-6.3247377E-1,-4.08264E-1],"categories":[],"categories_nodes":[],"categories_segments":[],"categories_sizes":[],"default_left":[0,0,0,0,0,0,0,0,0,0,0,0,0,0,0,0,0,0,0,0,0,0,0,0,0,0,0,0,0,0,0,0,0,0,0,0,0,0,0,0,0,0,0,0,0,0,0,0,0],"id":11,"left_children":[1,3,5,7,9,11,13,15,17,19,21,23,25,27,29,-1,-1,-1,-1,31,33,35,37,39,41,43,45,-1,-1,47,-1,-1,-1,-1,-1,-1,-1,-1,-1,-1,-1,-1,-1,-1,-1,-1,-1,-1,-1],"loss_changes":[1.809095E4,2.3354785E3,1.9093604E3,2.2752051E2,2.9058472E2,1.3380722E2,2.0649219E2,6.347656E-2,2.1834473E1,3.432422E1,3.3595703E1,2.1244995E1,9.880798E0,5.1447754E0,3.1816406E0,0E0,0E0,0E0,0E0,2.0620728E1,3.5283508E0,6.9011536E0,1.1949245E1,1.46291275E1,4.4350834E0,6.427643E0,2.3465073E1,0E0,0E0,5.0859375E0,0E0,0E0,0E0,0E0,0E0,0E0,0E0,0E0,0E0,0E0,0E0,0E0,0E0,0E0,0E0,0E0,0E0,0E0,0E0],"parents":[2147483647,0,0,1,1,2,2,3,3,4,4,5,5,6,6,7,7,8,8,9,9,10,10,11,11,12,12,13,13,14,14,19,19,20,20,21,21,22,22,23,23,24,24,25,25,26,26,29,29],"right_children":[2,4,6,8,10,12,14,16,18,20,22,24,26,28,30,-1,-1,-1,-1,32,34,36,38,40,42,44,46,-1,-1,48,-1,-1,-1,-1,-1,-1,-1,-1,-1,-1,-1,-1,-1,-1,-1,-1,-1,-1,-1],"split_conditions":[1.7E1,9E0,2.4E1,3E0,1.3E1,2.1E1,2.7E1,9.75E0,7E0,1.1E1,1.6E1,1E0,1E0,1E0,2.9E1,5.639083E-1,9.1853064E-1,6.805238E-1,5.2073467E-1,1E0,8.616667E0,1.4E1,1E0,1.9E1,1.7333334E1,2.2E1,1.8655E1,-5.0002855E-1,-3.6059195E-1,1E0,-7.1734864E-1,3.7183407E-1,5.697966E-1,4.5428183E-2,2.9131457E-1,2.0669226E-1,1.3061778E-1,5.6261206E-3,1.5305722E-1,-6.5222465E-2,-1.7251736E-1,-1.1993255E-2,1.1940807E-1,-2.2186625E-1,-3.3174407E-1,-9.276106E-2,-3.1829628E-1,-6.3247377E-1,-4.08264E-1],"split_indices":[2,2,2,2,2,2,2,4,2,2,2,3,3,3,2,0,0,0,0,3,4,2,3,2,4,2,4,0,0,3,0,0,0,0,0,0,0,0,0,0,0,0,0,0,0,0,0,0,0],"split_type":[0,0,0,0,0,0,0,0,0,0,0,0,0,0,0,0,0,0,0,0,0,0,0,0,0,0,0,0,0,0,0,0,0,0,0,0,0,0,0,0,0,0,0,0,0,0,0,0,0],"sum_hessian":[8E2,3.96E2,4.04E2,1.87E2,2.09E2,1.48E2,2.56E2,6.7E1,1.2E2,1.1E2,9.9E1,7.3E1,7.5E1,6.7E1,1.89E2,6E0,6.1E1,8.7E1,3.3E1,5.9E1,5.1E1,6.7E1,3.2E1,5.4E1,1.9E1,5.5E1,2E1,4.9E1,1.8E1,4.9E1,1.4E2,4.8E1,1.1E1,1E0,5E1,2.6E1,4.1E1,2.6E1,6E0,3E1,2.4E1,1.7E1,2E0,1.8E1,3.7E1,1.2E1,8E0,4E1,9E0],"tree_param":{"num_deleted":"0","num_feature":"6","num_nodes":"49","size_leaf_vector":"1"}},{"base_weights":[8.625316E-3,4.336276E0,-4.233562E0,6.6439877E0,2.2496753E0,-2.1169782E0,-6.057529E0,8.081598E-1,5.7811656E0,3.255192E0,1.1110549E0,-7.549009E-1,-2.9676397E0,-5.239624E0,-6.461225E0,5.3002787E0,6.9029155E0,3.7743082E0,2.5936122E0,1.639654E0,5.7103497E-1,-1.0409307E0,6.942644E-2,-2.4867802E0,-3.7866077E-1,-5.543267E-1,-3.7355328E0,-6.9920003E-1,-5.8861713E0,5.67339E-1,4.2848086E-1,1.3751355E-1,7.032685E-1,3.3540952E-1,5.175652E-1,4.3156814E-2,2.6275432E-1,9.917556E-2,1.864066E-1,1.0925359E-2,1.488171E-1,-5.891058E-2,-1.5595566E-1,-1.0860544E-2,1.11447565E-1,-2.7133784E-1,-1.7641E-1,-4.0093955E-1,-1.212328E-1,-4.755868E-1,-6.470794E-1],"categories":[],"categories_nodes":[],"categories_segments":[],"categories_sizes":[],"default_left":[0,0,0,0,0,0,0,0,0,0,0,0,0,0,0,0,0,0,0,0,0,0,0,0,0,0,0,0,0,0,0,0,0,0,0,0,0,0,0,0,0,0,0,0,0,0,0,0,0,0,0],"id":12,"left_children":[1,3,5,7,9,11,13,-1,15,17,19,21,23,25,27,29,31,33,35,37,39,41,43,45,-1,-1,47,-1,49,-1,-1,-1,-1,-1,-1,-1,-1,-1,-1,-1,-1,-1,-1,-1,-1,-1,-1,-1,-1,-1,-1],"loss_changes":[1.4723681E4,1.8967163E3,1.5507104E3,1.8647461E2,2.3681287E2,2.167478E2,3.77959E1,0E0,2.8684326E1,2.8332275E1,2.7609108E1,1.7520157E1,3.626538E1,1.4459473E1,1.8803711E0,9.411377E0,1.4001343E1,1.7972107E1,2.680725E0,5.421112E0,2.1436745E1,1.1969299E1,3.8420794E0,7.6589355E0,0E0,0E0,6.1954956E0,0E0,1.8125488E1,0E0,0E0,0E0,0E0,0E0,0E0,0E0,0E0,0E0,0E0,0E0,0E0,0E0,0E0,0E0,0E0,0E0,0E0,0E0,0E0,0E0,0E0],"parents":[2147483647,0,0,1,1,2,2,3,3,4,4,5,5,6,6,8,8,9,9,10,10,11,11,12,12,13,13,14,14,15,15,16,16,17,17,18,18,19,19,20,20,21,21,22,22,23,23,26,26,28,28],"right_children":[2,4,6,8,10,12,14,-1,16,18,20,22,24,26,28,30,32,34,36,38,40,42,44,46,-1,-1,48,-1,50,-1,-1,-1,-1,-1,-1,-1,-1,-1,-1,-1,-1,-1,-1,-1,-1,-1,-1,-1,-1,-1,-1],"split_conditions":[1.7E1,9E0,2.6E1,3E0,1.3E1,2.1E1,2.9E1,8.081598E-1,1E0,1.1E1,1.5E1,1E0,2.4E1,1E0,1E0,7E0,1.0118333E1,1E0,8.616667E0,1.2833333E1,1E0,1.9E1,1.7333334E1,1E0,-3.7866077E-1,-5.543267E-1,1.9433332E1,-6.9920003E-1,3.4E1,5.67339E-1,4.2848086E-1,1.3751355E-1,7.032685E-1,3.3540952E-1,5.175652E-1,4.3156814E-2,2.6275432E-1,9.917556E-2,1.864066E-1,1.0925359E-2,1.488171E-1,-5.891058E-2,-1.5595566E-1,-1.0860544E-2,1.11447565E-1,-2.7133784E-1,-1.7641E-1,-4.0093955E-1,-1.212328E-1,-4.755868E-1,-6.470794E-1],"split_indices":[2,2,2,2,2,2,2,0,3,2,2,3,2,3,3,2,5,3,4,5,3,2,4,3,0,0,5,0,2,0,0,0,0,0,0,0,0,0,0,0,0,0,0,0,0,0,0,0,0,0,0],"split_type":[0,0,0,0,0,0,0,0,0,0,0,0,0,0,0,0,0,0,0,0,0,0,0,0,0,0,0,0,0,0,0,0,0,0,0,0,0,0,0,0,0,0,0,0,0,0,0,0,0,0,0],"sum_hessian":[8E2,3.96E2,4.04E2,1.87E2,2.09E2,1.88E2,2.16E2,6.7E1,1.2E2,1.1E2,9.9E1,7.3E1,1.15E2,7.6E1,1.4E2,8.8E1,3.2E1,5.9E1,5.1E1,4.9E1,5E1,5.4E1,1.9E1,7.5E1,4E1,6.1E1,1.5E1,6.7E1,7.3E1,6.1E1,2.7E1,1E0,3.1E1,4.8E1,1.1E1,1E0,5E1,1.4E1,3.5E1,3.4E1,1.6E1,3E1,2.4E1,1.7E1,2E0,5.5E1,2E1,1.3E1,2E0,2.8E1,4.5E1],"tree_param":{"num_deleted":"0","num_feature":"6","num_nodes":"51","size_leaf_vector":"1"}},{"base_weights":[8.27462E-3,3.913351E0,-3.819685E0,5.692528E0,1.7147309E0,-1.9102577E0,-5.465132E0,6.77942E0,4.4914875E0,2.3855467E0,7.3066026E-1,-6.809553E-1,-2.6780002E0,-4.729642E0,-5.8280234E0,6.3151584E0,8.878848E-1,4.1864376E0,6.218859E-1,6.6929513E-1,2.7768927E0,3.7936756E-1,2.0871203E0,-1.5084827E0,-1.7347182E-1,-2.9914E0,-5.322888E-1,-4.8671966E0,-1.775418E-1,-6.106477E-1,-4.133937E0,4.6008874E-2,6.3719475E-1,1.919078E-1,4.2922544E-1,9.133543E-2,5.06976E-3,2.523009E-1,4.278554E-1,-4.501323E-2,7.45585E-2,1.1926552E-1,2.4150872E-1,-2.2018014E-1,-1.0009835E-1,-4.207458E-2,1.0845821E-1,-2.3471664E-1,-3.4102246E-1,-1.17449366E-1,7.338016E-2,-5.606181E-1,-4.3655133E-1,-1.6566887E-1,-5.11419E-1],"categories":[],"categories_nodes":[],"categories_segments":[],"categories_sizes":[],"default_left":[0,0,0,0,0,0,0,0,0,0,0,0,0,0,0,0,0,0,0,0,0,0,0,0,0,0,0,0,0,0,0,0,0,0,0,0,0,0,0,0,0,0,0,0,0,0,0,0,0,0,0,0,0,0,0],"id":13,"left_children":[1,3,5,7,9,11,13,15,17,19,21,23,25,27,29,31,-1,33,-1,35,37,39,41,43,45,47,49,51,-1,-1,53,-1,-1,-1,-1,-1,-1,-1,-1,-1,-1,-1,-1,-1,-1,-1,-1,-1,-1,-1,-1,-1,-1,-1,-1],"loss_changes":[1.1988678E4,1.5431973E3,1.2620142E3,2.554331E2,1.1642029E2,1.7655225E2,3.0353027E1,5.406787E1,3.0347168E1,6.933618E1,3.4470276E1,3.0815105E1,7.64137E1,2.2648926E1,4.126953E1,2.898877E1,0E0,1.4315918E1,0E0,3.124158E0,2.1992432E1,1.8562248E1,1.5199585E0,7.648075E0,1.5077281E1,1.9247559E1,1.3871273E1,2.5899658E0,0E0,0E0,4.7378967E1,0E0,0E0,0E0,0E0,0E0,0E0,0E0,0E0,0E0,0E0,0E0,0E0,0E0,0E0,0E0,0E0,0E0,0E0,0E0,0E0,0E0,0E0,0E0,0E0],"parents":[2147483647,0,0,1,1,2,2,3,3,4,4,5,5,6,6,7,7,8,8,9,9,10,10,11,11,12,12,13,13,14,14,15,15,17,17,19,19,20,20,21,21,22,22,23,23,24,24,25,25,26,26,27,27,30,30],"right_children":[2,4,6,8,10,12,14,16,18,20,22,24,26,28,30,32,-1,34,-1,36,38,40,42,44,46,48,50,52,-1,-1,54,-1,-1,-1,-1,-1,-1,-1,-1,-1,-1,-1,-1,-1,-1,-1,-1,-1,-1,-1,-1,-1,-1,-1,-1],"split_conditions":[1.7E1,1E1,2.6E1,5E0,1.4E1,2.1E1,2.9E1,3.2833332E1,3.2666668E1,2.8666666E1,3.2333332E1,3.0333334E1,3.2666668E1,3.3833332E1,3.5166668E1,2.6E1,8.878848E-1,2.85E1,6.218859E-1,1.3E1,3.2333332E1,2.95E1,3.3333332E1,2.85E1,3.3166668E1,2.3E1,3.4666668E1,2.9666666E1,-1.775418E-1,-6.106477E-1,3.4E1,4.6008874E-2,6.3719475E-1,1.919078E-1,4.2922544E-1,9.133543E-2,5.06976E-3,2.523009E-1,4.278554E-1,-4.501323E-2,7.45585E-2,1.1926552E-1,2.4150872E-1,-2.2018014E-1,-1.0009835E-1,-4.207458E-2,1.0845821E-1,-2.3471664E-1,-3.4102246E-1,-1.17449366E-1,7.338016E-2,-5.606181E-1,-4.3655133E-1,-1.6566887E-1,-5.11419E-1],"split_indices":[2,2,2,2,2,2,2,0,0,0,0,0,0,0,0,0,0,0,0,2,0,0,0,0,0,2,0,0,0,0,2,0,0,0,0,0,0,0,0,0,0,0,0,0,0,0,0,0,0,0,0,0,0,0,0],"split_type":[0,0,0,0,0,0,0,0,0,0,0,0,0,0,0,0,0,0,0,0,0,0,0,0,0,0,0,0,0,0,0,0,0,0,0,0,0,0,0,0,0,0,0,0,0,0,0,0,0,0,0,0,0,0,0],"sum_hessian":[8E2,3.96E2,4.04E2,2.18E2,1.78E2,1.88E2,2.16E2,1.12E2,1.06E2,1.05E2,7.3E1,7.3E1,1.15E2,7.6E1,1.4E2,9.5E1,1.7E1,9.3E1,1.3E1,2E1,8.5E1,5.9E1,1.4E1,2.7E1,4.6E1,1E2,1.5E1,7.2E1,4E0,1.18E2,2.2E1,1E0,9.4E1,5E0,8.8E1,1.4E1,6E0,7.5E1,1E1,1.8E1,4.1E1,5E0,9E0,1E1,1.7E1,3.9E1,7E0,4.2E1,5.8E1,1E1,5E0,2.5E1,4.7E1,7E0,1.5E1],"tree_param":{"num_deleted":"0","num_feature":"6","num_nodes":"55","size_leaf_vector":"1"}},{"base_weights":[8.252117E-3,3.5320437E0,-3.445954E0,5.4176197E0,1.8271847E0,-1.3308228E0,-4.658828E0,6.6132593E0,4.700917E0,2.6460595E0,8.9996177E-1,-6.1629087E-1,-2.0090404E0,-3.4343271E0,-5.0725503E0,3.916857E-1,6.8110263E-1,4.2896013E0,5.6677693E-1,3.0693512E0,2.10676E0,1.2056208E0,2.4284744E-1,-8.534109E-1,6.660376E-2,-2.1939728E0,-1.4202187E0,-3.6612892E-1,-2.6563044E0,-5.374662E0,-4.618325E0,2.9152295E-1,4.465929E-1,2.7230307E-1,4.2277142E-1,4.4002496E-2,2.2364874E-1,6.289666E-2,1.3569574E-1,3.9549937E-4,1.12959735E-1,-4.5155153E-2,-1.3175802E-1,-5.5177625E-2,5.2483846E-2,-1.5352254E-1,-2.4656105E-1,-5.4513317E-2,-2.526429E-1,-3.0788225E-1,-1.690489E-1,-4.8535252E-1,-5.88211E-1,-3.7045732E-1,-5.2727664E-1],"categories":[],"categories_nodes":[],"categories_segments":[],"categories_sizes":[],"default_left":[0,0,0,0,0,0,0,0,0,0,0,0,0,0,0,0,0,0,0,0,0,0,0,0,0,0,0,0,0,0,0,0,0,0,0,0,0,0,0,0,0,0,0,0,0,0,0,0,0,0,0,0,0,0,0],"id":14,"left_children":[1,3,5,7,9,11,13,15,17,19,21,23,25,27,29,-1,-1,31,-1,33,35,37,39,41,43,45,47,-1,49,51,53,-1,-1,-1,-1,-1,-1,-1,-1,-1,-1,-1,-1,-1,-1,-1,-1,-1,-1,-1,-1,-1,-1,-1,-1],"loss_changes":[9.761865E3,1.2663135E3,1.0327812E3,1.300122E2,1.5706732E2,7.0968445E1,1.1277588E2,9.58374E0,2.3807129E1,1.8872803E1,1.9792511E1,1.2039511E1,5.159912E0,2.2821045E0,1.2509766E0,0E0,0E0,8.54895E0,0E0,1.2557739E1,1.0259384E1,5.0808105E0,6.986181E0,9.664234E0,5.9568567E0,6.2354126E0,1.8951363E1,0E0,2.5486908E0,1.1474609E-2,3.0100342E1,0E0,0E0,0E0,0E0,0E0,0E0,0E0,0E0,0E0,0E0,0E0,0E0,0E0,0E0,0E0,0E0,0E0,0E0,0E0,0E0,0E0,0E0,0E0,0E0],"parents":[2147483647,0,0,1,1,2,2,3,3,4,4,5,5,6,6,7,7,8,8,9,9,10,10,11,11,12,12,13,13,14,14,17,17,19,19,20,20,21,21,22,22,23,23,24,24,25,25,26,26,28,28,29,29,30,30],"right_children":[2,4,6,8,10,12,14,16,18,20,22,24,26,28,30,-1,-1,32,-1,34,36,38,40,42,44,46,48,-1,50,52,54,-1,-1,-1,-1,-1,-1,-1,-1,-1,-1,-1,-1,-1,-1,-1,-1,-1,-1,-1,-1,-1,-1,-1,-1],"split_conditions":[1.7E1,9E0,2.4E1,3E0,1.3E1,2.1E1,2.7E1,9.75E0,1E0,1.1E1,1.6E1,1E0,1E0,1E0,1E0,3.916857E-1,6.8110263E-1,1.112E1,5.6677693E-1,1E0,4.1666665E0,4.6666665E0,1E0,1.9E1,5E0,2.2E1,1.8655E1,-3.6612892E-1,5.3333335E0,3E1,3.4E1,2.9152295E-1,4.465929E-1,2.7230307E-1,4.2277142E-1,4.4002496E-2,2.2364874E-1,6.289666E-2,1.3569574E-1,3.9549937E-4,1.12959735E-1,-4.5155153E-2,-1.3175802E-1,-5.5177625E-2,5.2483846E-2,-1.5352254E-1,-2.4656105E-1,-5.4513317E-2,-2.526429E-1,-3.0788225E-1,-1.690489E-1,-4.8535252E-1,-5.88211E-1,-3.7045732E-1,-5.2727664E-1],"split_indices":[2,2,2,2,2,2,2,4,3,2,2,3,3,3,3,0,0,4,0,3,1,1,3,2,1,2,4,0,1,2,2,0,0,0,0,0,0,0,0,0,0,0,0,0,0,0,0,0,0,0,0,0,0,0,0],"split_type":[0,0,0,0,0,0,0,0,0,0,0,0,0,0,0,0,0,0,0,0,0,0,0,0,0,0,0,0,0,0,0,0,0,0,0,0,0,0,0,0,0,0,0,0,0,0,0,0,0,0,0,0,0,0,0],"sum_hessian":[8E2,3.96E2,4.04E2,1.87E2,2.09E2,1.48E2,2.56E2,6.7E1,1.2E2,1.1E2,9.9E1,7.3E1,7.5E1,6.7E1,1.89E2,6E0,6.1E1,8.8E1,3.2E1,5.9E1,5.1E1,6.7E1,3.2E1,5.4E1,1.9E1,5.5E1,2E1,4.9E1,1.8E1,1.07E2,8.2E1,1.2E1,7.6E1,4.8E1,1.1E1,4E0,4.7E1,1.5E1,5.2E1,2.6E1,6E0,3E1,2.4E1,8E0,1.1E1,1.8E1,3.7E1,1.2E1,8E0,1.1E1,7E0,5.8E1,4.9E1,3.7E1,4.5E1],"tree_param":{"num_deleted":"0","num_feature":"6","num_nodes":"55","size_leaf_vector":"1"}},{"base_weights":[7.366033E-3,3.0262632E0,-3.2788486E0,4.6371784E0,1.2471797E0,-1.7436937E0,-4.4522457E0,5.5385976E0,3.6418748E0,1.949562E0,4.5034075E-1,-1.914556E0,1.147386E0,-4.568225E0,-3.0031898E0,5.1264935E0,7.4287844E-1,2.585607E0,3.983519E0,9.12361E-1,2.4925196E0,-6.948591E-1,8.692672E-1,-1.1011115E0,-2.5103045E0,1.3428005E0,2.438186E-2,-3.6482453E0,-4.8444295E-1,-9.1025954E-1,-4.1482106E-1,5.9562737E-1,4.4274315E-1,1.4541087E-1,2.760748E-1,3.6722207E-1,5.1665324E-1,4.4588324E-2,1.4058985E-1,2.2323015E-1,3.6616427E-1,-1.8073077E-1,-4.7117848E-2,6.5576605E-2,2.0846978E-1,-1.7387669E-1,-6.9928996E-2,-3.7691885E-1,-2.232466E-1,7.055264E-2,1.803693E-1,-4.2085662E-1,-2.8074965E-1,-1.2054203E-1,-3.1374373E-2],"categories":[],"categories_nodes":[],"categories_segments":[],"categories_sizes":[],"default_left":[0,0,0,0,0,0,0,0,0,0,0,0,0,0,0,0,0,0,0,0,0,0,0,0,0,0,0,0,0,0,0,0,0,0,0,0,0,0,0,0,0,0,0,0,0,0,0,0,0,0,0,0,0,0,0],"id":15,"left_children":[1,3,5,7,9,11,13,15,17,19,21,23,25,27,29,31,-1,33,35,37,39,41,43,45,47,49,-1,51,-1,53,-1,-1,-1,-1,-1,-1,-1,-1,-1,-1,-1,-1,-1,-1,-1,-1,-1,-1,-1,-1,-1,-1,-1,-1,-1],"loss_changes":[7.956439E3,1.192185E3,6.839536E2,1.763125E2,1.1105914E2,8.518475E1,2.275E1,4.993799E1,2.8312866E1,5.74205E1,4.61807E1,7.4288574E1,1.438303E0,3.2893066E1,4.175659E1,2.931543E1,0E0,1.732544E0,1.0120728E1,8.121651E0,1.281778E1,5.6180983E0,1.6797638E1,1.6463524E1,2.3414185E1,1.0771656E0,0E0,1.1738892E1,0E0,1.0303521E0,0E0,0E0,0E0,0E0,0E0,0E0,0E0,0E0,0E0,0E0,0E0,0E0,0E0,0E0,0E0,0E0,0E0,0E0,0E0,0E0,0E0,0E0,0E0,0E0,0E0],"parents":[2147483647,0,0,1,1,2,2,3,3,4,4,5,5,6,6,7,7,8,8,9,9,10,10,11,11,12,12,13,13,14,14,15,15,17,17,18,18,19,19,20,20,21,21,22,22,23,23,24,24,25,25,27,27,29,29],"right_children":[2,4,6,8,10,12,14,16,18,20,22,24,26,28,30,32,-1,34,36,38,40,42,44,46,48,50,-1,52,-1,54,-1,-1,-1,-1,-1,-1,-1,-1,-1,-1,-1,-1,-1,-1,-1,-1,-1,-1,-1,-1,-1,-1,-1,-1,-1],"split_conditions":[1.8E1,1E1,2.6E1,5E0,1.4E1,3.4666668E1,3.5333332E1,3.2833332E1,2.9666666E1,2.9666666E1,2.95E1,2.2E1,2.4E1,2.8E1,3.4E1,2E0,7.4287844E-1,2.85E1,3.2666668E1,2.8666666E1,3.2333332E1,2.8166666E1,3.3833332E1,3E1,2.9166666E1,1.2925E1,2.438186E-2,3.0333334E1,-4.8444295E-1,1.7333334E1,-4.1482106E-1,5.9562737E-1,4.4274315E-1,1.4541087E-1,2.760748E-1,3.6722207E-1,5.1665324E-1,4.4588324E-2,1.4058985E-1,2.2323015E-1,3.6616427E-1,-1.8073077E-1,-4.7117848E-2,6.5576605E-2,2.0846978E-1,-1.7387669E-1,-6.9928996E-2,-3.7691885E-1,-2.232466E-1,7.055264E-2,1.803693E-1,-4.2085662E-1,-2.8074965E-1,-1.2054203E-1,-3.1374373E-2],"split_indices":[2,2,2,2,2,0,0,0,0,0,0,2,2,2,2,2,0,0,0,0,0,0,0,0,0,5,0,0,0,4,0,0,0,0,0,0,0,0,0,0,0,0,0,0,0,0,0,0,0,0,0,0,0,0,0],"split_type":[0,0,0,0,0,0,0,0,0,0,0,0,0,0,0,0,0,0,0,0,0,0,0,0,0,0,0,0,0,0,0,0,0,0,0,0,0,0,0,0,0,0,0,0,0,0,0,0,0,0,0,0,0,0,0],"sum_hessian":[8E2,4.17E2,3.83E2,2.18E2,1.99E2,1.67E2,2.16E2,1.12E2,1.06E2,1.05E2,9.4E1,1.58E2,9E0,1.98E2,1.8E1,9.5E1,1.7E1,2.8E1,7.8E1,3.7E1,6.8E1,2.5E1,6.9E1,6.8E1,9E1,7E0,2E0,4.9E1,1.49E2,7E0,1.1E1,4E1,5.5E1,5E0,2.3E1,6.5E1,1.3E1,2E1,1.7E1,5.8E1,1E1,3E0,2.2E1,6E1,9E0,2.5E1,4.3E1,1.4E1,7.6E1,4E0,3E0,2.7E1,2.2E1,4E0,3E0],"tree_param":{"num_deleted":"0","num_feature":"6","num_nodes":"55","size_leaf_vector":"1"}},{"base_weights":[8.609385E-3,2.880056E0,-2.8061385E0,4.5213995E0,1.5658376E0,-1.0758554E0,-3.7983801E0,4.175086E0,6.277903E-1,2.4316742E0,9.109914E-1,-1.8303643E0,-4.8622075E-1,-2.8212543E0,-4.1280966E0,5.375174E-1,3.689825E0,1.6795435E0,2.9036293E0,-2.351027E-2,1.2629384E0,-1.1692917E0,-2.269303E0,-6.570237E-1,1.2398857E0,-2.9170907E0,2.2756418E-2,-4.2848115E0,-2.8656185E0,1.7909549E-1,3.8014868E-1,1.9098154E-1,8.207739E-2,2.6684943E-1,4.0102696E-1,3.988194E-2,-4.2237468E-2,1.8390322E-1,8.4946506E-2,-1.7725185E-1,-7.356926E-2,-2.7984777E-1,-1.8440147E-1,2.6111847E-2,-1.06992245E-1,2.3923112E-2,1.3486604E-1,-3.3699164E-1,-2.2971289E-1,-3.782604E-1,-4.591554E-1,-1.0032268E-1,-3.7341127E-1],"categories":[],"categories_nodes":[],"categories_segments":[],"categories_sizes":[],"default_left":[0,0,0,0,0,0,0,0,0,0,0,0,0,0,0,0,0,0,0,0,0,0,0,0,0,0,0,0,0,0,0,0,0,0,0,0,0,0,0,0,0,0,0,0,0,0,0,0,0,0,0,0,0],"id":16,"left_children":[1,3,5,7,9,11,13,15,-1,17,19,21,23,25,27,-1,29,31,33,35,37,39,41,43,45,47,-1,49,51,-1,-1,-1,-1,-1,-1,-1,-1,-1,-1,-1,-1,-1,-1,-1,-1,-1,-1,-1,-1,-1,-1,-1,-1],"loss_changes":[6.482083E3,8.492825E2,6.9124097E2,8.085034E1,1.23656555E2,6.539783E1,7.115259E1,6.752002E1,0E0,2.884552E1,4.212825E1,1.6207611E1,2.587468E1,2.0532532E1,2.5312744E1,0E0,1.6515015E1,6.1447372E0,4.1305847E0,6.2327332E0,2.0590363E1,6.0196114E0,3.3915253E0,2.9849152E1,5.4812527E-1,1.07873535E1,0E0,8.358154E0,3.5073288E1,0E0,0E0,0E0,0E0,0E0,0E0,0E0,0E0,0E0,0E0,0E0,0E0,0E0,0E0,0E0,0E0,0E0,0E0,0E0,0E0,0E0,0E0,0E0,0E0],"parents":[2147483647,0,0,1,1,2,2,3,3,4,4,5,5,6,6,7,7,9,9,10,10,11,11,12,12,13,13,14,14,16,16,17,17,18,18,19,19,20,20,21,21,22,22,23,23,24,24,25,25,27,27,28,28],"right_children":[2,4,6,8,10,12,14,16,-1,18,20,22,24,26,28,-1,30,32,34,36,38,40,42,44,46,48,-1,50,52,-1,-1,-1,-1,-1,-1,-1,-1,-1,-1,-1,-1,-1,-1,-1,-1,-1,-1,-1,-1,-1,-1,-1,-1],"split_conditions":[1.7E1,8E0,2.4E1,3.2666668E1,1.2E1,3.0333334E1,2.7E1,2E0,6.277903E-1,3E1,2.95E1,2.1E1,3.4666668E1,3.5166668E1,3.5166668E1,5.375174E-1,2.85E1,1.1E1,3.4333332E1,1.4E1,1.4E1,2.85E1,2.9333334E1,1.9E1,4.6666665E0,3.0333334E1,2.2756418E-2,3E1,3.4E1,1.7909549E-1,3.8014868E-1,1.9098154E-1,8.207739E-2,2.6684943E-1,4.0102696E-1,3.988194E-2,-4.2237468E-2,1.8390322E-1,8.4946506E-2,-1.7725185E-1,-7.356926E-2,-2.7984777E-1,-1.8440147E-1,2.6111847E-2,-1.06992245E-1,2.3923112E-2,1.3486604E-1,-3.3699164E-1,-2.2971289E-1,-3.782604E-1,-4.591554E-1,-1.0032268E-1,-3.7341127E-1],"split_indices":[2,2,2,0,2,0,2,2,0,0,0,2,0,0,0,0,0,2,0,2,2,0,0,2,1,0,0,2,2,0,0,0,0,0,0,0,0,0,0,0,0,0,0,0,0,0,0,0,0,0,0,0,0],"split_type":[0,0,0,0,0,0,0,0,0,0,0,0,0,0,0,0,0,0,0,0,0,0,0,0,0,0,0,0,0,0,0,0,0,0,0,0,0,0,0,0,0,0,0,0,0,0,0,0,0,0,0,0,0],"sum_hessian":[8E2,3.96E2,4.04E2,1.75E2,2.21E2,1.48E2,2.56E2,1.49E2,2.6E1,9.4E1,1.27E2,6.4E1,8.4E1,6.7E1,1.89E2,4E1,1.09E2,3.8E1,5.6E1,3.5E1,9.2E1,2.7E1,3.7E1,7.7E1,7E0,6.5E1,2E0,1.66E2,2.3E1,7E0,1.02E2,2.9E1,9E0,4.9E1,7E0,1.7E1,1.8E1,3.7E1,5.5E1,1E1,1.7E1,1.4E1,2.3E1,2.4E1,5.3E1,1E0,6E0,3.5E1,3E1,6.8E1,9.8E1,8E0,1.5E1],"tree_param":{"num_deleted":"0","num_feature":"6","num_nodes":"53","size_leaf_vector":"1"}},{"base_weights":[8.297559E-3,2.8161085E0,-2.336918E0,4.2547092E0,1.7459698E0,-7.7797145E-1,-3.4257603E0,3.931833E0,5.93679E-1,2.3041673E0,1.0532938E0,-2.7694467E-1,-1.4665356E0,-2.6979737E0,-3.7952545E0,4.8507667E-1,3.4844337E0,1.5527537E0,2.6792173E0,7.4456796E-2,1.3432932E0,-4.2194465E-1,1.3327156E-1,-2.0208147E0,-7.594997E-1,-3.578908E-1,-2.2841735E0,-3.967115E-1,-2.5987957E0,-1.572237E-2,3.525726E-1,1.7426139E-1,6.840714E-2,2.4306229E-1,3.9272186E-1,-3.8133908E-2,2.5775764E-2,1.15912E-1,2.9405054E-1,-1.6146342E-1,-2.525858E-2,-2.5372863E-1,-1.6719614E-1,-9.3475886E-2,8.32448E-2,-2.3681335E-1,2.1239312E-2,-9.14051E-2,-3.3840397E-1],"categories":[],"categories_nodes":[],"categories_segments":[],"categories_sizes":[],"default_left":[0,0,0,0,0,0,0,0,0,0,0,0,0,0,0,0,0,0,0,0,0,0,0,0,0,0,0,0,0,0,0,0,0,0,0,0,0,0,0,0,0,0,0,0,0,0,0,0,0],"id":17,"left_children":[1,3,5,7,9,11,13,15,-1,17,19,21,23,25,27,-1,29,31,33,35,37,39,-1,41,43,-1,45,-1,47,-1,-1,-1,-1,-1,-1,-1,-1,-1,-1,-1,-1,-1,-1,-1,-1,-1,-1,-1,-1],"loss_changes":[5.2811035E3,5.5449E2,7.391189E2,6.0838867E1,7.915619E1,6.2036858E1,5.8871094E1,3.7778076E1,0E0,2.853064E1,2.7150742E1,2.5302807E1,2.8249222E1,2.4632996E1,2.4234863E1,0E0,1.453894E1,5.569992E0,1.4033142E1,2.0198917E0,1.8359726E1,1.9387436E1,0E0,3.3250122E0,1.0543255E1,0E0,1.3918152E1,0E0,2.8657288E1,0E0,0E0,0E0,0E0,0E0,0E0,0E0,0E0,0E0,0E0,0E0,0E0,0E0,0E0,0E0,0E0,0E0,0E0,0E0,0E0],"parents":[2147483647,0,0,1,1,2,2,3,3,4,4,5,5,6,6,7,7,9,9,10,10,11,11,12,12,13,13,14,14,16,16,17,17,18,18,19,19,20,20,21,21,23,23,24,24,26,26,28,28],"right_children":[2,4,6,8,10,12,14,16,-1,18,20,22,24,26,28,-1,30,32,34,36,38,40,-1,42,44,-1,46,-1,48,-1,-1,-1,-1,-1,-1,-1,-1,-1,-1,-1,-1,-1,-1,-1,-1,-1,-1,-1,-1],"split_conditions":[1.6E1,7E0,2.4E1,3.2666668E1,1.2E1,2.1E1,2.8E1,2E0,5.93679E-1,2.9833334E1,2.9166666E1,3.4333332E1,3.05E1,2.95E1,3.5166668E1,4.8507667E-1,2.6E1,1.1E1,3.4333332E1,2.7666666E1,3.4333332E1,2.8666666E1,1.3327156E-1,2.9333334E1,3.4666668E1,-3.578908E-1,3.5166668E1,-3.967115E-1,3.4E1,-1.572237E-2,3.525726E-1,1.7426139E-1,6.840714E-2,2.4306229E-1,3.9272186E-1,-3.8133908E-2,2.5775764E-2,1.15912E-1,2.9405054E-1,-1.6146342E-1,-2.525858E-2,-2.5372863E-1,-1.6719614E-1,-9.3475886E-2,8.32448E-2,-2.3681335E-1,2.1239312E-2,-9.14051E-2,-3.3840397E-1],"split_indices":[2,2,2,0,2,2,2,2,0,0,0,0,0,0,0,0,0,2,0,0,0,0,0,0,0,0,0,0,2,0,0,0,0,0,0,0,0,0,0,0,0,0,0,0,0,0,0,0,0],"split_type":[0,0,0,0,0,0,0,0,0,0,0,0,0,0,0,0,0,0,0,0,0,0,0,0,0,0,0,0,0,0,0,0,0,0,0,0,0,0,0,0,0,0,0,0,0,0,0,0,0],"sum_hessian":[8E2,3.64E2,4.36E2,1.54E2,2.1E2,1.8E2,2.56E2,1.32E2,2.2E1,1.15E2,9.5E1,1.05E2,7.5E1,8.9E1,1.67E2,4E1,9.2E1,4E1,7.5E1,2.2E1,7.3E1,9.7E1,8E0,4.1E1,3.4E1,2.6E1,6.3E1,1.44E2,2.3E1,1E0,9.1E1,3.2E1,8E0,6.5E1,1E1,6E0,1.6E1,6.7E1,6E0,1.1E1,8.6E1,1.4E1,2.7E1,3.1E1,3E0,6.1E1,2E0,8E0,1.5E1],"tree_param":{"num_deleted":"0","num_feature":"6","num_nodes":"49","size_leaf_vector":"1"}},{"base_weights":[8.475311E-3,2.231327E0,-2.4112134E0,3.4188764E0,9.1980386E-1,-1.2004294E0,-3.2079647E0,4.1059556E0,2.6613169E0,1.4340985E0,3.3627722E-1,-1.4051381E0,2.413754E-1,-2.7244287E0,-3.4972823E0,3.4136524E0,4.7496635E-1,1.843466E0,2.927853E0,6.5041125E-1,1.8449103E0,-5.465572E-1,6.593832E-1,-8.798377E-1,-1.8662564E0,-3.172466E-1,9.593852E-1,-3.3494562E-1,-2.2130985E0,-3.6715886E-1,-2.4433804E0,1.1448651E-1,3.5605094E-1,1.2554328E-1,2.1330734E-1,2.6998276E-1,3.7936988E-1,2.869221E-2,1.038348E-1,1.6326618E-1,2.8156146E-1,-1.4823091E-1,-3.6005434E-2,3.0710286E-2,1.14684485E-1,-1.2770277E-1,-5.996683E-2,-2.7882764E-1,-1.6314678E-1,9.45176E-4,-9.730063E-2,4.7677327E-2,1.2501203E-1,-2.320561E-1,-3.165431E-2,-8.911466E-2,-3.0667862E-1],"categories":[],"categories_nodes":[],"categories_segments":[],"categories_sizes":[],"default_left":[0,0,0,0,0,0,0,0,0,0,0,0,0,0,0,0,0,0,0,0,0,0,0,0,0,0,0,0,0,0,0,0,0,0,0,0,0,0,0,0,0,0,0,0,0,0,0,0,0,0,0,0,0,0,0,0,0],"id":18,"left_children":[1,3,5,7,9,11,13,15,17,19,21,23,25,27,29,31,-1,33,35,37,39,41,43,45,47,49,51,-1,53,-1,55,-1,-1,-1,-1,-1,-1,-1,-1,-1,-1,-1,-1,-1,-1,-1,-1,-1,-1,-1,-1,-1,-1,-1,-1,-1,-1],"loss_changes":[4.313646E3,6.478894E2,3.665913E2,1.0306323E2,5.9538666E1,4.5792267E1,2.2787842E1,3.41438E1,1.7927185E1,3.292653E1,2.745905E1,3.1058472E1,8.326283E0,2.1670471E1,1.6930908E1,1.5248657E1,0E0,2.2607346E0,5.3550415E0,5.060484E0,9.619156E0,4.003818E0,1.1668425E1,6.4674416E0,1.0821075E1,2.5800238E0,6.6678524E-1,0E0,1.0067261E1,0E0,1.9523468E1,0E0,0E0,0E0,0E0,0E0,0E0,0E0,0E0,0E0,0E0,0E0,0E0,0E0,0E0,0E0,0E0,0E0,0E0,0E0,0E0,0E0,0E0,0E0,0E0,0E0,0E0],"parents":[2147483647,0,0,1,1,2,2,3,3,4,4,5,5,6,6,7,7,8,8,9,9,10,10,11,11,12,12,13,13,14,14,15,15,17,17,18,18,19,19,20,20,21,21,22,22,23,23,24,24,25,25,26,26,28,28,30,30],"right_children":[2,4,6,8,10,12,14,16,18,20,22,24,26,28,30,32,-1,34,36,38,40,42,44,46,48,50,52,-1,54,-1,56,-1,-1,-1,-1,-1,-1,-1,-1,-1,-1,-1,-1,-1,-1,-1,-1,-1,-1,-1,-1,-1,-1,-1,-1,-1,-1],"split_conditions":[1.8E1,1E1,2.5E1,5E0,1.4E1,3.3E1,2.9E1,3.0333334E1,2.9666666E1,2.9666666E1,2.95E1,2.2E1,3.4666668E1,3.0166666E1,3.5166668E1,2.7666666E1,4.7496635E-1,1.4043333E1,3.2666668E1,2.8666666E1,3.2333332E1,2.8166666E1,3.15E1,3E1,2.9166666E1,2.3E1,1.2925E1,-3.3494562E-1,3.4666668E1,-3.6715886E-1,3.4E1,1.1448651E-1,3.5605094E-1,1.2554328E-1,2.1330734E-1,2.6998276E-1,3.7936988E-1,2.869221E-2,1.038348E-1,1.6326618E-1,2.8156146E-1,-1.4823091E-1,-3.6005434E-2,3.0710286E-2,1.14684485E-1,-1.2770277E-1,-5.996683E-2,-2.7882764E-1,-1.6314678E-1,9.45176E-4,-9.730063E-2,4.7677327E-2,1.2501203E-1,-2.320561E-1,-3.165431E-2,-8.911466E-2,-3.0667862E-1],"split_indices":[2,2,2,2,2,0,2,0,0,0,0,2,0,0,0,0,0,5,0,0,0,0,0,0,0,2,5,0,0,0,2,0,0,0,0,0,0,0,0,0,0,0,0,0,0,0,0,0,0,0,0,0,0,0,0,0,0],"split_type":[0,0,0,0,0,0,0,0,0,0,0,0,0,0,0,0,0,0,0,0,0,0,0,0,0,0,0,0,0,0,0,0,0,0,0,0,0,0,0,0,0,0,0,0,0,0,0,0,0,0,0,0,0,0,0,0,0],"sum_hessian":[8E2,4.17E2,3.83E2,2.18E2,1.99E2,1.53E2,2.3E2,1.12E2,1.06E2,1.05E2,9.4E1,1.34E2,1.9E1,9E1,1.4E2,5.7E1,5.5E1,2.8E1,7.8E1,3.7E1,6.8E1,2.5E1,6.9E1,6.4E1,7E1,1.1E1,8E0,3.8E1,5.2E1,1.18E2,2.2E1,4E0,5.3E1,1.1E1,1.7E1,6.5E1,1.3E1,2E1,1.7E1,5.8E1,1E1,3E0,2.2E1,4.1E1,2.8E1,2.5E1,3.9E1,1.2E1,5.8E1,8E0,3E0,4E0,4E0,4.9E1,3E0,7E0,1.5E1],"tree_param":{"num_deleted":"0","num_feature":"6","num_nodes":"57","size_leaf_vector":"1"}},{"base_weights":[8.323582E-3,-2.874925E-1,3.8077843E-1,-2.5841944E0,-2.5038502E-1,3.0903813E-1,1.7889652E0,-6.6796494E-1,-3.2170933E-1,-5.379445E-1,-8.952309E-2,3.4205183E-1,-1.5802294E0,8.3859134E-1,3.391552E-1,-2.0660592E-2,-7.953415E-2,-6.390682E-1,3.994701E-1,7.475956E-2,-5.653916E-1,-1.4965579E-1,4.7774878E-1,-1.8693238E0,-6.737852E-3,3.2624328E-1,-7.8113353E-1,-4.7828894E-2,-1.8025918E-1,6.828638E-2,-6.2142707E-2,2.4006445E-2,-4.1335594E-2,-4.350081E-2,-1.7325775E-1,6.093483E-3,-2.1439295E-1,2.6753923E-1,4.24583E-2,-2.2530566E-1,-1.6719628E-2,-3.0317858E-2,-2.0634091E-1],"categories":[],"categories_nodes":[],"categories_segments":[],"categories_sizes":[],"default_left":[0,0,0,0,0,0,0,0,0,0,0,0,0,0,0,0,0,0,0,0,0,0,0,0,0,0,0,0,0,0,0,0,0,0,0,0,0,0,0,0,0,0,0],"id":19,"left_children":[1,3,5,7,9,11,13,15,-1,17,19,21,23,25,-1,-1,-1,27,29,31,33,35,37,39,-1,-1,41,-1,-1,-1,-1,-1,-1,-1,-1,-1,-1,-1,-1,-1,-1,-1,-1],"loss_changes":[8.836215E1,3.7448475E1,3.531056E1,6.3405495E0,2.0351337E1,2.1684513E1,2.3047836E1,1.19766E-2,0E0,1.5232872E1,2.2244518E1,2.2357056E1,2.498189E0,4.965987E1,0E0,0E0,0E0,2.5888927E1,5.0534034E0,1.7205065E1,1.0355581E1,3.0788843E1,2.9476025E1,2.8891087E0,0E0,0E0,4.2773786E0,0E0,0E0,0E0,0E0,0E0,0E0,0E0,0E0,0E0,0E0,0E0,0E0,0E0,0E0,0E0,0E0],"parents":[2147483647,0,0,1,1,2,2,3,3,4,4,5,5,6,6,7,7,9,9,10,10,11,11,12,12,13,13,17,17,18,18,19,19,20,20,21,21,22,22,23,23,26,26],"right_children":[2,4,6,8,10,12,14,16,-1,18,20,22,24,26,-1,-1,-1,28,30,32,34,36,38,40,-1,-1,42,-1,-1,-1,-1,-1,-1,-1,-1,-1,-1,-1,-1,-1,-1,-1,-1],"split_conditions":[3.0666666E1,2.65E1,3.7E1,1.251E1,2.9333334E1,3.6333332E1,1.7481667E1,2.6E1,-3.2170933E-1,1.9543333E1,3.0333334E1,1.275E1,3.6833332E1,3.75E1,3.391552E-1,-2.0660592E-2,-7.953415E-2,1.7766666E1,5.8333335E0,5.5E0,2.0236666E1,5.5E0,1.288E1,5.5E0,-6.737852E-3,3.2624328E-1,1.5876667E1,-4.7828894E-2,-1.8025918E-1,6.828638E-2,-6.2142707E-2,2.4006445E-2,-4.1335594E-2,-4.350081E-2,-1.7325775E-1,6.093483E-3,-2.1439295E-1,2.6753923E-1,4.24583E-2,-2.2530566E-1,-1.6719628E-2,-3.0317858E-2,-2.0634091E-1],"split_indices":[0,0,0,5,0,0,5,0,0,5,0,5,0,0,0,0,0,5,1,1,5,1,5,1,0,0,5,0,0,0,0,0,0,0,0,0,0,0,0,0,0,0,0],"split_type":[0,0,0,0,0,0,0,0,0,0,0,0,0,0,0,0,0,0,0,0,0,0,0,0,0,0,0,0,0,0,0,0,0,0,0,0,0,0,0,0,0,0,0],"sum_hessian":[8E2,4.46E2,3.54E2,6E0,4.4E2,3.38E2,1.6E1,2E0,4E0,1.57E2,2.83E2,3.33E2,5E0,1.1E1,5E0,1E0,1E0,1.42E2,1.5E1,2.11E2,7.2E1,7.2E1,2.61E2,4E0,1E0,4E0,7E0,1.26E2,1.6E1,1.2E1,3E0,1.58E2,5.3E1,6.6E1,6E0,6.6E1,6E0,5E0,2.56E2,3E0,1E0,6E0,1E0],"tree_param":{"num_deleted":"0","num_feature":"6","num_nodes":"43","size_leaf_vector":"1"}},{"base_weights":[6.746913E-3,2.282576E0,-1.8941327E0,3.4565167E0,1.409385E0,-6.353858E-1,-2.7732732E0,3.1962388E0,4.8847318E-1,1.9661945E0,9.623876E-1,-3.9906885E-2,-1.0193776E0,-2.0511298E0,-3.0171282E0,3.9729922E0,2.8234394E0,1.6138495E0,2.412676E0,8.1691885E-1,2.6495704E-1,-5.415291E-1,3.7492913E-1,-1.179471E0,6.9950426E-1,-2.1206975E0,1.630675E-2,-3.1284883E0,-2.116534E0,1.15963936E-1,4.0143353E-1,1.7467701E-1,2.990022E-1,7.746191E-2,1.7200994E-1,1.285528E-1,2.5786567E-1,3.1572334E-2,1.0840148E-1,-1.389182E-1,-3.7670866E-2,5.635352E-2,-1.1211292E-2,-1.8142502E-1,-9.233456E-2,4.341526E-3,1.1296611E-1,-2.4451701E-1,-1.675481E-1,-2.742451E-1,-3.3659437E-1,-7.654598E-2,-2.7442297E-1],"categories":[],"categories_nodes":[],"categories_segments":[],"categories_sizes":[],"default_left":[0,0,0,0,0,0,0,0,0,0,0,0,0,0,0,0,0,0,0,0,0,0,0,0,0,0,0,0,0,0,0,0,0,0,0,0,0,0,0,0,0,0,0,0,0,0,0,0,0,0,0,0,0],"id":20,"left_children":[1,3,5,7,9,11,13,15,-1,17,19,21,23,25,27,29,31,33,35,37,-1,39,41,43,45,47,-1,49,51,-1,-1,-1,-1,-1,-1,-1,-1,-1,-1,-1,-1,-1,-1,-1,-1,-1,-1,-1,-1,-1,-1,-1,-1],"loss_changes":[3.4695117E3,3.6928088E2,4.8182874E2,4.2005615E1,5.0624054E1,4.1346596E1,3.9068726E1,2.7585327E1,0E0,1.0736603E1,2.7041977E1,1.5185586E1,3.1095047E1,1.08203125E1,1.2433716E1,1.1364746E-1,1.1636414E1,3.5718231E0,3.981369E0,1.4517021E1,0E0,4.0871315E0,3.7375422E0,1.4745712E1,2.7731671E0,5.437561E0,0E0,6.0773926E0,1.8252922E1,0E0,0E0,0E0,0E0,0E0,0E0,0E0,0E0,0E0,0E0,0E0,0E0,0E0,0E0,0E0,0E0,0E0,0E0,0E0,0E0,0E0,0E0,0E0,0E0],"parents":[2147483647,0,0,1,1,2,2,3,3,4,4,5,5,6,6,7,7,9,9,10,10,11,11,12,12,13,13,14,14,15,15,16,16,17,17,18,18,19,19,21,21,22,22,23,23,24,24,25,25,27,27,28,28],"right_children":[2,4,6,8,10,12,14,16,-1,18,20,22,24,26,28,30,32,34,36,38,-1,40,42,44,46,48,-1,50,52,-1,-1,-1,-1,-1,-1,-1,-1,-1,-1,-1,-1,-1,-1,-1,-1,-1,-1,-1,-1,-1,-1,-1,-1],"split_conditions":[1.6E1,7E0,2.4E1,3.2833332E1,1.1E1,1.9E1,2.7E1,2E0,4.8847318E-1,3.0666666E1,3.4333332E1,3.0333334E1,3.45E1,3.5166668E1,3.5166668E1,2.75E1,1.101E1,2.85E1,1.1675E1,2.9666666E1,2.6495704E-1,2.8166666E1,1.8E1,2.9666666E1,1.4681666E1,3.0333334E1,1.630675E-2,3E1,3.4E1,1.15963936E-1,4.0143353E-1,1.7467701E-1,2.990022E-1,7.746191E-2,1.7200994E-1,1.285528E-1,2.5786567E-1,3.1572334E-2,1.0840148E-1,-1.389182E-1,-3.7670866E-2,5.635352E-2,-1.1211292E-2,-1.8142502E-1,-9.233456E-2,4.341526E-3,1.1296611E-1,-2.4451701E-1,-1.675481E-1,-2.742451E-1,-3.3659437E-1,-7.654598E-2,-2.7442297E-1],"split_indices":[2,2,2,0,2,2,2,2,0,0,0,0,0,0,0,0,4,0,4,0,0,0,2,0,4,0,0,2,2,0,0,0,0,0,0,0,0,0,0,0,0,0,0,0,0,0,0,0,0,0,0,0,0],"split_type":[0,0,0,0,0,0,0,0,0,0,0,0,0,0,0,0,0,0,0,0,0,0,0,0,0,0,0,0,0,0,0,0,0,0,0,0,0,0,0,0,0,0,0,0,0,0,0,0,0,0,0,0,0],"sum_hessian":[8E2,3.64E2,4.36E2,1.54E2,2.1E2,1.8E2,2.56E2,1.33E2,2.1E1,9.2E1,1.18E2,7.1E1,1.09E2,6.7E1,1.89E2,4E1,9.3E1,5.4E1,3.8E1,1.1E2,8E0,3.2E1,3.9E1,1E2,9E0,6.5E1,2E0,1.66E2,2.3E1,1E0,3.9E1,1.4E1,7.9E1,7E0,4.7E1,6E0,3.2E1,3.9E1,7.1E1,4E0,2.8E1,2.8E1,1.1E1,2.7E1,7.3E1,4E0,5E0,3.5E1,3E1,6.8E1,9.8E1,8E0,1.5E1],"tree_param":{"num_deleted":"0","num_feature":"6","num_nodes":"53","size_leaf_vector":"1"}},{"base_weights":[7.164453E-3,2.0612235E0,-1.7084848E0,3.1204107E0,1.2733788E0,-5.734377E-1,-2.501228E0,2.8840113E0,4.4184613E-1,1.6815175E0,7.669471E-1,-3.7741713E-2,-9.18862E-1,-1.9642761E0,-2.7739928E0,3.5883123E-1,2.5461352E0,1.544555E0,2.8484732E-1,6.4597344E-1,2.2127588E-1,-4.9272725E-1,3.385649E-1,-1.0970193E0,3.8114733E-1,-2.3686435E0,-1.4876955E0,-2.8962944E0,-1.9195042E0,1.8637644E-1,2.793303E-1,1.1104589E-1,1.7429057E-1,-8.459384E-3,7.932148E-2,-1.2780479E-1,-3.4033656E-2,2.0064337E-2,9.6010305E-2,-1.6393046E-1,-8.644336E-2,-2.072976E-2,8.483932E-2,-2.6185828E-1,-1.9345005E-1,-1.5694092E-1,1.5219624E-2,-1.3414267E-1,-2.9308906E-1,-6.974189E-2,-2.4869584E-1],"categories":[],"categories_nodes":[],"categories_segments":[],"categories_sizes":[],"default_left":[0,0,0,0,0,0,0,0,0,0,0,0,0,0,0,0,0,0,0,0,0,0,0,0,0,0,0,0,0,0,0,0,0,0,0,0,0,0,0,0,0,0,0,0,0,0,0,0,0,0,0],"id":21,"left_children":[1,3,5,7,9,11,13,15,-1,17,19,21,23,25,27,-1,29,31,-1,33,-1,35,37,39,41,43,45,47,49,-1,-1,-1,-1,-1,-1,-1,-1,-1,-1,-1,-1,-1,-1,-1,-1,-1,-1,-1,-1,-1,-1],"loss_changes":[2.8262817E3,3.0060986E2,3.917787E2,3.482019E1,4.2322876E1,3.3457993E1,3.2191895E1,2.2751099E1,0E0,1.4140564E1,1.5361507E1,1.2494233E1,2.5894821E1,1.3820404E1,1.1997314E1,0E0,1.064801E1,7.191513E0,0E0,9.748375E0,0E0,3.514326E0,3.236301E0,1.0817329E1,4.0251484E0,3.4301758E-2,6.134941E0,3.8682861E0,1.4909004E1,0E0,0E0,0E0,0E0,0E0,0E0,0E0,0E0,0E0,0E0,0E0,0E0,0E0,0E0,0E0,0E0,0E0,0E0,0E0,0E0,0E0,0E0],"parents":[2147483647,0,0,1,1,2,2,3,3,4,4,5,5,6,6,7,7,9,9,10,10,11,11,12,12,13,13,14,14,16,16,17,17,19,19,21,21,22,22,23,23,24,24,25,25,26,26,27,27,28,28],"right_children":[2,4,6,8,10,12,14,16,-1,18,20,22,24,26,28,-1,30,32,-1,34,-1,36,38,40,42,44,46,48,50,-1,-1,-1,-1,-1,-1,-1,-1,-1,-1,-1,-1,-1,-1,-1,-1,-1,-1,-1,-1,-1,-1],"split_conditions":[1.6E1,7E0,2.4E1,3.2833332E1,1.2E1,1.9E1,2.8E1,2E0,4.4184613E-1,3.4333332E1,3.4333332E1,3.0333334E1,3.3666668E1,3.0333334E1,3.5166668E1,3.5883123E-1,2.95E1,2.9666666E1,2.8484732E-1,2.85E1,2.2127588E-1,2.8166666E1,3.3166668E1,2.9666666E1,3.4666668E1,2.95E1,3.5166668E1,8.616667E0,3.4E1,1.8637644E-1,2.793303E-1,1.1104589E-1,1.7429057E-1,-8.459384E-3,7.932148E-2,-1.2780479E-1,-3.4033656E-2,2.0064337E-2,9.6010305E-2,-1.6393046E-1,-8.644336E-2,-2.072976E-2,8.483932E-2,-2.6185828E-1,-1.9345005E-1,-1.5694092E-1,1.5219624E-2,-1.3414267E-1,-2.9308906E-1,-6.974189E-2,-2.4869584E-1],"split_indices":[2,2,2,0,2,2,2,2,0,0,0,0,0,0,0,0,0,0,0,0,0,0,0,0,0,0,0,4,2,0,0,0,0,0,0,0,0,0,0,0,0,0,0,0,0,0,0,0,0,0,0],"split_type":[0,0,0,0,0,0,0,0,0,0,0,0,0,0,0,0,0,0,0,0,0,0,0,0,0,0,0,0,0,0,0,0,0,0,0,0,0,0,0,0,0,0,0,0,0,0,0,0,0,0,0],"sum_hessian":[8E2,3.64E2,4.36E2,1.54E2,2.1E2,1.8E2,2.56E2,1.33E2,2.1E1,1.15E2,9.5E1,7.1E1,1.09E2,8.9E1,1.67E2,4E1,9.3E1,1.05E2,1E1,8.9E1,6E0,3.2E1,3.9E1,9.6E1,1.3E1,4.6E1,4.3E1,1.44E2,2.3E1,2.7E1,6.6E1,3.5E1,7E1,1.5E1,7.4E1,4E0,2.8E1,3.3E1,6E0,2.7E1,6.9E1,6E0,7E0,2.6E1,2E1,4.1E1,2E0,4E0,1.4E2,8E0,1.5E1],"tree_param":{"num_deleted":"0","num_feature":"6","num_nodes":"51","size_leaf_vector":"1"}},{"base_weights":[7.1395864E-3,-4.5073283E-1,1.5521856E-1,-2.215337E0,-3.8334882E-1,3.0246565E-2,5.6336474E-1,-8.040638E-2,-2.6190338E-1,-3.248736E-1,-1.3053665E0,1.06488064E-1,-3.943399E-1,-1.6060245E0,6.217402E-1,-4.3637112E-1,7.698598E-1,-1.6953053E0,1.2970114E-1,4.2480357E-2,1.0132712E0,5.6031704E-1,-7.2913504E-1,-2.2317247E-1,1.355381E-2,1.3357648E0,4.29592E-1,-2.8411021E-2,-1.1984315E-1,1.1989603E-1,-2.1665137E-2,7.661263E-3,-2.1478616E-1,1.7641975E-2,-1.6422404E-2,1.9211529E-1,7.6087676E-2,-1.149561E-1,1.092922E-1,-4.1058283E-2,-1.6777122E-1,1.668403E-1,-5.9457887E-2,2.0678097E-2,1.2286661E-1],"categories":[],"categories_nodes":[],"categories_segments":[],"categories_sizes":[],"default_left":[0,0,0,0,0,0,0,0,0,0,0,0,0,0,0,0,0,0,0,0,0,0,0,0,0,0,0,0,0,0,0,0,0,0,0,0,0,0,0,0,0,0,0,0,0],"id":22,"left_children":[1,3,5,7,9,11,13,-1,-1,15,17,19,21,23,25,27,29,31,-1,33,35,37,39,-1,-1,41,43,-1,-1,-1,-1,-1,-1,-1,-1,-1,-1,-1,-1,-1,-1,-1,-1,-1,-1],"loss_changes":[5.4378788E1,2.2456352E1,3.0893105E1,1.8822136E0,9.819805E0,1.5094557E1,1.8981289E1,0E0,0E0,2.2306757E1,1.3361282E1,2.2883194E1,2.3101173E1,4.661268E0,1.8496773E1,1.8688755E1,7.456069E0,8.1834755E0,0E0,1.027274E1,4.4959946E0,1.8559479E1,1.5326239E1,0E0,0E0,1.9613064E1,1.9508657E1,0E0,0E0,0E0,0E0,0E0,0E0,0E0,0E0,0E0,0E0,0E0,0E0,0E0,0E0,0E0,0E0,0E0,0E0],"parents":[2147483647,0,0,1,1,2,2,3,3,4,4,5,5,6,6,9,9,10,10,11,11,12,12,13,13,14,14,15,15,16,16,17,17,19,19,20,20,21,21,22,22,25,25,26,26],"right_children":[2,4,6,8,10,12,14,-1,-1,16,18,20,22,24,26,28,30,32,-1,34,36,38,40,-1,-1,42,44,-1,-1,-1,-1,-1,-1,-1,-1,-1,-1,-1,-1,-1,-1,-1,-1,-1,-1],"split_conditions":[2.95E1,2.65E1,3.2333332E1,1.251E1,1.9845E1,1E0,9.035E0,-8.040638E-2,-2.6190338E-1,1.8655E1,1.668E1,3.1833334E1,1.323E1,1.2925E1,3.3E1,1.7123333E1,1.932E1,1.4595E1,1.2970114E-1,1.6371666E1,1.1916667E1,1.323E1,3.2E1,-2.2317247E-1,1.355381E-2,2.0236666E1,1.807E1,-2.8411021E-2,-1.1984315E-1,1.1989603E-1,-2.1665137E-2,7.661263E-3,-2.1478616E-1,1.7641975E-2,-1.6422404E-2,1.9211529E-1,7.6087676E-2,-1.149561E-1,1.092922E-1,-4.1058283E-2,-1.6777122E-1,1.668403E-1,-5.9457887E-2,2.0678097E-2,1.2286661E-1],"split_indices":[0,0,0,5,4,3,4,0,0,4,5,0,4,5,0,4,4,5,0,5,4,5,0,0,0,5,5,0,0,0,0,0,0,0,0,0,0,0,0,0,0,0,0,0,0],"split_type":[0,0,0,0,0,0,0,0,0,0,0,0,0,0,0,0,0,0,0,0,0,0,0,0,0,0,0,0,0,0,0,0,0,0,0,0,0,0,0,0,0,0,0,0,0],"sum_hessian":[8E2,1.95E2,6.05E2,6E0,1.89E2,4.64E2,1.41E2,2E0,4E0,1.79E2,1E1,3.94E2,7E1,3E0,1.38E2,1.63E2,1.6E1,9E0,1E0,3.69E2,2.5E1,1.8E1,5.2E1,2E0,1E0,2.8E1,1.1E2,1.37E2,2.6E1,1.1E1,5E0,2E0,7E0,2.24E2,1.45E2,4E0,2.1E1,4E0,1.4E1,4E1,1.2E1,2.4E1,4E0,8.7E1,2.3E1],"tree_param":{"num_deleted":"0","num_feature":"6","num_nodes":"45","size_leaf_vector":"1"}},{"base_weights":[5.959453E-3,1.6190883E0,-1.750014E0,2.6228795E0,7.951408E-1,-8.673124E-1,-2.330906E0,3.4389534E0,2.3264651E0,1.3035134E0,3.2221106E-1,-1.0127017E0,1.574318E-1,-2.0316153E0,-2.5908196E0,1.594946E-1,3.526444E0,2.1213083E0,3.286778E0,9.8167527E-1,1.7712744E0,-2.831835E-1,5.5245197E-1,-6.136634E-1,-1.3637552E0,-2.570261E-1,6.9254994E-1,-2.7627156E0,-1.6634177E0,-2.6530704E0,-1.2069002E0,8.622942E-2,3.5673952E-1,1.3316827E-1,2.2580205E-1,8.609009E-2,3.3579132E-1,1.2049734E-1,6.586652E-2,1.5459676E-1,2.5919092E-1,-9.419326E-2,-1.0838253E-2,4.215442E-2,1.346406E-1,-8.66877E-2,-4.3373294E-2,-1.6159761E-1,-1.0417507E-1,-2.270296E-3,-7.199967E-2,2.4286691E-2,1.0037229E-1,-2.0634067E-1,-3.113939E-1,-1.7735453E-1,-7.4820794E-2,-1.9345479E-1,-2.7263996E-1,-2.4968242E-2,-1.862393E-1],"categories":[],"categories_nodes":[],"categories_segments":[],"categories_sizes":[],"default_left":[0,0,0,0,0,0,0,0,0,0,0,0,0,0,0,0,0,0,0,0,0,0,0,0,0,0,0,0,0,0,0,0,0,0,0,0,0,0,0,0,0,0,0,0,0,0,0,0,0,0,0,0,0,0,0,0,0,0,0,0,0],"id":23,"left_children":[1,3,5,7,9,11,13,15,17,19,21,23,25,27,29,-1,31,33,35,37,39,41,43,45,47,49,51,53,55,57,59,-1,-1,-1,-1,-1,-1,-1,-1,-1,-1,-1,-1,-1,-1,-1,-1,-1,-1,-1,-1,-1,-1,-1,-1,-1,-1,-1,-1,-1,-1],"loss_changes":[2.2717551E3,3.4363025E2,1.9487598E2,3.747583E1,5.5118057E1,2.3103424E1,1.2705811E1,2.1195068E0,2.0806763E1,1.4971497E1,1.7022224E1,1.8074402E1,4.613682E0,2.555368E1,7.1360474E0,0E0,1.833374E0,9.839233E0,1.078186E0,4.111E0,4.128357E0,3.8130097E0,8.578688E0,2.5854626E0,4.0829163E0,1.2854707E0,1.0155926E0,2.416748E0,6.433853E0,7.321167E-1,3.9271383E0,0E0,0E0,0E0,0E0,0E0,0E0,0E0,0E0,0E0,0E0,0E0,0E0,0E0,0E0,0E0,0E0,0E0,0E0,0E0,0E0,0E0,0E0,0E0,0E0,0E0,0E0,0E0,0E0,0E0,0E0],"parents":[2147483647,0,0,1,1,2,2,3,3,4,4,5,5,6,6,7,7,8,8,9,9,10,10,11,11,12,12,13,13,14,14,16,16,17,17,18,18,19,19,20,20,21,21,22,22,23,23,24,24,25,25,26,26,27,27,28,28,29,29,30,30],"right_children":[2,4,6,8,10,12,14,16,18,20,22,24,26,28,30,-1,32,34,36,38,40,42,44,46,48,50,52,54,56,58,60,-1,-1,-1,-1,-1,-1,-1,-1,-1,-1,-1,-1,-1,-1,-1,-1,-1,-1,-1,-1,-1,-1,-1,-1,-1,-1,-1,-1,-1,-1],"split_conditions":[1.8E1,9E0,2.5E1,2E0,1.3E1,3.3E1,3E1,8.855E0,3.25E1,3.0666666E1,2.95E1,2.2E1,3.4666668E1,2.9666666E1,3.6666668E1,1.594946E-1,2.75E1,1.112E1,1.05E1,1.1E1,3.4833332E1,2.8166666E1,3.3833332E1,3E1,3.0166666E1,2.3E1,1.2925E1,2.7E1,3.2666668E1,1.0465E1,3.4E1,8.622942E-2,3.5673952E-1,1.3316827E-1,2.2580205E-1,8.609009E-2,3.3579132E-1,1.2049734E-1,6.586652E-2,1.5459676E-1,2.5919092E-1,-9.419326E-2,-1.0838253E-2,4.215442E-2,1.346406E-1,-8.66877E-2,-4.3373294E-2,-1.6159761E-1,-1.0417507E-1,-2.270296E-3,-7.199967E-2,2.4286691E-2,1.0037229E-1,-2.0634067E-1,-3.113939E-1,-1.7735453E-1,-7.4820794E-2,-1.9345479E-1,-2.7263996E-1,-2.4968242E-2,-1.862393E-1],"split_indices":[2,2,2,2,2,0,2,4,0,0,0,2,0,0,0,0,0,4,4,2,0,0,0,0,0,2,5,2,0,5,2,0,0,0,0,0,0,0,0,0,0,0,0,0,0,0,0,0,0,0,0,0,0,0,0,0,0,0,0,0,0],"split_type":[0,0,0,0,0,0,0,0,0,0,0,0,0,0,0,0,0,0,0,0,0,0,0,0,0,0,0,0,0,0,0,0,0,0,0,0,0,0,0,0,0,0,0,0,0,0,0,0,0,0,0,0,0,0,0,0,0,0,0,0,0],"sum_hessian":[8E2,4.17E2,3.83E2,1.87E2,2.3E2,1.53E2,2.3E2,4.7E1,1.4E2,1.1E2,1.2E2,1.34E2,1.9E1,1.11E2,1.19E2,3E0,4.4E1,1.18E2,2.2E1,6.7E1,4.3E1,3.3E1,8.7E1,6.4E1,7E1,1.1E1,8E0,3.5E1,7.6E1,1.13E2,6E0,1E0,4.3E1,1.9E1,9.9E1,1E0,2.1E1,3.8E1,2.9E1,3.6E1,7E0,6E0,2.7E1,7.6E1,1.1E1,2.5E1,3.9E1,3.7E1,3.3E1,8E0,3E0,4E0,4E0,1.4E1,2.1E1,6.7E1,9E0,1.3E1,1E2,3E0,3E0],"tree_param":{"num_deleted":"0","num_feature":"6","num_nodes":"61","size_leaf_vector":"1"}},{"base_weights":[5.6914594E-3,1.6699282E0,-1.3843591E0,2.524461E0,1.0342764E0,-4.6686393E-1,-2.025146E0,2.3275208E0,3.609258E-1,1.2826688E0,4.9305877E-1,-1.0252559E-1,-8.1051177E-1,-1.5922307E0,-2.2450106E0,2.8740988E0,2.064359E0,1.1713732E0,2.4093059E-1,-6.1994284E-1,5.912326E-1,-6.4478445E-1,1.1936903E-1,-9.4953537E-1,2.0702522E-1,-1.7574785E0,-9.2598945E-1,-2.3393946E0,-1.5812328E0,8.191796E-2,2.9049924E-1,-5.1166248E-2,2.09756E-1,4.7112413E-2,1.2699346E-1,-8.1818104E-2,-1.4897759E-2,4.7570255E-2,1.4475155E-1,-9.524357E-2,-3.556778E-2,1.2598055E-3,7.704585E-2,-1.4045535E-1,-7.6986425E-2,-2.2454249E-2,6.7601666E-2,-2.0819421E-1,-1.5237452E-1,-1.0431578E-1,8.5684145E-3,-1.1591822E-1,-2.373265E-1,-9.644604E-3,-1.8733679E-1],"categories":[],"categories_nodes":[],"categories_segments":[],"categories_sizes":[],"default_left":[0,0,0,0,0,0,0,0,0,0,0,0,0,0,0,0,0,0,0,0,0,0,0,0,0,0,0,0,0,0,0,0,0,0,0,0,0,0,0,0,0,0,0,0,0,0,0,0,0,0,0,0,0,0,0],"id":24,"left_children":[1,3,5,7,9,11,13,15,-1,17,19,21,23,25,27,29,31,33,-1,35,37,39,41,43,45,47,49,51,53,-1,-1,-1,-1,-1,-1,-1,-1,-1,-1,-1,-1,-1,-1,-1,-1,-1,-1,-1,-1,-1,-1,-1,-1,-1,-1],"loss_changes":[1.8553236E3,1.9565161E2,2.5597516E2,2.4713562E1,2.773323E1,2.2578842E1,2.088733E1,1.3341248E1,0E0,1.5233917E1,7.79673E0,1.0785832E1,1.3352509E1,8.281143E0,6.826111E0,2.2311401E-1,9.112701E0,8.581024E0,0E0,4.3828893E-1,5.5437775E0,1.9737844E0,4.439411E0,5.6224747E0,2.5806131E0,2.212143E0,2.4601078E0,3.045166E0,1.0229523E1,0E0,0E0,0E0,0E0,0E0,0E0,0E0,0E0,0E0,0E0,0E0,0E0,0E0,0E0,0E0,0E0,0E0,0E0,0E0,0E0,0E0,0E0,0E0,0E0,0E0,0E0],"parents":[2147483647,0,0,1,1,2,2,3,3,4,4,5,5,6,6,7,7,9,9,10,10,11,11,12,12,13,13,14,14,15,15,16,16,17,17,19,19,20,20,21,21,22,22,23,23,24,24,25,25,26,26,27,27,28,28],"right_children":[2,4,6,8,10,12,14,16,-1,18,20,22,24,26,28,30,32,34,-1,36,38,40,42,44,46,48,50,52,54,-1,-1,-1,-1,-1,-1,-1,-1,-1,-1,-1,-1,-1,-1,-1,-1,-1,-1,-1,-1,-1,-1,-1,-1,-1,-1],"split_conditions":[1.6E1,7E0,2.4E1,3.2833332E1,1.3E1,2E1,2.8E1,2E0,3.609258E-1,3.4333332E1,2.8333334E1,2.95E1,3.3666668E1,3.15E1,3.5166668E1,2.75E1,2.6E1,2.85E1,2.4093059E-1,2.7666666E1,3.4166668E1,2.8666666E1,3.3166668E1,2.9666666E1,3.4666668E1,2.95E1,3.5166668E1,8.66E0,3.1E1,8.191796E-2,2.9049924E-1,-5.1166248E-2,2.09756E-1,4.7112413E-2,1.2699346E-1,-8.1818104E-2,-1.4897759E-2,4.7570255E-2,1.4475155E-1,-9.524357E-2,-3.556778E-2,1.2598055E-3,7.704585E-2,-1.4045535E-1,-7.6986425E-2,-2.2454249E-2,6.7601666E-2,-2.0819421E-1,-1.5237452E-1,-1.0431578E-1,8.5684145E-3,-1.1591822E-1,-2.373265E-1,-9.644604E-3,-1.8733679E-1],"split_indices":[2,2,2,0,2,2,2,2,0,0,0,0,0,0,0,0,0,0,0,0,0,0,0,0,0,0,0,5,2,0,0,0,0,0,0,0,0,0,0,0,0,0,0,0,0,0,0,0,0,0,0,0,0,0,0],"split_type":[0,0,0,0,0,0,0,0,0,0,0,0,0,0,0,0,0,0,0,0,0,0,0,0,0,0,0,0,0,0,0,0,0,0,0,0,0,0,0,0,0,0,0,0,0,0,0,0,0,0,0,0,0,0,0],"sum_hessian":[8E2,3.64E2,4.36E2,1.54E2,2.1E2,1.8E2,2.56E2,1.33E2,2.1E1,1.43E2,6.7E1,8.8E1,9.2E1,8.9E1,1.67E2,4E1,9.3E1,1.32E2,1.1E1,5E0,6.2E1,2.5E1,6.3E1,8.1E1,1.1E1,7E1,1.9E1,1.44E2,2.3E1,1E0,3.9E1,1E0,9.2E1,1.7E1,1.15E2,3E0,2E0,5.6E1,6E0,1.1E1,1.4E1,5.5E1,8E0,2.1E1,6E1,6E0,5E0,2.6E1,4.4E1,1.7E1,2E0,5E0,1.39E2,4E0,1.9E1],"tree_param":{"num_deleted":"0","num_feature":"6","num_nodes":"55","size_leaf_vector":"1"}},{"base_weights":[5.336036E-3,1.3205472E0,-1.4263401E0,2.0286984E0,5.38519E-1,-7.577983E-1,-1.9373478E0,2.4615076E0,1.55266E0,8.743283E-1,1.5815794E-1,-8.795457E-1,1.3631621E-1,-2.1035771E0,-1.6746409E0,2.2678235E0,3.6691418E-1,1.0751729E0,1.708286E0,5.652793E-1,1.3139751E0,-6.657102E-2,6.7190564E-1,-4.984289E-1,-1.1639867E0,-2.1128671E-1,5.398081E-1,-1.8299087E0,-2.4993746E-1,-1.1176589E0,-2.0677323E0,5.0399747E-2,2.3360662E-1,2.5362587E-2,1.1602119E-1,1.0204525E-1,1.7609859E-1,9.2161655E-2,3.943454E-2,1.1680774E-1,1.8974379E-1,-1.02672674E-1,-5.521119E-4,5.0080992E-2,1.1380907E-1,-8.940938E-2,-4.102336E-2,-2.1318243E-1,-1.08894706E-1,-8.356518E-4,-6.1505795E-2,-7.2834017E-3,6.159721E-2,-2.222253E-1,-1.3138804E-1,1.1893868E-2,-1.2240125E-1,-1.1190094E-1,-2.3309544E-1],"categories":[],"categories_nodes":[],"categories_segments":[],"categories_sizes":[],"default_left":[0,0,0,0,0,0,0,0,0,0,0,0,0,0,0,0,0,0,0,0,0,0,0,0,0,0,0,0,0,0,0,0,0,0,0,0,0,0,0,0,0,0,0,0,0,0,0,0,0,0,0,0,0,0,0,0,0,0,0],"id":25,"left_children":[1,3,5,7,9,11,13,15,17,19,21,23,25,27,29,31,-1,33,35,37,39,41,43,45,47,49,51,53,-1,55,57,-1,-1,-1,-1,-1,-1,-1,-1,-1,-1,-1,-1,-1,-1,-1,-1,-1,-1,-1,-1,-1,-1,-1,-1,-1,-1,-1,-1],"loss_changes":[1.5101317E3,2.303935E2,1.2971777E2,4.12995E1,2.5407482E1,1.8407707E1,5.9536133E0,1.810968E1,6.1144104E0,1.3659706E1,1.1012857E1,1.5463806E1,3.0594082E0,9.399292E0,1.717508E1,1.0859497E1,0E0,1.7317886E0,1.0666351E0,3.534811E0,1.4440613E0,3.9216979E0,1.7431383E0,1.9014397E0,3.7791595E0,9.7810876E-1,5.114765E-1,1.3277069E1,0E0,5.2747345E0,1.0127594E1,0E0,0E0,0E0,0E0,0E0,0E0,0E0,0E0,0E0,0E0,0E0,0E0,0E0,0E0,0E0,0E0,0E0,0E0,0E0,0E0,0E0,0E0,0E0,0E0,0E0,0E0,0E0,0E0],"parents":[2147483647,0,0,1,1,2,2,3,3,4,4,5,5,6,6,7,7,8,8,9,9,10,10,11,11,12,12,13,13,14,14,15,15,17,17,18,18,19,19,20,20,21,21,22,22,23,23,24,24,25,25,26,26,27,27,29,29,30,30],"right_children":[2,4,6,8,10,12,14,16,18,20,22,24,26,28,30,32,-1,34,36,38,40,42,44,46,48,50,52,54,-1,56,58,-1,-1,-1,-1,-1,-1,-1,-1,-1,-1,-1,-1,-1,-1,-1,-1,-1,-1,-1,-1,-1,-1,-1,-1,-1,-1,-1,-1],"split_conditions":[1.8E1,1E1,2.6E1,5E0,1.4E1,3.3E1,1E0,3.3E1,2.9666666E1,3.05E1,3.15E1,2.2E1,3.4666668E1,3E1,3.3E1,2.7666666E1,3.6691418E-1,4E0,4.1666665E0,1.1E1,3.4333332E1,2.8166666E1,3.4666668E1,2.9166666E1,2.65E1,2.3E1,4.6666665E0,3.0166666E1,-2.4993746E-1,4.3333335E0,3.0833334E1,5.0399747E-2,2.3360662E-1,2.5362587E-2,1.1602119E-1,1.0204525E-1,1.7609859E-1,9.2161655E-2,3.943454E-2,1.1680774E-1,1.8974379E-1,-1.02672674E-1,-5.521119E-4,5.0080992E-2,1.1380907E-1,-8.940938E-2,-4.102336E-2,-2.1318243E-1,-1.08894706E-1,-8.356518E-4,-6.1505795E-2,-7.2834017E-3,6.159721E-2,-2.222253E-1,-1.3138804E-1,1.1893868E-2,-1.2240125E-1,-1.1190094E-1,-2.3309544E-1],"split_indices":[2,2,2,2,2,0,3,0,0,0,0,2,0,2,2,0,0,1,1,2,0,0,0,0,0,2,1,0,0,1,0,0,0,0,0,0,0,0,0,0,0,0,0,0,0,0,0,0,0,0,0,0,0,0,0,0,0,0,0],"split_type":[0,0,0,0,0,0,0,0,0,0,0,0,0,0,0,0,0,0,0,0,0,0,0,0,0,0,0,0,0,0,0,0,0,0,0,0,0,0,0,0,0,0,0,0,0,0,0,0,0,0,0,0,0,0,0,0,0,0,0],"sum_hessian":[8E2,4.17E2,3.83E2,2.18E2,1.99E2,1.67E2,2.16E2,1.12E2,1.06E2,1.05E2,9.4E1,1.47E2,2E1,1.28E2,8.8E1,9.9E1,1.3E1,2.8E1,7.8E1,6.3E1,4.2E1,6.6E1,2.8E1,6.4E1,8.3E1,1.1E1,9E0,7.9E1,4.9E1,3.8E1,5E1,4E0,9.5E1,3E0,2.5E1,7E0,7.1E1,1.9E1,4.4E1,3.6E1,6E0,3E0,6.3E1,2.2E1,6E0,1E1,5.4E1,4E0,7.9E1,8E0,3E0,1E0,8E0,4.3E1,3.6E1,3E0,3.5E1,1.2E1,3.8E1],"tree_param":{"num_deleted":"0","num_feature":"6","num_nodes":"59","size_leaf_vector":"1"}},{"base_weights":[4.86449E-3,1.3618125E0,-1.1285243E0,2.061864E0,8.4110266E-1,-3.8066104E-1,-1.6508384E0,1.9119619E0,3.0965645E0,7.461862E-1,1.8803731E0,-6.7668504E-1,-6.7055516E-2,-1.2959102E0,-1.831152E0,2.389053E0,1.6783484E0,3.32285E-1,1.4738536E-1,1.0880846E0,4.7764978E-1,1.9750284E-1,7.803065E-2,-3.8842738E-1,-1.0174638E0,7.39606E-2,-7.1506405E-1,-1.4322327E0,-7.4717003E-1,-1.9170961E0,-1.2356075E0,2.4324487E-1,9.9962935E-2,4.8587363E-2,1.7524482E-1,4.1236043E-2,1.1434398E-1,2.5841216E-2,7.126945E-2,-7.957694E-2,-2.597315E-2,-7.655338E-2,-1.1922959E-1,-2.9291036E-3,7.377002E-2,-7.879725E-2,1.89281E-2,-1.4694457E-1,-4.4155505E-2,-8.3667345E-2,3.890705E-3,-1.4968407E-1,-2.0323382E-1,-3.5989128E-2,-1.6509724E-1],"categories":[],"categories_nodes":[],"categories_segments":[],"categories_sizes":[],"default_left":[0,0,0,0,0,0,0,0,0,0,0,0,0,0,0,0,0,0,0,0,0,0,0,0,0,0,0,0,0,0,0,0,0,0,0,0,0,0,0,0,0,0,0,0,0,0,0,0,0,0,0,0,0,0,0],"id":26,"left_children":[1,3,5,7,9,11,13,15,17,19,21,23,25,27,29,31,33,-1,-1,35,37,-1,-1,39,41,43,45,47,49,51,53,-1,-1,-1,-1,-1,-1,-1,-1,-1,-1,-1,-1,-1,-1,-1,-1,-1,-1,-1,-1,-1,-1,-1,-1],"loss_changes":[1.2334344E3,1.313169E2,1.7007233E2,1.8120544E1,1.9410736E1,1.6757717E1,1.4074585E1,1.1371094E1,1.7121124E0,1.7383652E1,2.290268E-1,8.7403755E0,8.185676E0,5.662384E0,6.2301025E0,1.6113281E-1,7.631317E0,0E0,0E0,2.707901E0,5.535734E0,0E0,0E0,2.5193229E0,9.371643E-1,5.0929904E0,1.2040968E0,1.9686432E0,1.4396839E0,3.9804077E0,8.135632E0,0E0,0E0,0E0,0E0,0E0,0E0,0E0,0E0,0E0,0E0,0E0,0E0,0E0,0E0,0E0,0E0,0E0,0E0,0E0,0E0,0E0,0E0,0E0,0E0],"parents":[2147483647,0,0,1,1,2,2,3,3,4,4,5,5,6,6,7,7,8,8,9,9,10,10,11,11,12,12,13,13,14,14,15,15,16,16,19,19,20,20,23,23,24,24,25,25,26,26,27,27,28,28,29,29,30,30],"right_children":[2,4,6,8,10,12,14,16,18,20,22,24,26,28,30,32,34,-1,-1,36,38,-1,-1,40,42,44,46,48,50,52,54,-1,-1,-1,-1,-1,-1,-1,-1,-1,-1,-1,-1,-1,-1,-1,-1,-1,-1,-1,-1,-1,-1,-1,-1],"split_conditions":[1.6E1,7E0,2.4E1,3.3E1,3.4333332E1,3.05E1,2.8E1,2E0,6E0,1.1E1,2.11E1,2.1E1,2.3E1,3.15E1,3.5166668E1,6.1666665E0,2.85E1,3.32285E-1,1.4738536E-1,2.85E1,3.0166666E1,1.9750284E-1,7.803065E-2,2.8666666E1,1.512E1,3.4666668E1,3.45E1,2.2208334E1,3.5166668E1,1.20633335E1,3.4E1,2.4324487E-1,9.9962935E-2,4.8587363E-2,1.7524482E-1,4.1236043E-2,1.1434398E-1,2.5841216E-2,7.126945E-2,-7.957694E-2,-2.597315E-2,-7.655338E-2,-1.1922959E-1,-2.9291036E-3,7.377002E-2,-7.879725E-2,1.89281E-2,-1.4694457E-1,-4.4155505E-2,-8.3667345E-2,3.890705E-3,-1.4968407E-1,-2.0323382E-1,-3.5989128E-2,-1.6509724E-1],"split_indices":[2,2,2,0,0,0,2,2,2,2,5,2,2,0,0,1,0,0,0,0,0,0,0,0,5,0,0,5,0,5,2,0,0,0,0,0,0,0,0,0,0,0,0,0,0,0,0,0,0,0,0,0,0,0,0],"split_type":[0,0,0,0,0,0,0,0,0,0,0,0,0,0,0,0,0,0,0,0,0,0,0,0,0,0,0,0,0,0,0,0,0,0,0,0,0,0,0,0,0,0,0,0,0,0,0,0,0,0,0,0,0,0,0],"sum_hessian":[8E2,3.64E2,4.36E2,1.54E2,2.1E2,1.8E2,2.56E2,1.37E2,1.7E1,1.94E2,1.6E1,9.2E1,8.8E1,8.9E1,1.67E2,4.2E1,9.5E1,1.4E1,3E0,8.4E1,1.1E2,1.4E1,2E0,5.1E1,4.1E1,7.3E1,1.5E1,7E1,1.9E1,1.44E2,2.3E1,4E1,2E0,6E0,8.9E1,7E0,7.7E1,5.8E1,5.2E1,1.1E1,4E1,1.9E1,2.2E1,6.4E1,9E0,1.4E1,1E0,6.7E1,3E0,1.7E1,2E0,3.4E1,1.1E2,8E0,1.5E1],"tree_param":{"num_deleted":"0","num_feature":"6","num_nodes":"55","size_leaf_vector":"1"}},{"base_weights":[4.9519315E-3,1.0788677E0,-1.164063E0,1.7498665E0,5.28103E-1,-5.7789326E-1,-1.5498036E0,2.3369474E0,1.5375988E0,8.031642E-1,1.2587683E-1,-3.2159066E-1,-7.9901755E-1,-1.3379285E0,-1.7346387E0,8.998132E-2,2.4127605E0,7.502445E-1,1.6615397E0,6.823754E-1,1.2112318E0,-1.1131958E-1,1.644934E-1,-3.978166E-1,-4.7092438E-2,-9.047227E-1,-5.628462E-1,-1.4527931E0,-8.0199194E-1,-2.0702608E-1,-1.4738536E0,2.4598897E-1,9.3298785E-2,8.3402E-4,8.279007E-2,1.8900894E-1,1.3326441E-1,-3.754759E-2,7.1617566E-2,3.3703383E-2,1.3327609E-1,6.464757E-3,3.9396953E-2,-1.7895877E-2,-4.788597E-2,-3.799182E-2,2.2387743E-2,-6.637462E-2,-1.02345936E-1,1.3206694E-3,-7.939277E-2,1.8870974E-2,-1.4731288E-1,-1.021143E-1,-2.9083474E-2,-1.0546233E-1,-1.8101689E-1],"categories":[],"categories_nodes":[],"categories_segments":[],"categories_sizes":[],"default_left":[0,0,0,0,0,0,0,0,0,0,0,0,0,0,0,0,0,0,0,0,0,0,0,0,0,0,0,0,0,0,0,0,0,0,0,0,0,0,0,0,0,0,0,0,0,0,0,0,0,0,0,0,0,0,0,0,0],"id":27,"left_children":[1,3,5,7,9,11,13,15,17,19,21,23,25,27,29,-1,31,33,35,37,39,-1,41,43,45,47,49,51,53,-1,55,-1,-1,-1,-1,-1,-1,-1,-1,-1,-1,-1,-1,-1,-1,-1,-1,-1,-1,-1,-1,-1,-1,-1,-1,-1,-1],"loss_changes":[1.0068502E3,1.5355301E2,8.593042E1,1.98349E1,2.5456001E1,8.470951E0,6.725586E0,3.0587463E0,1.251297E1,5.926216E0,4.7287426E0,1.5087094E0,1.5378723E0,5.729599E0,7.451721E0,0E0,8.432617E-1,1.2029791E0,6.576599E0,4.13052E0,2.7380295E0,0E0,2.1053681E0,9.253082E-1,1.6182129E0,8.943825E-1,3.737709E0,3.315689E0,2.167471E0,0E0,8.101517E0,0E0,0E0,0E0,0E0,0E0,0E0,0E0,0E0,0E0,0E0,0E0,0E0,0E0,0E0,0E0,0E0,0E0,0E0,0E0,0E0,0E0,0E0,0E0,0E0,0E0,0E0],"parents":[2147483647,0,0,1,1,2,2,3,3,4,4,5,5,6,6,7,7,8,8,9,9,10,10,11,11,12,12,13,13,14,14,16,16,17,17,18,18,19,19,20,20,22,22,23,23,24,24,25,25,26,26,27,27,28,28,30,30],"right_children":[2,4,6,8,10,12,14,16,18,20,22,24,26,28,30,-1,32,34,36,38,40,-1,42,44,46,48,50,52,54,-1,56,-1,-1,-1,-1,-1,-1,-1,-1,-1,-1,-1,-1,-1,-1,-1,-1,-1,-1,-1,-1,-1,-1,-1,-1,-1,-1],"split_conditions":[1.8E1,9E0,2.5E1,2E0,1.4E1,2.2E1,3E1,8.855E0,1.112E1,1E0,4E0,1E0,1E0,1E0,1E0,8.998132E-2,6.1666665E0,7.7833333E0,6E0,8.855E0,1.0103333E1,-1.1131958E-1,1E0,1.3325E1,5E0,1.375E1,2.3E1,8.333333E0,1.5333333E1,-2.0702608E-1,3.6E1,2.4598897E-1,9.3298785E-2,8.3402E-4,8.279007E-2,1.8900894E-1,1.3326441E-1,-3.754759E-2,7.1617566E-2,3.3703383E-2,1.3327609E-1,6.464757E-3,3.9396953E-2,-1.7895877E-2,-4.788597E-2,-3.799182E-2,2.2387743E-2,-6.637462E-2,-1.02345936E-1,1.3206694E-3,-7.939277E-2,1.8870974E-2,-1.4731288E-1,-1.021143E-1,-2.9083474E-2,-1.0546233E-1,-1.8101689E-1],"split_indices":[2,2,2,2,2,2,2,4,4,3,1,3,3,3,3,0,1,4,2,4,4,0,3,4,1,4,2,4,4,0,2,0,0,0,0,0,0,0,0,0,0,0,0,0,0,0,0,0,0,0,0,0,0,0,0,0,0],"split_type":[0,0,0,0,0,0,0,0,0,0,0,0,0,0,0,0,0,0,0,0,0,0,0,0,0,0,0,0,0,0,0,0,0,0,0,0,0,0,0,0,0,0,0,0,0,0,0,0,0,0,0,0,0,0,0,0,0],"sum_hessian":[8E2,4.17E2,3.83E2,1.87E2,2.3E2,1.53E2,2.3E2,4.7E1,1.4E2,1.36E2,9.4E1,7.2E1,8.1E1,1.11E2,1.19E2,3E0,4.4E1,2E1,1.2E2,1.07E2,2.9E1,2E0,9.2E1,5.6E1,1.6E1,5.4E1,2.7E1,9E1,2.1E1,4.9E1,7E1,4.2E1,2E0,2E0,1.8E1,6.8E1,5.2E1,3E0,1.04E2,4E0,2.5E1,6.5E1,2.7E1,1.6E1,4E1,7E0,9E0,2E1,3.4E1,8E0,1.9E1,1E0,8.9E1,1.4E1,7E0,3.3E1,3.7E1],"tree_param":{"num_deleted":"0","num_feature":"6","num_nodes":"57","size_leaf_vector":"1"}},{"base_weights":[4.318756E-3,1.1625551E0,-8.790051E-1,1.7755529E0,7.961658E-1,-1.995997E-1,-1.2950957E0,1.6242312E0,2.8173155E-1,4.987513E-1,1.0373766E0,-4.3605745E-1,7.727226E-2,-9.33296E-1,-1.4653708E0,8.3276224E-1,1.7437336E0,7.65803E-1,1.9349109E-1,9.214702E-1,1.6854285E0,-1.8358622E-1,-6.846226E-1,-1.7316792E-2,6.8077683E-1,-1.1731707E0,-6.939561E-1,-1.0895281E0,-1.5646671E0,-6.3007735E-2,9.635695E-2,9.903194E-2,1.8664823E-1,-3.3526737E-3,7.978066E-2,-7.6959836E-3,3.3112153E-2,1.01513244E-1,2.9806575E-2,6.745574E-2,1.7752407E-1,-8.258873E-2,-1.0642505E-2,-4.594009E-2,-7.75839E-2,2.2651922E-2,-2.0125825E-2,3.2257844E-2,9.2551254E-2,-1.7867501E-1,-1.0697301E-1,-7.534845E-2,1.641102E-2,-1.6317536E-1,-8.269971E-2,-1.60453E-1,-8.541065E-2],"categories":[],"categories_nodes":[],"categories_segments":[],"categories_sizes":[],"default_left":[0,0,0,0,0,0,0,0,0,0,0,0,0,0,0,0,0,0,0,0,0,0,0,0,0,0,0,0,0,0,0,0,0,0,0,0,0,0,0,0,0,0,0,0,0,0,0,0,0,0,0,0,0,0,0,0,0],"id":28,"left_children":[1,3,5,7,9,11,13,15,-1,17,19,21,23,25,27,29,31,33,35,37,39,41,43,45,47,49,51,53,55,-1,-1,-1,-1,-1,-1,-1,-1,-1,-1,-1,-1,-1,-1,-1,-1,-1,-1,-1,-1,-1,-1,-1,-1,-1,-1,-1,-1],"loss_changes":[8.2052325E2,7.652106E1,1.2836734E2,1.5759766E1,1.5193573E1,1.1425219E1,1.6005096E1,9.424835E0,0E0,8.003853E0,7.460541E0,5.7733345E0,4.635668E0,4.5251465E0,5.3860474E0,3.860075E0,7.3071594E0,1.3825665E0,1.8121526E0,5.7699203E0,3.459053E-1,2.291019E0,6.091442E-1,3.2300487E0,6.657529E-1,9.44767E-1,2.626545E0,4.771641E0,2.8216553E0,0E0,0E0,0E0,0E0,0E0,0E0,0E0,0E0,0E0,0E0,0E0,0E0,0E0,0E0,0E0,0E0,0E0,0E0,0E0,0E0,0E0,0E0,0E0,0E0,0E0,0E0,0E0,0E0],"parents":[2147483647,0,0,1,1,2,2,3,3,4,4,5,5,6,6,7,7,9,9,10,10,11,11,12,12,13,13,14,14,15,15,16,16,17,17,18,18,19,19,20,20,21,21,22,22,23,23,24,24,25,25,26,26,27,27,28,28],"right_children":[2,4,6,8,10,12,14,16,-1,18,20,22,24,26,28,30,32,34,36,38,40,42,44,46,48,50,52,54,56,-1,-1,-1,-1,-1,-1,-1,-1,-1,-1,-1,-1,-1,-1,-1,-1,-1,-1,-1,-1,-1,-1,-1,-1,-1,-1,-1,-1],"split_conditions":[1.5E1,6E0,2.3E1,3.3E1,3.0166666E1,3.05E1,2.7E1,2.8833334E1,2.8173155E-1,1.1E1,3.45E1,1.9E1,3.4666668E1,3.0333334E1,1.2075E1,2.6E1,4.3333335E0,4E0,2.85E1,1.4E1,4.3333335E0,2.8166666E1,2.1E1,1.8E1,1.3333333E1,2.65E1,3.5166668E1,3.05E1,2.0833334E1,-6.3007735E-2,9.635695E-2,9.903194E-2,1.8664823E-1,-3.3526737E-3,7.978066E-2,-7.6959836E-3,3.3112153E-2,1.01513244E-1,2.9806575E-2,6.745574E-2,1.7752407E-1,-8.258873E-2,-1.0642505E-2,-4.594009E-2,-7.75839E-2,2.2651922E-2,-2.0125825E-2,3.2257844E-2,9.2551254E-2,-1.7867501E-1,-1.0697301E-1,-7.534845E-2,1.641102E-2,-1.6317536E-1,-8.269971E-2,-1.60453E-1,-8.541065E-2],"split_indices":[2,2,2,0,0,0,2,0,0,2,0,2,0,0,5,0,1,1,0,2,1,0,2,2,5,0,0,0,5,0,0,0,0,0,0,0,0,0,0,0,0,0,0,0,0,0,0,0,0,0,0,0,0,0,0,0,0],"split_type":[0,0,0,0,0,0,0,0,0,0,0,0,0,0,0,0,0,0,0,0,0,0,0,0,0,0,0,0,0,0,0,0,0,0,0,0,0,0,0,0,0,0,0,0,0,0,0,0,0,0,0,0,0,0,0,0,0],"sum_hessian":[8E2,3.46E2,4.54E2,1.28E2,2.18E2,1.73E2,2.81E2,1.14E2,1.4E1,9.9E1,1.19E2,9.3E1,8E1,9.2E1,1.89E2,1.6E1,9.8E1,5.2E1,4.7E1,1.03E2,1.6E1,4.7E1,4.6E1,7E1,1E1,4.4E1,4.8E1,4.2E1,1.47E2,1E0,1.5E1,1.5E1,8.3E1,2E0,5E1,1.6E1,3.1E1,8.9E1,1.4E1,2E0,1.4E1,4E0,4.3E1,1.5E1,3.1E1,3E1,4E1,5E0,5E0,4E0,4E1,4.5E1,3E0,1.2E1,3E1,1.38E2,9E0],"tree_param":{"num_deleted":"0","num_feature":"6","num_nodes":"57","size_leaf_vector":"1"}},{"base_weights":[4.0782574E-3,-3.0779532E-1,1.0494153E-1,-1.521273E-1,-2.6146826E-1,3.2762438E-2,3.4056363E-1,-3.2000017E-1,1.0374277E-1,7.502813E-2,-2.028391E-1,-1.6465716E-1,3.663346E-1,-2.4237797E-1,-5.710007E-1,-7.8513545E-1,4.5410693E-1,2.2513406E-2,4.0623194E-1,2.3839194E-1,-3.5718912E-1,4.382119E-1,-6.52601E-2,-2.668707E-2,5.7749152E-2,-9.0060875E-2,-1.547357E-2,8.1961945E-4,-1.05094545E-1,7.30264E-2,-5.204171E-2,5.1851175E-3,-6.2050667E-2,-4.78474E-2,4.4946056E-2,6.1496492E-2,-2.4835188E-2,7.3503884E-3,-6.652133E-2,3.5107855E-2,9.880821E-2,-4.661937E-2,1.7552562E-1],"categories":[],"categories_nodes":[],"categories_segments":[],"categories_sizes":[],"default_left":[0,0,0,0,0,0,0,0,0,0,0,0,0,0,0,0,0,0,0,0,0,0,0,0,0,0,0,0,0,0,0,0,0,0,0,0,0,0,0,0,0,0,0],"id":29,"left_children":[1,3,5,-1,7,9,11,13,15,17,19,-1,21,23,25,27,29,31,33,35,37,39,41,-1,-1,-1,-1,-1,-1,-1,-1,-1,-1,-1,-1,-1,-1,-1,-1,-1,-1,-1,-1],"loss_changes":[2.5229029E1,1.0620735E1,1.0295076E1,0E0,4.0947304E0,4.645624E0,7.8750725E0,3.0568485E0,8.765174E0,6.8611197E0,4.920536E0,0E0,4.4026814E0,2.7043834E0,5.0744076E0,1.6956172E0,5.762476E0,6.483927E0,2.280262E0,3.6353245E0,7.08008E0,5.4504604E0,1.614632E1,0E0,0E0,0E0,0E0,0E0,0E0,0E0,0E0,0E0,0E0,0E0,0E0,0E0,0E0,0E0,0E0,0E0,0E0,0E0,0E0],"parents":[2147483647,0,0,1,1,2,2,4,4,5,5,6,6,7,7,8,8,9,9,10,10,12,12,13,13,14,14,15,15,16,16,17,17,18,18,19,19,20,20,21,21,22,22],"right_children":[2,4,6,-1,8,10,12,14,16,18,20,-1,22,24,26,28,30,32,34,36,38,40,42,-1,-1,-1,-1,-1,-1,-1,-1,-1,-1,-1,-1,-1,-1,-1,-1,-1,-1,-1,-1],"split_conditions":[2.95E1,2.65E1,3.2333332E1,-1.521273E-1,5.6666665E0,1E0,8.883333E0,1.7E1,2.85E1,3.15E1,1.323E1,-1.6465716E-1,5.6666665E0,1.6905E1,1.8655E1,1.5566667E1,1.9166666E1,3.1333334E1,1.0465E1,3.1666666E1,3.0833334E1,1.899E1,3.5833332E1,-2.668707E-2,5.7749152E-2,-9.0060875E-2,-1.547357E-2,8.1961945E-4,-1.05094545E-1,7.30264E-2,-5.204171E-2,5.1851175E-3,-6.2050667E-2,-4.78474E-2,4.4946056E-2,6.1496492E-2,-2.4835188E-2,7.3503884E-3,-6.652133E-2,3.5107855E-2,9.880821E-2,-4.661937E-2,1.7552562E-1],"split_indices":[0,0,0,0,1,3,4,4,0,0,4,0,1,4,4,4,4,0,4,0,0,4,0,0,0,0,0,0,0,0,0,0,0,0,0,0,0,0,0,0,0,0,0],"split_type":[0,0,0,0,0,0,0,0,0,0,0,0,0,0,0,0,0,0,0,0,0,0,0,0,0,0,0,0,0,0,0,0,0,0,0,0,0,0,0,0,0,0,0],"sum_hessian":[8E2,1.95E2,6.05E2,6E0,1.89E2,4.64E2,1.41E2,1.63E2,2.6E1,3.94E2,7E1,1E0,1.4E2,1.26E2,3.7E1,7E0,1.9E1,3.41E2,5.3E1,1.8E1,5.2E1,1.2E2,2E1,1.23E2,3E0,2E1,1.7E1,2E0,5E0,1.5E1,4E0,3.27E2,1.4E1,2E0,5.1E1,1E1,8E0,2.2E1,3E1,1.05E2,1.5E1,1.7E1,3E0],"tree_param":{"num_deleted":"0","num_feature":"6","num_nodes":"43","size_leaf_vector":"1"}},{"base_weights":[3.3035174E-3,1.0412749E0,-7.882995E-1,1.590068E0,7.132585E-1,-3.031396E-1,-1.2574452E0,1.4754376E0,2.6856077E-1,6.320234E-1,1.411954E0,-2.97243E-2,-5.464362E-1,-1.0987829E0,-1.4578962E0,7.68756E-1,1.5777498E0,8.4583575E-1,3.8646677E-1,3.8937856E-2,1.4421062E-1,-3.387675E-1,1.1885428E-1,-5.9960586E-1,3.8993645E-1,-1.5221822E0,-7.80717E-1,-1.3703074E-1,-1.5120692E0,-5.225096E-2,8.821169E-2,2.2762285E-1,1.4423011E-1,5.8420707E-2,9.796013E-2,4.6495916E-3,4.9594328E-2,-4.1430257E-2,9.536918E-3,3.667224E-3,5.3355694E-2,-1.07768536E-1,-5.1543362E-2,2.9367066E-3,8.609066E-2,-1.2133787E-1,-1.8318255E-1,-8.9087404E-2,-1.6140316E-2,-8.838486E-2,6.554641E-2,-8.912716E-2,-1.6456157E-1],"categories":[],"categories_nodes":[],"categories_segments":[],"categories_sizes":[],"default_left":[0,0,0,0,0,0,0,0,0,0,0,0,0,0,0,0,0,0,0,0,0,0,0,0,0,0,0,0,0,0,0,0,0,0,0,0,0,0,0,0,0,0,0,0,0,0,0,0,0,0,0,0,0],"id":30,"left_children":[1,3,5,7,9,11,13,15,-1,17,19,21,23,25,27,29,31,33,35,-1,-1,37,39,41,43,45,47,49,51,-1,-1,-1,-1,-1,-1,-1,-1,-1,-1,-1,-1,-1,-1,-1,-1,-1,-1,-1,-1,-1,-1,-1,-1],"loss_changes":[6.589715E2,6.1330414E1,1.0318167E2,1.223764E1,1.153775E1,1.4950985E1,5.744812E0,7.3910522E0,0E0,1.006871E1,1.16794586E-1,4.953404E0,6.1584167E0,1.672258E1,6.87677E0,2.949359E0,6.461609E0,3.1023865E0,3.4755125E0,0E0,0E0,1.1872511E0,2.4683542E0,3.9917603E0,1.1634394E0,3.131958E0,5.1775055E0,3.5385773E0,6.4093323E0,0E0,0E0,0E0,0E0,0E0,0E0,0E0,0E0,0E0,0E0,0E0,0E0,0E0,0E0,0E0,0E0,0E0,0E0,0E0,0E0,0E0,0E0,0E0,0E0],"parents":[2147483647,0,0,1,1,2,2,3,3,4,4,5,5,6,6,7,7,9,9,10,10,11,11,12,12,13,13,14,14,15,15,16,16,17,17,18,18,21,21,22,22,23,23,24,24,25,25,26,26,27,27,28,28],"right_children":[2,4,6,8,10,12,14,16,-1,18,20,22,24,26,28,30,32,34,36,-1,-1,38,40,42,44,46,48,50,52,-1,-1,-1,-1,-1,-1,-1,-1,-1,-1,-1,-1,-1,-1,-1,-1,-1,-1,-1,-1,-1,-1,-1,-1],"split_conditions":[1.5E1,6E0,2.5E1,3.4166668E1,3.3333332E1,2E1,3.1E1,2.8833334E1,2.6856077E-1,1.1E1,1.0465E1,2.9666666E1,3.4666668E1,3.0166666E1,8.883333E0,2.6E1,1E0,2.9833334E1,2.9166666E1,3.8937856E-2,1.4421062E-1,1E0,3.3166668E1,2.9166666E1,1.3405E1,2.8E1,3.2666668E1,3.2666668E1,2.9666666E1,-5.225096E-2,8.821169E-2,2.2762285E-1,1.4423011E-1,5.8420707E-2,9.796013E-2,4.6495916E-3,4.9594328E-2,-4.1430257E-2,9.536918E-3,3.667224E-3,5.3355694E-2,-1.07768536E-1,-5.1543362E-2,2.9367066E-3,8.609066E-2,-1.2133787E-1,-1.8318255E-1,-8.9087404E-2,-1.6140316E-2,-8.838486E-2,6.554641E-2,-8.912716E-2,-1.6456157E-1],"split_indices":[2,2,2,0,0,2,2,0,0,2,5,0,0,0,5,0,2,0,0,0,0,3,0,0,5,2,0,0,0,0,0,0,0,0,0,0,0,0,0,0,0,0,0,0,0,0,0,0,0,0,0,0,0],"split_type":[0,0,0,0,0,0,0,0,0,0,0,0,0,0,0,0,0,0,0,0,0,0,0,0,0,0,0,0,0,0,0,0,0,0,0,0,0,0,0,0,0,0,0,0,0,0,0,0,0,0,0,0,0],"sum_hessian":[8E2,3.46E2,4.54E2,1.28E2,2.18E2,2.24E2,2.3E2,1.18E2,1E1,1.97E2,2.1E1,1.06E2,1.18E2,1.32E2,9.8E1,1.6E1,1.02E2,1.04E2,9.3E1,1E0,2E1,3.4E1,7.2E1,1.12E2,6E0,5.5E1,7.7E1,4E0,9.4E1,1E0,1.5E1,1.4E1,8.8E1,3.7E1,6.7E1,2.3E1,7E1,2.9E1,5E0,6.1E1,1.1E1,1.5E1,9.7E1,4E0,2E0,3E1,2.5E1,6.5E1,1.2E1,2E0,2E0,1.8E1,7.6E1],"tree_param":{"num_deleted":"0","num_feature":"6","num_nodes":"53","size_leaf_vector":"1"}},{"base_weights":[3.396124E-3,7.886881E-1,-8.514357E-1,1.2846286E0,3.8165125E-1,-4.5082173E-1,-1.1576649E0,1.7500046E0,1.1170919E0,5.8207244E-1,8.8605456E-2,-5.264361E-1,1.03547096E-1,-1.2786644E0,-9.692762E-1,1.4008678E0,2.040772E-1,7.1148604E-1,1.2706835E0,3.980609E-1,8.845613E-1,-6.746135E-2,4.2899892E-1,-3.0859238E-1,-6.887385E-1,-1.1224922E-1,3.5214797E-1,-1.5076295E0,-9.8145765E-1,-5.804079E-1,-1.2476406E0,1.4640826E-1,7.029696E-2,-4.963837E-2,7.540923E-2,1.1456602E-1,1.6448642E-1,-9.3058805E-4,4.6336364E-2,7.53946E-2,1.3446894E-1,-7.858832E-2,-2.0776445E-3,3.2886542E-2,7.110282E-2,-5.6688488E-2,-2.5132312E-2,-1.6843157E-1,-6.4391576E-2,1.3750474E-2,-3.1028843E-2,3.9497376E-3,5.5399876E-2,-9.562289E-2,-1.6382506E-1,-7.380745E-2,-1.4948264E-1,-6.802999E-2,2.3491783E-2,-3.803749E-2,-1.4766292E-1],"categories":[],"categories_nodes":[],"categories_segments":[],"categories_sizes":[],"default_left":[0,0,0,0,0,0,0,0,0,0,0,0,0,0,0,0,0,0,0,0,0,0,0,0,0,0,0,0,0,0,0,0,0,0,0,0,0,0,0,0,0,0,0,0,0,0,0,0,0,0,0,0,0,0,0,0,0,0,0,0,0],"id":31,"left_children":[1,3,5,7,9,11,13,15,17,19,21,23,25,27,29,31,-1,33,35,37,39,41,43,45,47,49,51,53,55,57,59,-1,-1,-1,-1,-1,-1,-1,-1,-1,-1,-1,-1,-1,-1,-1,-1,-1,-1,-1,-1,-1,-1,-1,-1,-1,-1,-1,-1,-1,-1],"loss_changes":[5.383769E2,8.388974E1,4.6587067E1,1.2702972E1,1.3515652E1,7.096779E0,3.7071533E0,2.0139923E0,7.8799133E0,7.273506E0,5.075732E0,5.0202293E0,1.1661185E0,7.298767E0,8.909851E0,7.37381E-2,0E0,2.4842987E0,2.840454E0,2.3187017E0,2.0512657E0,2.197276E0,6.133852E-1,8.1902313E-1,2.663906E0,6.361991E-1,6.092062E-1,3.5471802E0,6.268482E0,3.3361511E0,9.5666275E0,0E0,0E0,0E0,0E0,0E0,0E0,0E0,0E0,0E0,0E0,0E0,0E0,0E0,0E0,0E0,0E0,0E0,0E0,0E0,0E0,0E0,0E0,0E0,0E0,0E0,0E0,0E0,0E0,0E0,0E0],"parents":[2147483647,0,0,1,1,2,2,3,3,4,4,5,5,6,6,7,7,8,8,9,9,10,10,11,11,12,12,13,13,14,14,15,15,17,17,18,18,19,19,20,20,21,21,22,22,23,23,24,24,25,25,26,26,27,27,28,28,29,29,30,30],"right_children":[2,4,6,8,10,12,14,16,18,20,22,24,26,28,30,32,-1,34,36,38,40,42,44,46,48,50,52,54,56,58,60,-1,-1,-1,-1,-1,-1,-1,-1,-1,-1,-1,-1,-1,-1,-1,-1,-1,-1,-1,-1,-1,-1,-1,-1,-1,-1,-1,-1,-1,-1],"split_conditions":[1.8E1,9E0,2.6E1,2E0,1.4E1,3.3E1,1E0,3.0333334E1,2.9666666E1,3.0666666E1,3.1333334E1,2.2E1,3.4666668E1,3.0333334E1,3.3E1,1E0,2.040772E-1,2.6E1,3.25E1,2.8166666E1,3.45E1,2.8166666E1,3.4666668E1,2.9166666E1,2.5E1,1.3405E1,1.2925E1,2.7E1,3.1E1,3.55E1,3.0666666E1,1.4640826E-1,7.029696E-2,-4.963837E-2,7.540923E-2,1.1456602E-1,1.6448642E-1,-9.3058805E-4,4.6336364E-2,7.53946E-2,1.3446894E-1,-7.858832E-2,-2.0776445E-3,3.2886542E-2,7.110282E-2,-5.6688488E-2,-2.5132312E-2,-1.6843157E-1,-6.4391576E-2,1.3750474E-2,-3.1028843E-2,3.9497376E-3,5.5399876E-2,-9.562289E-2,-1.6382506E-1,-7.380745E-2,-1.4948264E-1,-6.802999E-2,2.3491783E-2,-3.803749E-2,-1.4766292E-1],"split_indices":[2,2,2,2,2,0,3,0,0,0,0,2,0,0,2,3,0,0,0,0,0,0,0,0,0,5,5,2,2,0,0,0,0,0,0,0,0,0,0,0,0,0,0,0,0,0,0,0,0,0,0,0,0,0,0,0,0,0,0,0,0],"split_type":[0,0,0,0,0,0,0,0,0,0,0,0,0,0,0,0,0,0,0,0,0,0,0,0,0,0,0,0,0,0,0,0,0,0,0,0,0,0,0,0,0,0,0,0,0,0,0,0,0,0,0,0,0,0,0,0,0,0,0,0,0],"sum_hessian":[8E2,4.17E2,3.83E2,1.87E2,2.3E2,1.67E2,2.16E2,4.7E1,1.4E2,1.36E2,9.4E1,1.47E2,2E1,1.28E2,8.8E1,2.4E1,2.3E1,4E1,1E2,8.6E1,5E1,6.5E1,2.9E1,6.4E1,8.3E1,1.1E1,9E0,7E1,5.8E1,3.8E1,5E1,2.1E1,3E0,1E0,3.9E1,7.8E1,2.2E1,1.2E1,7.4E1,4.1E1,9E0,3E0,6.2E1,2.3E1,6E0,1E1,5.4E1,2E0,8.1E1,5E0,6E0,4E0,5E0,1.5E1,5.5E1,4.1E1,1.7E1,3.4E1,4E0,1.1E1,3.9E1],"tree_param":{"num_deleted":"0","num_feature":"6","num_nodes":"61","size_leaf_vector":"1"}},{"base_weights":[3.079756E-3,7.122217E-1,-7.688588E-1,1.09868E0,2.8548864E-1,-3.7871858E-1,-1.0256238E0,1.4813504E0,9.202572E-1,4.6696803E-1,7.99907E-2,-2.0784983E-1,-5.2621496E-1,-8.699667E-1,-1.162357E0,8.242633E-1,1.593696E0,5.13742E-1,1.0119255E0,1.12739936E-1,5.3336287E-1,-9.723597E-2,1.1307737E-1,-3.0159193E-1,-7.111565E-2,-3.365017E-1,-6.291937E-1,-9.485226E-1,-5.0548667E-1,-1.4329979E-1,-9.5539373E-1,1.4135005E-1,5.6506574E-2,1.6203998E-1,5.7289697E-2,1.5915139E-2,5.7829406E-2,1.0405841E-1,-1.0081387E-2,-6.530796E-3,5.8872607E-2,5.0804973E-2,9.442544E-2,-1.6859341E-3,2.0723276E-2,1.6600013E-2,-3.4081135E-2,-2.0092018E-2,5.0322324E-2,-4.5537252E-2,4.668342E-4,-5.8265746E-2,-1.19506635E-1,-6.0560524E-2,-1.0306036E-1,-1.2067751E-2,-6.115672E-2,-6.64674E-2,-1.330555E-1],"categories":[],"categories_nodes":[],"categories_segments":[],"categories_sizes":[],"default_left":[0,0,0,0,0,0,0,0,0,0,0,0,0,0,0,0,0,0,0,0,0,0,0,0,0,0,0,0,0,0,0,0,0,0,0,0,0,0,0,0,0,0,0,0,0,0,0,0,0,0,0,0,0,0,0,0,0,0,0],"id":32,"left_children":[1,3,5,7,9,11,13,15,17,19,21,23,25,27,29,31,33,35,37,39,41,-1,43,45,47,49,51,53,55,-1,57,-1,-1,-1,-1,-1,-1,-1,-1,-1,-1,-1,-1,-1,-1,-1,-1,-1,-1,-1,-1,-1,-1,-1,-1,-1,-1,-1,-1],"loss_changes":[4.3902618E2,6.862062E1,3.8078537E1,1.3589478E1,7.4213753E0,3.7718124E0,3.9052887E0,3.7062073E0,5.144348E0,2.4328728E0,3.417735E0,9.1424775E-1,1.3902645E0,2.7273254E0,5.3524475E0,1.0340242E0,6.2542725E-1,5.946498E-1,4.0273056E0,1.5639184E0,4.4595718E-1,0E0,1.1412783E0,8.4513783E-1,2.4122133E0,1.2593358E0,6.7303085E-1,1.937233E0,8.2425404E-1,0E0,6.8593597E0,0E0,0E0,0E0,0E0,0E0,0E0,0E0,0E0,0E0,0E0,0E0,0E0,0E0,0E0,0E0,0E0,0E0,0E0,0E0,0E0,0E0,0E0,0E0,0E0,0E0,0E0,0E0,0E0],"parents":[2147483647,0,0,1,1,2,2,3,3,4,4,5,5,6,6,7,7,8,8,9,9,10,10,11,11,12,12,13,13,14,14,15,15,16,16,17,17,18,18,19,19,20,20,22,22,23,23,24,24,25,25,26,26,27,27,28,28,30,30],"right_children":[2,4,6,8,10,12,14,16,18,20,22,24,26,28,30,32,34,36,38,40,42,-1,44,46,48,50,52,54,56,-1,58,-1,-1,-1,-1,-1,-1,-1,-1,-1,-1,-1,-1,-1,-1,-1,-1,-1,-1,-1,-1,-1,-1,-1,-1,-1,-1,-1,-1],"split_conditions":[1.8E1,1E1,2.5E1,3E0,1.4E1,