{"learner":{"attributes":{"scikit_learn":"{\"_estimator_type\": \"classifier\"}"},"feature_names":["Flow","Acne_Severity","Hair_Growth_Severity","Weight_Gain_Severity","LH_FSH_Ratio","Insulin_Resistance","TSH","BMI_Category","T3_T4_Ratio","Testo_Estrogen_Ratio","Irregular_Cycle_Score"],"feature_types":["int","int","int","int","float","int","float","int","float","float","int"],"gradient_booster":{"model":{"gbtree_model_param":{"num_parallel_tree":"1","num_trees":"100"},"iteration_indptr":[0,1,2,3,4,5,6,7,8,9,10,11,12,13,14,15,16,17,18,19,20,21,22,23,24,25,26,27,28,29,30,31,32,33,34,35,36,37,38,39,40,41,42,43,44,45,46,47,48,49,50,51,52,53,54,55,56,57,58,59,60,61,62,63,64,65,66,67,68,69,70,71,72,73,74,75,76,77,78,79,80,81,82,83,84,85,86,87,88,89,90,91,92,93,94,95,96,97,98,99,100],"tree_info":[0,0,0,0,0,0,0,0,0,0,0,0,0,0,0,0,0,0,0,0,0,0,0,0,0,0,0,0,0,0,0,0,0,0,0,0,0,0,0,0,0,0,0,0,0,0,0,0,0,0,0,0,0,0,0,0,0,0,0,0,0,0,0,0,0,0,0,0,0,0,0,0,0,0,0,0,0,0,0,0,0,0,0,0,0,0,0,0,0,0,0,0,0,0,0,0,0,0,0,0],"trees":[{"base_weights":[9.505296E-9,-3.6864135E-1,3.9533533E-2,-1.0854075E0,-1.5695111E-1,-8.3303496E-2,2.0376574E-1,-5.645544E-2,-4.129029E-1,4.1795872E-2,-8.652556E-1,2.865502E-1,-2.1034636E-1,2.4787281E-1,-7.354696E-1,2.3303577E-1,-7.575142E-1,-4.1746876E-1,-2.0000315E-3,-2.4000552E-1,5.166791E-1,5.5916872E-2,-4.252412E-1,2.7925221E-2,4.36457E-1,1.983361E-1,-3.9053687E-1,-2.0900469E-1,7.913505E-1,-5.645544E-2,-3.3500466E-1,2.4125528E-1,-8.4168416E-1,5.9588593E-1,-2.0166947E-1,2.8399292E-1,-3.87847E-1,-7.0887893E-1,-1.657487E-1,2.5122344E-1,-2.274312E-1,1.2467724E0,2.562132E-1,-2.0250422E-1,1.17602356E-1,1.17602356E-1,3.407204E-1,3.5820538E-1,-4.8693333E-2,5.2637205E-2,-3.9053687E-1,2.71786E-1,6.3890375E-2,2.5686335E-2,2.2586225E-1,-4.129029E-1,-1.2966401E-2,-3.159206E-1,8.305898E-2,8.6619005E-2,-1.1308434E-1,2.5108272E-1,-6.5509E-2,-2.5149348E-1,5.3438757E-2,9.800164E-2,4.2592373E-1,5.189318E-3,2.5144655E-1],"categories":[],"categories_nodes":[],"categories_segments":[],"categories_sizes":[],"default_left":[0,0,0,0,0,0,0,0,0,0,0,0,0,0,0,0,0,0,0,0,0,0,0,0,0,0,0,0,0,0,0,0,0,0,0,0,0,0,0,0,0,0,0,0,0,0,0,0,0,0,0,0,0,0,0,0,0,0,0,0,0,0,0,0,0,0,0,0,0],"id":0,"left_children":[1,3,5,7,9,11,13,-1,-1,15,17,19,21,23,25,27,29,-1,-1,31,33,35,37,39,41,-1,-1,43,45,-1,-1,47,49,51,-1,53,55,57,59,61,63,65,67,-1,-1,-1,-1,-1,-1,-1,-1,-1,-1,-1,-1,-1,-1,-1,-1,-1,-1,-1,-1,-1,-1,-1,-1,-1,-1],"loss_changes":[4.401146E0,4.2677097E0,5.51924E0,1.4376769E0,3.3794518E0,7.4253464E0,5.0291333E0,0E0,0E0,3.1572268E0,2.3630517E0,5.031502E0,6.732493E0,4.654043E0,5.2105923E0,4.237462E0,6.077819E-1,0E0,0E0,3.9673107E0,3.0843472E0,5.499548E0,4.6665087E0,3.0791554E0,8.516631E0,0E0,0E0,3.0653224E0,5.862155E-1,0E0,0E0,3.269759E0,3.036304E0,3.042387E0,0E0,3.2606654E0,6.2425933E0,1.0724236E1,3.4922428E0,8.090136E0,6.404836E0,1.2470627E0,7.0413504E0,0E0,0E0,0E0,0E0,0E0,0E0,0E0,0E0,0E0,0E0,0E0,0E0,0E0,0E0,0E0,0E0,0E0,0E0,0E0,0E0,0E0,0E0,0E0,0E0,0E0,0E0],"parents":[2147483647,0,0,1,1,2,2,3,3,4,4,5,5,6,6,9,9,10,10,11,11,12,12,13,13,14,14,15,15,16,16,19,19,20,20,21,21,22,22,23,23,24,24,27,27,28,28,31,31,32,32,33,33,35,35,36,36,37,37,38,38,39,39,40,40,41,41,42,42],"right_children":[2,4,6,8,10,12,14,-1,-1,16,18,20,22,24,26,28,30,-1,-1,32,34,36,38,40,42,-1,-1,44,46,-1,-1,48,50,52,-1,54,56,58,60,62,64,66,68,-1,-1,-1,-1,-1,-1,-1,-1,-1,-1,-1,-1,-1,-1,-1,-1,-1,-1,-1,-1,-1,-1,-1,-1,-1,-1],"split_conditions":[1.5225649E-1,1.1817368E-1,1.59E0,2E0,4.15E0,6.1E-1,4.85E0,-5.645544E-2,-4.129029E-1,1.4531794E-1,2E0,3.9E-1,3.365396E-1,2.53E0,1.92E0,1.2637363E-1,2.41E0,-4.1746876E-1,-2.0000315E-3,3.5E-1,3.5E1,2.8E1,1E0,1.7525773E-1,1.78E0,1.983361E-1,-3.9053687E-1,2.039749E-1,1.45E0,-5.645544E-2,-3.3500466E-1,1E0,2.38E0,1.7613636E-1,-2.0166947E-1,2.8401598E-1,1.8885307E-1,3E0,1.4385965E-1,1E0,3.3178312E-1,1.1175786E-1,2.1023767E-1,-2.0250422E-1,1.17602356E-1,1.17602356E-1,3.407204E-1,3.5820538E-1,-4.8693333E-2,5.2637205E-2,-3.9053687E-1,2.71786E-1,6.3890375E-2,2.5686335E-2,2.2586225E-1,-4.129029E-1,-1.2966401E-2,-3.159206E-1,8.305898E-2,8.6619005E-2,-1.1308434E-1,2.5108272E-1,-6.5509E-2,-2.5149348E-1,5.3438757E-2,9.800164E-2,4.2592373E-1,5.189318E-3,2.5144655E-1],"split_indices":[9,8,4,0,6,4,6,0,0,9,7,4,9,6,4,9,6,0,0,4,10,10,5,8,4,0,0,8,4,0,0,1,6,8,0,9,9,3,8,5,9,8,8,0,0,0,0,0,0,0,0,0,0,0,0,0,0,0,0,0,0,0,0,0,0,0,0,0,0],"split_type":[0,0,0,0,0,0,0,0,0,0,0,0,0,0,0,0,0,0,0,0,0,0,0,0,0,0,0,0,0,0,0,0,0,0,0,0,0,0,0,0,0,0,0,0,0,0,0,0,0,0,0,0,0,0,0,0,0,0,0,0,0,0,0,0,0,0,0,0,0],"sum_hessian":[2.999925E2,2.8249294E1,2.7174323E2,5.4998627E0,2.2749432E1,1.5574611E2,1.159971E2,1.7499563E0,3.7499063E0,1.8499538E1,4.2498937E0,3.9499012E1,1.1624709E2,1.11497215E2,4.4998875E0,1.5499613E1,2.9999251E0,2.2499437E0,1.99995E0,1.1999701E1,2.7499313E1,5.2248695E1,6.39984E1,5.1998703E1,5.9498512E1,1.2499688E0,3.249919E0,8.999775E0,6.499838E0,1.7499563E0,1.2499688E0,6.999825E0,4.999875E0,2.6249344E1,1.2499688E0,3.474913E1,1.7499563E1,2.9749256E1,3.4249146E1,2.7749308E1,2.4249393E1,9.749757E0,4.9748756E1,4.999875E0,3.9999E0,3.9999E0,2.4999375E0,1.4999626E0,5.4998627E0,1.7499563E0,3.249919E0,1.3749657E1,1.2499688E1,2.5249369E1,9.499763E0,3.7499063E0,1.3749657E1,2.199945E1,7.7498064E0,1.0749731E1,2.3499413E1,1.1999701E1,1.5749607E1,9.249769E0,1.4999625E1,1.99995E0,7.7498064E0,3.59991E1,1.3749657E1],"tree_param":{"num_deleted":"0","num_feature":"11","num_nodes":"69","size_leaf_vector":"1"}},{"base_weights":[-2.2393123E-3,-1.5977923E-2,6.7424923E-1,1.81648E-2,-3.6021236E-1,1.0674685E0,-5.4493513E-2,-2.7223423E-2,3.3656323E-1,-5.6925553E-1,5.029333E-1,7.7324286E-2,3.9447278E-1,1.9118916E-2,-3.9263466E-1,-2.1779068E-1,6.9368464E-1,-2.5181135E-2,-1.1089917E0,3.3843762E-1,-1.7728373E-1,-2.9433042E-1,6.869418E-2,-5.6161523E-2,-7.170057E-1,2.741125E-1,-5.94553E-1,1.2032114E0,2.2311348E-1,-3.111809E-1,1.8983829E-1,-4.3875745E-1,-1.3625911E0,-2.7845165E-1,-4.039294E-2,4.9878668E-2,-2.4474725E-2,-1.5164357E-1,9.2326745E-2,5.9577588E-2,-2.751959E-1,-7.1576975E-2,3.7203425E-1,5.363593E-2,-2.74285E-1,1.1789202E-1,4.5137534E-1,-2.1062125E-1,1.2656082E-1,-5.9844363E-2,1.793999E-1,1.8159449E-1,-3.0793414E-1,-4.6813676E-1,-5.9911188E-2],"categories":[],"categories_nodes":[],"categories_segments":[],"categories_sizes":[],"default_left":[0,0,0,0,0,0,0,0,0,0,0,0,0,0,0,0,0,0,0,0,0,0,0,0,0,0,0,0,0,0,0,0,0,0,0,0,0,0,0,0,0,0,0,0,0,0,0,0,0,0,0,0,0,0,0],"id":1,"left_children":[1,3,5,7,9,11,-1,13,15,17,19,-1,-1,21,23,25,27,29,31,-1,-1,33,35,37,39,41,43,45,47,-1,49,51,53,-1,-1,-1,-1,-1,-1,-1,-1,-1,-1,-1,-1,-1,-1,-1,-1,-1,-1,-1,-1,-1,-1],"loss_changes":[2.7815056E0,3.4521186E0,2.1987784E0,3.8772848E0,5.068084E0,5.080414E-1,0E0,3.9902458E0,6.7771735E0,6.3748436E0,4.563355E0,0E0,0E0,3.2784247E0,2.85385E0,2.7343931E0,4.6696167E0,2.7825263E0,1.2586098E0,0E0,0E0,2.7923672E0,2.6799126E0,2.461223E0,2.6428156E0,3.6153283E0,2.18419E0,1.7677097E0,2.4907696E0,0E0,1.8107997E0,3.36601E0,1.4023523E0,0E0,0E0,0E0,0E0,0E0,0E0,0E0,0E0,0E0,0E0,0E0,0E0,0E0,0E0,0E0,0E0,0E0,0E0,0E0,0E0,0E0,0E0],"parents":[2147483647,0,0,1,1,2,2,3,3,4,4,5,5,7,7,8,8,9,9,10,10,13,13,14,14,15,15,16,16,17,17,18,18,21,21,22,22,23,23,24,24,25,25,26,26,27,27,28,28,30,30,31,31,32,32],"right_children":[2,4,6,8,10,12,-1,14,16,18,20,-1,-1,22,24,26,28,30,32,-1,-1,34,36,38,40,42,44,46,48,-1,50,52,54,-1,-1,-1,-1,-1,-1,-1,-1,-1,-1,-1,-1,-1,-1,-1,-1,-1,-1,-1,-1,-1,-1],"split_conditions":[1.0289944E0,6.983268E-1,3.31E0,5.501325E-1,2.15E0,1E0,-5.4493513E-2,4.432659E-1,1.3E0,1.21E0,3.8E0,7.7324286E-2,3.9447278E-1,1.5225649E-1,3E0,3E0,1.5165877E-1,7.1863693E-1,2E0,3.3843762E-1,-1.7728373E-1,1.1308017E-1,3.28E0,2.41E0,7.7E-1,2.8E1,6.010633E-1,2E0,1.42E0,-3.111809E-1,2.4E1,2E0,3.96E0,-2.7845165E-1,-4.039294E-2,4.9878668E-2,-2.4474725E-2,-1.5164357E-1,9.2326745E-2,5.9577588E-2,-2.751959E-1,-7.1576975E-2,3.7203425E-1,5.363593E-2,-2.74285E-1,1.1789202E-1,4.5137534E-1,-2.1062125E-1,1.2656082E-1,-5.9844363E-2,1.793999E-1,1.8159449E-1,-3.0793414E-1,-4.6813676E-1,-5.9911188E-2],"split_indices":[9,9,6,9,4,2,0,9,4,4,6,0,0,9,7,7,8,9,7,0,0,8,6,6,4,10,9,7,4,0,10,2,6,0,0,0,0,0,0,0,0,0,0,0,0,0,0,0,0,0,0,0,0,0,0],"split_type":[0,0,0,0,0,0,0,0,0,0,0,0,0,0,0,0,0,0,0,0,0,0,0,0,0,0,0,0,0,0,0,0,0,0,0,0,0,0,0,0,0,0,0,0,0,0,0,0,0,0,0,0,0,0,0],"sum_hessian":[2.9712018E2,2.921631E2,4.9570746E0,2.6666162E2,2.5501472E1,3.2272148E0,1.72986E0,2.341917E2,3.2469917E1,2.0803587E1,4.697884E0,1.2332389E0,1.9939759E0,2.0867474E2,2.5516958E1,1.2874768E1,1.9595148E1,1.0881392E1,9.922196E0,2.9694357E0,1.7284484E0,2.7822773E1,1.8085197E2,1.310066E1,1.2416298E1,5.7022843E0,7.172484E0,8.660636E0,1.0934512E1,1.2366152E0,9.644776E0,3.4731572E0,6.449039E0,4.630528E0,2.3192245E1,1.0959218E2,7.1259796E1,5.6883917E0,7.412268E0,2.2303555E0,1.0185943E1,4.2170897E0,1.4851946E0,2.2269428E0,4.9455414E0,2.9726484E0,5.687988E0,1.4858297E0,9.448683E0,5.1979995E0,4.4467764E0,1.2400784E0,2.2330787E0,5.2191267E0,1.2299123E0],"tree_param":{"num_deleted":"0","num_feature":"11","num_nodes":"55","size_leaf_vector":"1"}},{"base_weights":[-2.5402855E-3,-3.13649E-1,5.326424E-3,2.2096297E-1,-3.341366E-2,5.061854E-1,-5.385317E-2,-3.4790602E-1,1.1930387E-2,1.1576889E0,2.140757E-1,-2.7715886E-1,7.939988E-1,3.6482224E-1,-7.01395E-1,1.04677975E-1,-1.409716E-1,6.63498E-2,4.506305E-1,-5.4188377E-1,5.549216E-1,-4.7180626E-1,2.2941364E-1,3.767902E-1,3.6749434E-2,4.4223934E-2,3.4047198E-1,-2.049974E-1,-1.145613E0,8.887341E-1,4.496995E-2,-6.35361E-1,-3.294427E-2,2.9530961E-2,-3.5002172E-1,2.5754875E-1,-1.5743217E-1,-2.1214141E-1,6.353965E-2,2.4521741E-1,-6.618051E-2,-1.9525568E-1,3.799691E-1,-3.960525E-1,-1.267859E-3,8.282839E-2,3.9313966E-1,-1.4926951E-3,2.5395387E-1,-2.6081148E-1,1.4563139E-1,7.959787E-3,-2.7746698E-1],"categories":[],"categories_nodes":[],"categories_segments":[],"categories_sizes":[],"default_left":[0,0,0,0,0,0,0,0,0,0,0,0,0,0,0,0,0,0,0,0,0,0,0,0,0,0,0,0,0,0,0,0,0,0,0,0,0,0,0,0,0,0,0,0,0,0,0,0,0,0,0,0,0],"id":2,"left_children":[1,-1,3,5,7,9,11,13,15,17,19,21,23,25,27,29,31,-1,-1,33,35,37,-1,-1,-1,39,-1,41,43,45,47,49,51,-1,-1,-1,-1,-1,-1,-1,-1,-1,-1,-1,-1,-1,-1,-1,-1,-1,-1,-1,-1],"loss_changes":[2.43466E0,0E0,2.4704263E0,3.5571964E0,3.5807588E0,3.976068E0,4.7335563E0,8.226859E0,3.1370456E0,1.8107662E0,4.565309E0,4.3377986E0,1.4681065E0,2.7018723E0,4.50414E0,6.4024553E0,4.441457E0,0E0,0E0,2.3751974E0,4.3514676E0,2.9074924E0,0E0,0E0,0E0,2.0048816E0,0E0,8.28254E0,2.2107477E0,2.140482E0,5.165783E0,4.3374267E0,3.718161E0,0E0,0E0,0E0,0E0,0E0,0E0,0E0,0E0,0E0,0E0,0E0,0E0,0E0,0E0,0E0,0E0,0E0,0E0,0E0,0E0],"parents":[2147483647,0,0,2,2,3,3,4,4,5,5,6,6,7,7,8,8,9,9,10,10,11,11,12,12,13,13,14,14,15,15,16,16,19,19,20,20,21,21,25,25,27,27,28,28,29,29,30,30,31,31,32,32],"right_children":[2,-1,4,6,8,10,12,14,16,18,20,22,24,26,28,30,32,-1,-1,34,36,38,-1,-1,-1,40,-1,42,44,46,48,50,52,-1,-1,-1,-1,-1,-1,-1,-1,-1,-1,-1,-1,-1,-1,-1,-1,-1,-1,-1,-1],"split_conditions":[7.5637646E-2,-3.13649E-1,6.1E-1,1E0,8.6E-1,1.3575129E-1,2.657005E-1,2E0,2.7E1,2.41E0,4.1E-1,3.2E1,2.8E0,3E1,2E0,9.5E-1,1.8885307E-1,6.63498E-2,4.506305E-1,3.6E-1,3.1E1,4.06045E-1,2.2941364E-1,3.767902E-1,3.6749434E-2,1.88E0,3.4047198E-1,3E0,4.07E0,8.9E-1,4.72E0,3.4E1,4.85E0,2.9530961E-2,-3.5002172E-1,2.5754875E-1,-1.5743217E-1,-2.1214141E-1,6.353965E-2,2.4521741E-1,-6.618051E-2,-1.9525568E-1,3.799691E-1,-3.960525E-1,-1.267859E-3,8.282839E-2,3.9313966E-1,-1.4926951E-3,2.5395387E-1,-2.6081148E-1,1.4563139E-1,7.959787E-3,-2.7746698E-1],"split_indices":[8,0,4,5,4,8,8,7,10,6,4,10,6,10,1,4,9,0,0,4,10,9,0,0,0,6,0,3,6,4,6,10,6,0,0,0,0,0,0,0,0,0,0,0,0,0,0,0,0,0,0,0,0],"split_type":[0,0,0,0,0,0,0,0,0,0,0,0,0,0,0,0,0,0,0,0,0,0,0,0,0,0,0,0,0,0,0,0,0,0,0,0,0,0,0,0,0,0,0,0,0,0,0,0,0,0,0,0,0],"sum_hessian":[2.9506332E2,1.2214686E0,2.9384183E2,4.4034054E1,2.4980779E2,2.119479E1,2.2839266E1,3.0638184E1,2.191696E2,5.643864E0,1.5550925E1,1.8610714E1,4.2285514E0,1.0147019E1,2.0491165E1,1.3661612E2,8.255348E1,1.9590346E0,3.6848295E0,4.64935E0,1.0901575E1,1.614212E1,2.4685943E0,1.989475E0,2.2390761E0,7.91098E0,2.2360392E0,1.0367422E1,1.0123743E1,8.684954E0,1.2793117E2,1.3928396E1,6.8625084E1,2.7123425E0,1.9370074E0,8.669012E0,2.2325633E0,1.1982654E1,4.1594663E0,1.4860067E0,6.4249735E0,8.384724E0,1.982698E0,8.644955E0,1.4787877E0,4.215648E0,4.469306E0,1.2136263E2,6.568535E0,1.1708184E1,2.2202115E0,6.524468E1,3.3804054E0],"tree_param":{"num_deleted":"0","num_feature":"11","num_nodes":"53","size_leaf_vector":"1"}},{"base_weights":[1.9366408E-3,-2.691381E-1,8.604462E-3,5.3853464E-1,-5.662745E-3,9.265834E-1,2.2780249E-2,-9.9817944E-1,9.798004E-3,5.299073E-2,3.6732706E-1,-2.122909E-1,1.8268839E-1,-7.227071E-2,-3.8467714E-1,-3.487256E-1,2.7767617E-2,1.1708493E-1,-9.002236E-1,-5.4555155E-2,1.394985E-1,-1.3333863E-1,1.7565113E-1,-3.291461E-1,-8.572789E-3,3.0641496E-2,-6.598469E-2,6.0666528E-2,-9.847551E-2],"categories":[],"categories_nodes":[],"categories_segments":[],"categories_sizes":[],"default_left":[0,0,0,0,0,0,0,0,0,0,0,0,0,0,0,0,0,0,0,0,0,0,0,0,0,0,0,0,0],"id":3,"left_children":[1,-1,3,5,7,9,11,13,15,-1,-1,-1,-1,-1,-1,17,19,21,23,25,27,-1,-1,-1,-1,-1,-1,-1,-1],"loss_changes":[1.7665361E0,0E0,2.2124245E0,1.5142624E0,4.3915553E0,7.559316E-1,2.2801292E0,6.354146E-1,1.8275083E0,0E0,0E0,0E0,0E0,0E0,0E0,3.5839853E0,2.487566E0,2.423904E0,1.05269E0,4.0643015E0,3.4303925E0,0E0,0E0,0E0,0E0,0E0,0E0,0E0,0E0],"parents":[2147483647,0,0,2,2,3,3,4,4,5,5,6,6,7,7,8,8,15,15,16,16,17,17,18,18,19,19,20,20],"right_children":[2,-1,4,6,8,10,12,14,16,-1,-1,-1,-1,-1,-1,18,20,22,24,26,28,-1,-1,-1,-1,-1,-1,-1,-1],"split_conditions":[7.5637646E-2,-2.691381E-1,8.4136724E-2,3.4657487E-1,8.773585E-2,1.8790111E-1,6.0482335E-1,2.54257E-1,1.2637363E-1,5.299073E-2,3.6732706E-1,-2.122909E-1,1.8268839E-1,-7.227071E-2,-3.8467714E-1,1.47E0,1.59E0,1.7885375E-1,2.22E0,2.87E0,6.7199725E-1,-1.3333863E-1,1.7565113E-1,-3.291461E-1,-8.572789E-3,3.0641496E-2,-6.598469E-2,6.0666528E-2,-9.847551E-2],"split_indices":[8,0,8,9,8,9,9,9,9,0,0,0,0,0,0,4,4,8,4,6,9,0,0,0,0,0,0,0,0],"split_type":[0,0,0,0,0,0,0,0,0,0,0,0,0,0,0,0,0,0,0,0,0,0,0,0,0,0,0,0,0],"sum_hessian":[2.9239066E2,1.1693859E0,2.9122125E2,6.671562E0,2.845497E2,3.3525646E0,3.3189976E0,3.3895926E0,2.811601E2,1.4058229E0,1.9467416E0,1.3854485E0,1.9335492E0,1.4287999E0,1.9607928E0,1.2540949E1,2.6861917E2,7.2256556E0,5.315293E0,1.5495833E2,1.1366083E2,3.3094203E0,3.9162354E0,4.124695E0,1.1905979E0,7.9768456E1,7.518988E1,1.007221E2,1.2938724E1],"tree_param":{"num_deleted":"0","num_feature":"11","num_nodes":"29","size_leaf_vector":"1"}},{"base_weights":[-1.1758812E-3,1.7489015E-1,-3.2556634E-2,-2.0081946E-1,2.3807073E-1,-1.5681213E-1,2.8331611E-2,1.0218253E-1,7.146895E-1,-2.4520087E-1,3.7240493E-1,-3.9693823E-1,7.527682E-2,5.033868E-1,-1.6725917E-1,3.4026104E-1,-8.0218E-2,-6.155495E-2,-4.9738333E-1,8.331263E-1,-4.3301377E-1,-8.2905084E-1,6.5244925E-1,3.9357463E-1,4.8130296E-2,6.265529E-2,7.5218654E-1,-4.583653E-1,6.660625E-1,1.5106675E-1,-2.4209233E-1,4.1925317E-1,-2.5742605E-1,-6.7744476E-1,-6.511875E-2,1.1026198E0,-3.2049824E-2,9.77088E-2,-7.6100385E-1,1.5130703E-1,-1.1152229E0,1.3527188E-1,2.9573128E-1,9.2719726E-2,-4.4157347E-1,-9.09611E-2,1.6927108E-1,-5.0390024E-2,3.4404957E-1,1.6964532E-1,-1.9106312E-1,-6.779839E-2,4.0524015E-1,8.026214E-3,3.610611E-1,-3.1173694E-1,1.6185878E-3,2.0658495E-1,-2.3910125E-1,1.801514E-1,-1.8328157E-1,4.818775E-2,4.0492517E-1,-2.9867095E-1,-6.2713325E-2,-1.8846446E-1,-4.5205194E-1,1.5007566E-1,-8.666296E-2,-2.0183913E-1,3.5336006E-2,-2.3766541E-1,5.6762308E-2],"categories":[],"categories_nodes":[],"categories_segments":[],"categories_sizes":[],"default_left":[0,0,0,0,0,0,0,0,0,0,0,0,0,0,0,0,0,0,0,0,0,0,0,0,0,0,0,0,0,0,0,0,0,0,0,0,0,0,0,0,0,0,0,0,0,0,0,0,0,0,0,0,0,0,0,0,0,0,0,0,0,0,0,0,0,0,0,0,0,0,0,0,0],"id":4,"left_children":[1,3,5,-1,7,9,11,13,15,17,19,21,23,25,27,-1,29,31,33,35,37,39,41,-1,43,45,47,49,51,-1,-1,53,55,57,59,61,-1,-1,63,-1,65,67,-1,69,71,-1,-1,-1,-1,-1,-1,-1,-1,-1,-1,-1,-1,-1,-1,-1,-1,-1,-1,-1,-1,-1,-1,-1,-1,-1,-1,-1,-1],"loss_changes":[1.620128E0,2.5255659E0,1.8871083E0,0E0,2.6476867E0,3.9265378E0,3.3809512E0,3.743959E0,3.143229E0,3.2510157E0,4.8622494E0,8.179995E0,5.039766E0,1.4717007E0,5.4005203E0,0E0,2.1440203E0,4.07672E0,2.2688613E0,2.1591897E0,1.5100732E0,5.283886E0,8.101659E-1,0E0,3.3114576E0,1.2884029E0,3.37457E0,3.3134143E0,3.8757842E0,0E0,0E0,3.8399572E0,6.284727E0,3.9577265E0,3.9436183E0,1.2617812E0,0E0,0E0,2.891822E-1,0E0,1.0556288E0,6.5600276E-1,0E0,2.7293787E0,2.9529824E0,0E0,0E0,0E0,0E0,0E0,0E0,0E0,0E0,0E0,0E0,0E0,0E0,0E0,0E0,0E0,0E0,0E0,0E0,0E0,0E0,0E0,0E0,0E0,0E0,0E0,0E0,0E0,0E0],"parents":[2147483647,0,0,1,1,2,2,4,4,5,5,6,6,7,7,8,8,9,9,10,10,11,11,12,12,13,13,14,14,16,16,17,17,18,18,19,19,20,20,21,21,22,22,24,24,25,25,26,26,27,27,28,28,31,31,32,32,33,33,34,34,35,35,38,38,40,40,41,41,43,43,44,44],"right_children":[2,4,6,-1,8,10,12,14,16,18,20,22,24,26,28,-1,30,32,34,36,38,40,42,-1,44,46,48,50,52,-1,-1,54,56,58,60,62,-1,-1,64,-1,66,68,-1,70,72,-1,-1,-1,-1,-1,-1,-1,-1,-1,-1,-1,-1,-1,-1,-1,-1,-1,-1,-1,-1,-1,-1,-1,-1,-1,-1,-1,-1],"split_conditions":[6.1E-1,8E-1,1.26E0,-2.0081946E-1,5.5E-1,4.46E0,1.0220441E-1,1.590164E-1,2.6E1,2.69E0,1.992238E-1,5.1272666E-1,1.04275286E-1,3.7E-1,4E0,3.4026104E-1,3E0,1.3508771E-1,3.84E0,1.11E0,4.61E0,1.9919744E-1,2.45E0,3.9357463E-1,7.1863693E-1,2.88E0,1.01678185E-1,1.4775898E-1,2.3343374E-1,1.5106675E-1,-2.4209233E-1,1.2605043E-1,7.5E-1,7E-1,9.2E-1,2E0,-3.2049824E-2,9.77088E-2,2.6984128E-1,1.5130703E-1,3.520704E-1,1.95E0,2.9573128E-1,1.08216435E-1,2.2093023E-1,-9.09611E-2,1.6927108E-1,-5.0390024E-2,3.4404957E-1,1.6964532E-1,-1.9106312E-1,-6.779839E-2,4.0524015E-1,8.026214E-3,3.610611E-1,-3.1173694E-1,1.6185878E-3,2.0658495E-1,-2.3910125E-1,1.801514E-1,-1.8328157E-1,4.818775E-2,4.0492517E-1,-2.9867095E-1,-6.2713325E-2,-1.8846446E-1,-4.5205194E-1,1.5007566E-1,-8.666296E-2,-2.0183913E-1,3.5336006E-2,-2.3766541E-1,5.6762308E-2],"split_indices":[4,6,4,0,4,6,8,8,10,6,8,9,8,4,0,0,1,8,6,4,6,9,6,0,9,6,8,9,8,0,0,8,4,4,4,2,0,0,8,0,9,6,0,9,8,0,0,0,0,0,0,0,0,0,0,0,0,0,0,0,0,0,0,0,0,0,0,0,0,0,0,0,0],"split_type":[0,0,0,0,0,0,0,0,0,0,0,0,0,0,0,0,0,0,0,0,0,0,0,0,0,0,0,0,0,0,0,0,0,0,0,0,0,0,0,0,0,0,0,0,0,0,0,0,0,0,0,0,0,0,0,0,0,0,0,0,0,0,0,0,0,0,0,0,0,0,0,0,0],"sum_hessian":[2.912008E2,4.3358547E1,2.4784225E2,2.3507147E0,4.100783E1,8.098981E1,1.6685245E2,3.285498E1,8.152853E0,6.98588E1,1.1131001E1,1.5846447E1,1.51006E2,1.2851127E1,2.0003853E1,5.0571146E0,3.0957384E0,4.114212E1,2.8716688E1,7.0587835E0,4.0722175E0,1.1373202E1,4.4732447E0,2.2270558E0,1.4877895E2,5.088691E0,7.7624354E0,1.5158465E1,4.8453875E0,1.8870592E0,1.2086792E0,1.1578855E1,2.9563265E1,1.987181E1,8.844877E0,5.3514347E0,1.7073487E0,1.2311965E0,2.841021E0,1.8748744E0,9.498328E0,2.3040857E0,2.1691592E0,1.371056E2,1.1673337E1,3.171136E0,1.9175552E0,2.5023508E0,5.2600846E0,1.9286976E0,1.3229768E1,2.3950887E0,2.4502988E0,8.406093E0,3.1727622E0,6.695483E0,2.286778E1,1.2161945E0,1.8655617E1,3.939949E0,4.904928E0,1.4550705E0,3.8963645E0,1.4297286E0,1.4112923E0,5.3942666E0,4.104061E0,1.1419817E0,1.1621039E0,3.5278864E0,1.3357773E2,7.338186E0,4.335151E0],"tree_param":{"num_deleted":"0","num_feature":"11","num_nodes":"73","size_leaf_vector":"1"}},{"base_weights":[1.9587618E-3,-8.088203E-3,4.988906E-1,-4.429289E-1,4.929243E-3,7.775544E-1,-9.049378E-2,-8.2589084E-1,1.5745376E-1,6.759184E-1,-7.6224455E-3,-5.4736987E-2,3.5475248E-1,-2.1806185E-1,-3.8283E-1,-1.5534055E-2,9.05355E-1,-5.7471293E-1,5.713337E-3,-2.0119844E-1,7.133057E-2,3.56325E-1,4.4205375E-2,1.2951516E-1,-1.0416329E0,1.4520029E-2,-2.3287626E-1,-3.9983884E-1,-6.478283E-2,1.2098878E-2,-6.640799E-2],"categories":[],"categories_nodes":[],"categories_segments":[],"categories_sizes":[],"default_left":[0,0,0,0,0,0,0,0,0,0,0,0,0,0,0,0,0,0,0,0,0,0,0,0,0,0,0,0,0,0,0],"id":5,"left_children":[1,3,5,7,9,11,-1,13,-1,15,17,-1,-1,19,-1,-1,21,23,25,-1,-1,-1,-1,-1,27,29,-1,-1,-1,-1,-1],"loss_changes":[1.44397E0,1.607953E0,1.5131278E0,3.493467E0,2.3331966E0,1.9772458E0,0E0,1.4468541E0,0E0,8.9621353E-1,2.0628476E0,0E0,0E0,9.617108E-1,0E0,0E0,6.644509E-1,3.3946857E0,1.8504515E0,0E0,0E0,0E0,0E0,0E0,8.118129E-1,1.622699E0,0E0,0E0,0E0,0E0,0E0],"parents":[2147483647,0,0,1,1,2,2,3,3,4,4,5,5,7,7,9,9,10,10,13,13,16,16,17,17,18,18,24,24,25,25],"right_children":[2,4,6,8,10,12,-1,14,-1,16,18,-1,-1,20,-1,-1,22,24,26,-1,-1,-1,-1,-1,28,30,-1,-1,-1,-1,-1],"split_conditions":[1.0289944E0,6.7E-1,3.95E0,3E0,7.2E-1,1E0,-9.049378E-2,6.4E-1,1.5745376E-1,2.4E1,8.3E-1,-5.4736987E-2,3.5475248E-1,2.8E1,-3.8283E-1,-1.5534055E-2,2.9E1,3E0,9.6846634E-1,-2.0119844E-1,7.133057E-2,3.56325E-1,4.4205375E-2,1.2951516E-1,3.9900422E-1,2.8846154E-1,-2.3287626E-1,-3.9983884E-1,-6.478283E-2,1.2098878E-2,-6.640799E-2],"split_indices":[9,6,6,2,6,3,0,6,0,10,6,0,0,10,0,0,10,0,9,0,0,0,0,0,9,8,0,0,0,0,0],"split_type":[0,0,0,0,0,0,0,0,0,0,0,0,0,0,0,0,0,0,0,0,0,0,0,0,0,0,0,0,0,0,0],"sum_hessian":[2.8741052E2,2.8267905E2,4.7314796E0,7.256422E0,2.754226E2,3.5310445E0,1.2004349E0,5.3041177E0,1.9523044E0,4.0870304E0,2.713356E2,1.2105861E0,2.3204584E0,2.8885849E0,2.4155326E0,1.165322E0,2.9217086E0,5.266983E0,2.660686E2,1.2129431E0,1.6756419E0,1.715611E0,1.2060976E0,1.6930546E0,3.5739284E0,2.6407596E2,1.9926506E0,2.1881578E0,1.3857703E0,2.3877829E2,2.5297663E1],"tree_param":{"num_deleted":"0","num_feature":"11","num_nodes":"31","size_leaf_vector":"1"}},{"base_weights":[2.7784777E-6,-1.3435369E-2,4.0846694E-1,-5.291481E-1,8.013015E-4,-2.9293182E-1,7.398337E-1,-8.096551E-1,8.6090304E-2,2.4931664E-2,-3.220771E-1,-7.7415905E-3,9.853022E-1,-3.032204E-2,-9.6219885E-1,1.6619662E-2,2.6538613E-1,2.4753678E-1,-5.4543614E-1,3.5029176E-1,4.2266354E-2,-5.8883857E-3,-3.7417054E-1,-6.939811E-2,1.0092462E-1,2.1776097E-1,-2.1188867E-1,-7.6505E-1,3.21008E-2,4.701997E-2,-5.1382955E-2,8.068849E-2,-8.340409E-3,7.280409E-2,-1.4434999E-1,-2.7882543E-1,7.6776505E-2,-1.1661996E-1,1.5514143E-1],"categories":[],"categories_nodes":[],"categories_segments":[],"categories_sizes":[],"default_left":[0,0,0,0,0,0,0,0,0,0,0,0,0,0,0,0,0,0,0,0,0,0,0,0,0,0,0,0,0,0,0,0,0,0,0,0,0,0,0],"id":6,"left_children":[1,3,5,7,9,-1,11,13,-1,15,17,-1,19,-1,21,23,-1,25,27,-1,-1,-1,-1,29,31,-1,33,35,37,-1,-1,-1,-1,-1,-1,-1,-1,-1,-1],"loss_changes":[1.5835938E0,2.0511568E0,4.9394393E0,1.95045E0,2.133532E0,0E0,1.5259304E0,5.3475E-1,0E0,1.8057919E0,2.5577617E0,0E0,7.7026224E-1,0E0,1.2366066E0,1.8441994E0,0E0,1.4836918E0,1.7990966E0,0E0,0E0,0E0,0E0,2.9294283E0,2.7838752E0,0E0,5.893587E-1,1.945662E0,1.1837045E0,0E0,0E0,0E0,0E0,0E0,0E0,0E0,0E0,0E0,0E0],"parents":[2147483647,0,0,1,1,2,2,3,3,4,4,6,6,7,7,9,9,10,10,12,12,14,14,15,15,17,17,18,18,23,23,24,24,26,26,27,27,28,28],"right_children":[2,4,6,8,10,-1,12,14,-1,16,18,-1,20,-1,22,24,-1,26,28,-1,-1,-1,-1,30,32,-1,34,36,38,-1,-1,-1,-1,-1,-1,-1,-1,-1,-1],"split_conditions":[3.503937E-1,6.7E-1,1E0,3E0,2.9032257E-1,-2.9293182E-1,1E0,1E0,8.6090304E-2,4.96E0,8.7E-1,-7.7415905E-3,2.25E0,-3.032204E-2,2.2348393E-1,2E0,2.6538613E-1,2E0,4.2106205E-1,3.5029176E-1,4.2266354E-2,-5.8883857E-3,-3.7417054E-1,2E0,3.0013204E-1,2.1776097E-1,2.3E0,4.38E0,1E0,4.701997E-2,-5.1382955E-2,8.068849E-2,-8.340409E-3,7.280409E-2,-1.4434999E-1,-2.7882543E-1,7.6776505E-2,-1.1661996E-1,1.5514143E-1],"split_indices":[8,6,1,2,8,0,3,2,0,6,4,0,4,0,9,3,0,1,9,0,0,0,0,7,9,0,6,6,5,0,0,0,0,0,0,0,0,0,0],"split_type":[0,0,0,0,0,0,0,0,0,0,0,0,0,0,0,0,0,0,0,0,0,0,0,0,0,0,0,0,0,0,0,0,0,0,0,0,0,0,0],"sum_hessian":[2.8650327E2,2.783141E2,8.189205E0,6.5050635E0,2.7180902E2,1.2052617E0,6.983944E0,4.847014E0,1.6580496E0,2.5376651E2,1.8042494E1,1.9127553E0,5.0711884E0,1.1531413E0,3.6938725E0,2.5234601E2,1.420505E0,5.051593E0,1.2990901E1,3.8558116E0,1.2153767E0,1.1058519E0,2.5880208E0,1.2499169E2,1.27354324E2,2.190741E0,2.8608518E0,9.176698E0,3.8142028E0,3.865464E1,8.633705E1,5.4769543E1,7.258478E1,1.1010089E0,1.759843E0,7.9814262E0,1.1952717E0,2.1485777E0,1.6656252E0],"tree_param":{"num_deleted":"0","num_feature":"11","num_nodes":"39","size_leaf_vector":"1"}},{"base_weights":[1.0614542E-4,-1.9667664E-1,2.0656181E-2,-4.8200104E-2,-6.9596034E-1,5.015288E-1,5.9576505E-3,-6.8900865E-1,8.9368284E-2,-3.3777368E-1,4.735607E-2,-1.0098759E-1,8.35354E-1,-7.395965E-1,1.8820895E-2,-2.9250005E-1,1.3914783E-2,2.0251538E-1,-4.382303E-1,-1.217848E-2,3.5906902E-1,5.2331503E-2,-3.3364564E-1,4.758369E-1,8.753531E-3,-6.41235E-2,7.3464566E-1,-1.4546641E-2,-2.1913518E-1,-1.6449545E-1,2.9192063E-1,8.020915E-2,-6.1864685E-2,-1.8357179E-1,7.306903E-2,3.4810156E-1,1.8742438E-2,1.721083E-1,-2.5489905E-1,1.858317E-1,6.022638E-3,-1.8577477E-1,8.6126523E-4],"categories":[],"categories_nodes":[],"categories_segments":[],"categories_sizes":[],"default_left":[0,0,0,0,0,0,0,0,0,0,0,0,0,0,0,0,0,0,0,0,0,0,0,0,0,0,0,0,0,0,0,0,0,0,0,0,0,0,0,0,0,0,0],"id":7,"left_children":[1,3,5,7,9,11,13,15,17,-1,-1,-1,19,21,23,-1,-1,25,27,-1,-1,-1,-1,29,31,33,35,-1,-1,37,-1,39,41,-1,-1,-1,-1,-1,-1,-1,-1,-1,-1],"loss_changes":[1.1619171E0,1.9804975E0,1.8358073E0,2.0023403E0,2.4364867E0,2.4367766E0,2.4445608E0,8.8769615E-1,1.2235513E0,0E0,0E0,0E0,1.884418E0,1.6662707E0,1.1466502E0,0E0,0E0,2.3650687E0,3.828898E-1,0E0,0E0,0E0,0E0,1.8706005E0,1.2450507E0,2.138387E0,1.5109031E0,0E0,0E0,2.1078174E0,0E0,3.9625845E0,4.481993E0,0E0,0E0,0E0,0E0,0E0,0E0,0E0,0E0,0E0,0E0],"parents":[2147483647,0,0,1,1,2,2,3,3,4,4,5,5,6,6,7,7,8,8,12,12,13,13,14,14,17,17,18,18,23,23,24,24,25,25,26,26,29,29,31,31,32,32],"right_children":[2,4,6,8,10,12,14,16,18,-1,-1,-1,20,22,24,-1,-1,26,28,-1,-1,-1,-1,30,32,34,36,-1,-1,38,-1,40,42,-1,-1,-1,-1,-1,-1,-1,-1,-1,-1],"split_conditions":[1.5225649E-1,4.15E0,1.6487433E-1,1.1308017E-1,4.66E0,1E0,1.737439E-1,2.65E0,1.4531794E-1,-3.3777368E-1,4.735607E-2,-1.0098759E-1,2E0,2E0,1.7900598E-1,-2.9250005E-1,1.3914783E-2,1.293332E-1,2.41E0,-1.217848E-2,3.5906902E-1,5.2331503E-2,-3.3364564E-1,1.2E0,1E0,1E0,2E0,-1.4546641E-2,-2.1913518E-1,6.2E-1,2.9192063E-1,2.0837554E-1,2.1854305E-1,-1.8357179E-1,7.306903E-2,3.4810156E-1,1.8742438E-2,1.721083E-1,-2.5489905E-1,1.858317E-1,6.022638E-3,-1.8577477E-1,8.6126523E-4],"split_indices":[9,6,9,8,6,2,9,6,9,0,0,0,1,2,9,0,0,9,6,0,0,0,0,4,5,3,1,0,0,4,0,9,9,0,0,0,0,0,0,0,0,0,0],"split_type":[0,0,0,0,0,0,0,0,0,0,0,0,0,0,0,0,0,0,0,0,0,0,0,0,0,0,0,0,0,0,0,0,0,0,0,0,0,0,0,0,0,0,0],"sum_hessian":[2.8532172E2,2.6168365E1,2.5915335E2,2.1015371E1,5.152994E0,6.704069E0,2.5244928E2,3.0057552E0,1.8009617E1,3.215228E0,1.9377662E0,1.9071898E0,4.7968793E0,3.3234785E0,2.4912581E2,1.9295384E0,1.0762168E0,1.5336711E1,2.6729052E0,1.6607987E0,3.1360807E0,1.1163596E0,2.2071187E0,4.3723903E0,2.4475342E2,1.080304E1,4.533671E0,1.6449399E0,1.0279654E0,2.2036805E0,2.1687098E0,1.2158789E2,1.2316552E2,3.529916E0,7.2731237E0,2.3311036E0,2.2025673E0,1.1391128E0,1.0645676E0,1.1265657E1,1.10322235E2,1.19248295E1,1.1124069E2],"tree_param":{"num_deleted":"0","num_feature":"11","num_nodes":"43","size_leaf_vector":"1"}},{"base_weights":[-1.2683952E-3,-2.2340202E-1,4.0514194E-3,5.01274E-1,-8.770533E-3,7.979024E-1,7.099279E-2,-6.818369E-1,4.3167607E-3,4.7969867E-2,3.1250784E-1,-1.354131E-1,1.6786894E-1,-3.373543E-1,1.6690069E-3,1.1675719E-1,-3.2843396E-2,4.9636588E-1,-9.093108E-2,-1.4597016E-2,-4.8536205E-1,8.071006E-2,2.989614E-1,-1.3889317E-1,5.16296E-2,6.984361E-2,-1.4091425E-2,-2.398186E-1,1.0267299E-1],"categories":[],"categories_nodes":[],"categories_segments":[],"categories_sizes":[],"default_left":[0,0,0,0,0,0,0,0,0,0,0,0,0,0,0,0,0,0,0,0,0,0,0,0,0,0,0,0,0],"id":8,"left_children":[1,-1,3,5,7,9,11,13,15,-1,-1,-1,-1,-1,-1,17,19,21,23,25,27,-1,-1,-1,-1,-1,-1,-1,-1],"loss_changes":[1.1288506E0,0E0,1.8127608E0,8.5565555E-1,2.447343E0,4.763317E-1,1.2771206E0,1.6187797E0,1.145355E0,0E0,0E0,0E0,0E0,0E0,0E0,5.412717E0,1.6948131E0,2.487074E0,4.4687476E0,1.6061679E0,2.3418367E0,0E0,0E0,0E0,0E0,0E0,0E0,0E0,0E0],"parents":[2147483647,0,0,2,2,3,3,4,4,5,5,6,6,7,7,8,8,15,15,16,16,17,17,18,18,19,19,20,20],"right_children":[2,-1,4,6,8,10,12,14,16,-1,-1,-1,-1,-1,-1,18,20,22,24,26,28,-1,-1,-1,-1,-1,-1,-1,-1],"split_conditions":[7.5637646E-2,-2.2340202E-1,8.4136724E-2,3.4657487E-1,8.939709E-2,1.8790111E-1,8E-2,2E0,1.3575129E-1,4.7969867E-2,3.1250784E-1,-1.354131E-1,1.6786894E-1,-3.373543E-1,1.6690069E-3,1.17E0,3.5E1,1.2605043E-1,1.68E0,1.12E0,1.69E0,8.071006E-2,2.989614E-1,-1.3889317E-1,5.16296E-2,6.984361E-2,-1.4091425E-2,-2.398186E-1,1.0267299E-1],"split_indices":[8,0,8,9,8,9,8,2,8,0,0,0,0,0,0,4,10,8,4,6,4,0,0,0,0,0,0,0,0],"split_type":[0,0,0,0,0,0,0,0,0,0,0,0,0,0,0,0,0,0,0,0,0,0,0,0,0,0,0,0,0],"sum_hessian":[2.836769E2,1.0280881E0,2.8264883E2,6.147812E0,2.76501E2,3.1333559E0,3.014456E0,4.2991834E0,2.722018E2,1.3240879E0,1.809268E0,1.4936267E0,1.5208294E0,2.228294E0,2.0708892E0,6.708172E1,2.051201E2,2.3230852E1,4.385087E1,1.9816211E2,6.9580007E0,1.702894E1,6.2019134E0,1.7846899E1,2.6003971E1,2.2213398E1,1.759487E2,5.068757E0,1.8892437E0],"tree_param":{"num_deleted":"0","num_feature":"11","num_nodes":"29","size_leaf_vector":"1"}},{"base_weights":[-6.5762846E-4,-8.682156E-3,4.087612E-1,-3.3854488E-1,5.691715E-4,-8.03839E-2,7.5370526E-1,-7.9904747E-1,2.175401E-1,5.3253466E-1,-9.09466E-3,2.9404232E-1,3.7256777E-2,-3.7460335E-2,-2.984956E-1,3.0537388E-1,-2.0045634E-1,2.3078938E-1,1.41716935E-2,-5.172599E-1,2.6768658E-3,1.04918815E-1,-9.158018E-1,2.7932528E-1,-1.5929913E-2,-3.471017E-1,-6.646467E-2,2.3270833E-1,-1.3683973E-1,-2.4784537E-1,-6.892502E-4],"categories":[],"categories_nodes":[],"categories_segments":[],"categories_sizes":[],"default_left":[0,0,0,0,0,0,0,0,0,0,0,0,0,0,0,0,0,0,0,0,0,0,0,0,0,0,0,0,0,0,0],"id":9,"left_children":[1,3,5,7,9,-1,11,13,15,17,19,-1,-1,-1,-1,-1,-1,-1,-1,21,23,-1,25,27,29,-1,-1,-1,-1,-1,-1],"loss_changes":[9.345309E-1,8.5130924E-1,1.4783348E0,2.1226776E0,1.4046472E0,0E0,4.319365E-1,4.5394182E-1,3.6812816E0,5.238044E-1,1.6070207E0,0E0,0E0,0E0,0E0,0E0,0E0,0E0,0E0,2.421869E0,1.3599733E0,0E0,4.8769712E-1,6.4317193E0,2.7338538E0,0E0,0E0,0E0,0E0,0E0,0E0],"parents":[2147483647,0,0,1,1,2,2,3,3,4,4,6,6,7,7,8,8,9,9,10,10,19,19,20,20,22,22,23,23,24,24],"right_children":[2,4,6,8,10,-1,12,14,16,18,20,-1,-1,-1,-1,-1,-1,-1,-1,22,24,-1,26,28,30,-1,-1,-1,-1,-1,-1],"split_conditions":[1.0289944E0,6.7E-1,1E0,3E0,7.2E-1,-8.03839E-2,3.31E0,1.7644903E-1,6.4E-1,3.9415666E-1,8.3E-1,2.9404232E-1,3.7256777E-2,-3.7460335E-2,-2.984956E-1,3.0537388E-1,-2.0045634E-1,2.3078938E-1,1.41716935E-2,3E0,1.12E0,1.04918815E-1,3.9900422E-1,1.55E0,1.17E0,-3.471017E-1,-6.646467E-2,2.3270833E-1,-1.3683973E-1,-2.4784537E-1,-6.892502E-4],"split_indices":[9,6,2,0,6,0,6,9,6,9,6,0,0,0,0,0,0,0,0,0,6,0,9,4,6,0,0,0,0,0,0],"split_type":[0,0,0,0,0,0,0,0,0,0,0,0,0,0,0,0,0,0,0,0,0,0,0,0,0,0,0,0,0,0,0],"sum_hessian":[2.8237012E2,2.7790207E2,4.468031E0,6.61037E0,2.7129172E2,1.5839243E0,2.8841069E0,3.3769498E0,3.2334206E0,3.8750606E0,2.6741666E2,1.7115061E0,1.1726007E0,1.1291322E0,2.2478175E0,1.6201558E0,1.6132649E0,2.2111049E0,1.6639557E0,5.082183E0,2.6233447E2,1.6390554E0,3.4431274E0,1.564911E1,2.4668535E2,2.0606499E0,1.3824775E0,9.310579E0,6.3385305E0,3.0956926E0,2.4358966E2],"tree_param":{"num_deleted":"0","num_feature":"11","num_nodes":"31","size_leaf_vector":"1"}},{"base_weights":[-1.0644246E-3,-5.050368E-2,5.187577E-2,2.4788727E-1,-9.2039175E-2,2.8361332E-1,3.3530433E-2,-1.1265436E-1,6.472926E-1,-2.583588E-1,4.4224087E-2,-3.988819E-2,2.865259E-1,-5.0129277E-1,4.0666842E-1,-1.1638843E-1,8.3874595E-1,4.4312322E-1,-3.2440165E-1,1.5193473E-1,-4.1626647E-1,6.1447144E-2,-3.34192E-1,5.221838E-1,-2.2276889E-1,9.77897E-2,-9.973048E-1,-1.4012846E-1,8.417381E-1,3.1404924E-1,-2.1049034E-2,-1.0984723E-1,2.6618043E-1,-4.1761908E-1,1.4593406E-1,-5.71266E-2,3.761367E-1,-6.293603E-1,4.573959E-1,-5.577646E-2,3.4578976E-1,-5.8428276E-1,7.125614E-1,6.331341E-1,-2.4480523E-1,-4.3880644E-1,1.8082136E-1,-3.595463E-1,-9.8208666E-2,1.9718599E-2,3.4043342E-1,8.2670346E-2,-1.3571809E-1,-6.0681093E-2,-2.082567E-1,-1.0743268E-1,2.804597E-1,2.7407207E-2,-2.606147E-1,2.876E-2,2.4339683E-1,-2.6390967E-1,6.666086E-2,-5.361109E-2,2.631514E-1,2.4863562E-2,-1.2228044E-1,-1.68967E-1,1.9457723E-1,-2.994213E-1,-1.05983354E-1,2.968338E-1,3.431425E-2,-8.330599E-2,2.1087417E-1,-2.6866734E-1,-2.1793876E-2],"categories":[],"categories_nodes":[],"categories_segments":[],"categories_sizes":[],"default_left":[0,0,0,0,0,0,0,0,0,0,0,0,0,0,0,0,0,0,0,0,0,0,0,0,0,0,0,0,0,0,0,0,0,0,0,0,0,0,0,0,0,0,0,0,0,0,0,0,0,0,0,0,0,0,0,0,0,0,0,0,0,0,0,0,0,0,0,0,0,0,0,0,0,0,0,0,0],"id":10,"left_children":[1,3,5,7,9,-1,11,13,15,17,19,21,23,25,27,-1,29,31,33,35,37,39,41,43,45,-1,47,-1,49,-1,-1,51,-1,53,55,57,59,61,63,65,67,69,71,73,-1,75,-1,-1,-1,-1,-1,-1,-1,-1,-1,-1,-1,-1,-1,-1,-1,-1,-1,-1,-1,-1,-1,-1,-1,-1,-1,-1,-1,-1,-1,-1,-1],"loss_changes":[7.410817E-1,1.8373036E0,2.2097065E0,2.687952E0,2.9404936E0,0E0,2.519496E0,2.3020582E0,2.0623965E0,2.8469179E0,3.6291876E0,3.1679087E0,3.7760859E0,2.948742E0,2.2946417E0,0E0,1.532064E0,1.4343462E0,2.4243407E0,2.7868576E0,2.8749144E0,2.6640887E0,7.5331144E0,3.6562724E0,2.1097965E0,0E0,1.7962027E-1,0E0,7.659142E-1,0E0,0E0,5.622494E-1,0E0,2.5544972E0,4.1751537E0,3.8630974E0,3.410574E0,2.6666694E0,1.0389524E0,2.8166242E0,6.7791376E0,1.7974024E0,8.297732E-1,1.4720507E0,0E0,1.4032807E0,0E0,0E0,0E0,0E0,0E0,0E0,0E0,0E0,0E0,0E0,0E0,0E0,0E0,0E0,0E0,0E0,0E0,0E0,0E0,0E0,0E0,0E0,0E0,0E0,0E0,0E0,0E0,0E0,0E0,0E0,0E0],"parents":[2147483647,0,0,1,1,2,2,3,3,4,4,6,6,7,7,8,8,9,9,10,10,11,11,12,12,13,13,14,14,16,16,17,17,18,18,19,19,20,20,21,21,22,22,23,23,24,24,26,26,28,28,31,31,33,33,34,34,35,35,36,36,37,37,38,38,39,39,40,40,41,41,42,42,43,43,45,45],"right_children":[2,4,6,8,10,-1,12,14,16,18,20,22,24,26,28,-1,30,32,34,36,38,40,42,44,46,-1,48,-1,50,-1,-1,52,-1,54,56,58,60,62,64,66,68,70,72,74,-1,76,-1,-1,-1,-1,-1,-1,-1,-1,-1,-1,-1,-1,-1,-1,-1,-1,-1,-1,-1,-1,-1,-1,-1,-1,-1,-1,-1,-1,-1,-1,-1],"split_conditions":[3E0,5.7E-1,6.4E-1,2E0,1.44E0,2.8361332E-1,3.95E0,2.7E1,1.22E0,1.3573346E-1,4.28E0,3.13E0,1.83E0,2.81E0,2.29E0,-1.1638843E-1,2.1906924E-1,1.6936937E-1,6.3221717E-1,2.51E0,3E0,2.42E0,2.1E0,9.524618E-1,5.7814336E-1,9.77897E-2,3.84E0,-1.4012846E-1,3.8E-1,3.1404924E-1,-2.1049034E-2,2.6E1,2.6618043E-1,2.6E1,1.05E0,2.27E0,1.9847329E-1,2.36E0,2E0,4.697227E-1,1E0,2.6773697E-1,3.52E0,3.8E-1,-2.4480523E-1,1E0,1.8082136E-1,-3.595463E-1,-9.8208666E-2,1.9718599E-2,3.4043342E-1,8.2670346E-2,-1.3571809E-1,-6.0681093E-2,-2.082567E-1,-1.0743268E-1,2.804597E-1,2.7407207E-2,-2.606147E-1,2.876E-2,2.4339683E-1,-2.6390967E-1,6.666086E-2,-5.361109E-2,2.631514E-1,2.4863562E-2,-1.2228044E-1,-1.68967E-1,1.9457723E-1,-2.994213E-1,-1.05983354E-1,2.968338E-1,3.431425E-2,-8.330599E-2,2.1087417E-1,-2.6866734E-1,-2.1793876E-2],"split_indices":[0,4,6,3,4,0,6,10,6,9,6,6,4,6,6,0,8,8,9,6,1,6,4,9,9,0,6,0,4,0,0,10,0,10,4,6,8,4,3,9,2,9,6,4,0,3,0,0,0,0,0,0,0,0,0,0,0,0,0,0,0,0,0,0,0,0,0,0,0,0,0,0,0,0,0,0,0],"split_type":[0,0,0,0,0,0,0,0,0,0,0,0,0,0,0,0,0,0,0,0,0,0,0,0,0,0,0,0,0,0,0,0,0,0,0,0,0,0,0,0,0,0,0,0,0,0,0,0,0,0,0,0,0,0,0,0,0,0,0,0,0,0,0,0,0,0,0,0,0,0,0,0,0,0,0,0,0],"sum_hessian":[2.8114386E2,1.4540268E2,1.3574117E2,1.7159657E1,1.2824303E2,1.7143058E0,1.3402686E2,9.395931E0,7.7637258E0,5.7348644E1,7.089439E1,1.0453377E2,2.949309E1,5.3940096E0,4.0019217E0,1.0515003E0,6.7122254E0,4.4433556E0,5.2905285E1,5.7998386E1,1.2896002E1,7.834802E1,2.618575E1,2.0145962E1,9.347127E0,2.1503844E0,3.2436254E0,1.3058118E0,2.69611E0,5.33833E0,1.3738958E0,2.3144674E0,2.1288884E0,4.4247753E1,8.657532E0,3.0398207E1,2.7600178E1,1.0592121E1,2.3038805E0,5.6046165E1,2.2301853E1,2.1492554E1,4.6931953E0,1.9090078E1,1.0558834E0,7.779618E0,1.567509E0,1.8877853E0,1.3558401E0,1.0746337E0,1.6214764E0,1.1810943E0,1.1333733E0,2.5850689E1,1.8397064E1,5.6157513E0,3.041781E0,2.6447035E1,3.9511728E0,1.7530447E1,1.006973E1,8.160188E0,2.4319339E0,1.1442492E0,1.1596313E0,4.075067E1,1.5295496E1,5.357753E0,1.69441E1,6.510336E0,1.4982217E1,2.7610664E0,1.932129E0,1.1464337E0,1.7943645E1,2.818272E0,4.9613457E0],"tree_param":{"num_deleted":"0","num_feature":"11","num_nodes":"77","size_leaf_vector":"1"}},{"base_weights":[-1.8220922E-5,-8.021374E-3,4.1622025E-1,-3.2342076E-1,2.9254763E-4,-5.4973476E-2,7.199778E-1,-6.026009E-1,9.830469E-2,1.6882563E-2,-2.188839E-1,2.8780434E-1,3.145127E-2,-4.366994E-2,-2.4215479E-1,-1.569681E-2,2.188555E-1,-8.803354E-1,-1.5155152E-2,2.3218134E-2,-2.857487E-1,2.367899E-2,5.3544295E-1,-3.8128564E-1,9.802582E-3,2.262638E-1,-1.9568978E-1,2.4681794E-2,-5.0588127E-2,-2.7882966E-1,-1.1650685E-2,9.020831E-2,-8.440371E-2,2.1432358E-1,-9.13718E-3,-1.4004509E-1,1.1709645E-1],"categories":[],"categories_nodes":[],"categories_segments":[],"categories_sizes":[],"default_left":[0,0,0,0,0,0,0,0,0,0,0,0,0,0,0,0,0,0,0,0,0,0,0,0,0,0,0,0,0,0,0,0,0,0,0,0,0],"id":11,"left_children":[1,3,5,7,9,-1,11,13,-1,15,17,-1,-1,-1,-1,19,21,23,25,27,29,31,33,-1,-1,-1,35,-1,-1,-1,-1,-1,-1,-1,-1,-1,-1],"loss_changes":[9.2965823E-1,7.1807414E-1,1.0905795E0,1.4759028E0,9.7736067E-1,0E0,4.4379163E-1,3.7568927E-1,0E0,1.6475552E0,2.5354333E0,0E0,0E0,0E0,0E0,2.2775137E0,2.1359358E0,1.6236575E0,2.2974E0,2.1641343E0,4.3014994E0,1.9906124E0,1.3601863E0,0E0,0E0,0E0,2.3001308E0,0E0,0E0,0E0,0E0,0E0,0E0,0E0,0E0,0E0,0E0],"parents":[2147483647,0,0,1,1,2,2,3,3,4,4,6,6,7,7,9,9,10,10,15,15,16,16,17,17,18,18,19,19,20,20,21,21,22,22,26,26],"right_children":[2,4,6,8,10,-1,12,14,-1,16,18,-1,-1,-1,-1,20,22,24,26,28,30,32,34,-1,-1,-1,36,-1,-1,-1,-1,-1,-1,-1,-1,-1,-1],"split_conditions":[1.0289944E0,6.7E-1,1E0,3E0,7.267054E-1,-5.4973476E-2,2.6E1,6.1E-1,9.830469E-2,5.501325E-1,7.599311E-1,2.8780434E-1,3.145127E-2,-4.366994E-2,-2.4215479E-1,2.26E0,1.74E0,2.95E0,1.25E0,3.8547388E-1,2.32E0,3E0,6.7199725E-1,-3.8128564E-1,9.802582E-3,2.262638E-1,2.143774E-1,2.4681794E-2,-5.0588127E-2,-2.7882966E-1,-1.1650685E-2,9.020831E-2,-8.440371E-2,2.1432358E-1,-9.13718E-3,-1.4004509E-1,1.1709645E-1],"split_indices":[9,6,2,2,9,0,10,6,0,9,9,0,0,0,0,4,4,6,6,9,4,7,9,0,0,0,8,0,0,0,0,0,0,0,0,0,0],"split_type":[0,0,0,0,0,0,0,0,0,0,0,0,0,0,0,0,0,0,0,0,0,0,0,0,0,0,0,0,0,0,0,0,0,0,0,0,0],"sum_hessian":[2.770721E2,2.7280746E2,4.26463E0,6.033096E0,2.6677438E2,1.5676379E0,2.696992E0,4.274687E0,1.758409E0,2.4886047E2,1.7913902E1,1.5386837E0,1.1583084E0,1.8510294E0,2.4236572E0,2.1508788E2,3.3772606E1,3.4362438E0,1.4477658E1,1.8879605E2,2.6291817E1,2.15573E1,1.2215305E1,2.1320403E0,1.3042035E0,2.1476316E0,1.2330027E1,1.4479567E2,4.400039E1,6.522902E0,1.9768913E1,1.1304788E1,1.0252513E1,9.080966E0,3.134339E0,8.568894E0,3.761132E0],"tree_param":{"num_deleted":"0","num_feature":"11","num_nodes":"37","size_leaf_vector":"1"}},{"base_weights":[-7.461152E-4,-8.765958E-2,3.5960786E-2,7.5433496E-3,-3.8010436E-1,4.098902E-1,1.3340985E-2,8.284689E-2,-2.4632207E-1,-5.238589E-1,3.515554E-1,-3.8461247E-1,7.1079296E-1,-2.1910417E-1,2.6099311E-2,-8.391942E-2,3.1501293E-1,-5.733836E-1,1.3310435E-1,-2.1999261E-1,-9.332226E-1,-7.456465E-2,2.245671E-1,-3.0916405E-1,1.03000104E-1,3.240474E-1,3.2416844E-1,2.679611E-1,1.5642302E-2,4.0616706E-1,-2.2991087E-1,1.398954E-1,9.974417E-1,-9.9861544E-1,-6.75506E-2,5.174245E-1,-2.7021196E-1,-8.5241866E-1,8.8710666E-2,-3.6206442E-1,-3.6038965E-1,6.972339E-1,-1.3826925E-1,1.4825985E-1,-3.876623E-2,2.146228E-1,-2.1880947E-1,1.5500301E-1,-9.526208E-2,1.279705E-1,-8.823665E-2,3.647378E-1,6.868953E-2,-3.680421E-1,-6.7655295E-2,1.3970314E-1,-1.8729156E-1,-9.713855E-2,3.4315705E-1,-6.290567E-2,-3.3456224E-1,1.9385043E-1,-1.3195212E-1,-2.1077564E-1,4.3627817E-2,3.0926943E-1,4.0182795E-2,8.128928E-3,1.5025671E-1,-6.2125232E-2,1.8455645E-2],"categories":[],"categories_nodes":[],"categories_segments":[],"categories_sizes":[],"default_left":[0,0,0,0,0,0,0,0,0,0,0,0,0,0,0,0,0,0,0,0,0,0,0,0,0,0,0,0,0,0,0,0,0,0,0,0,0,0,0,0,0,0,0,0,0,0,0,0,0,0,0,0,0,0,0,0,0,0,0,0,0,0,0,0,0,0,0,0,0,0,0],"id":12,"left_children":[1,3,5,7,9,11,13,15,17,19,21,23,25,-1,27,29,31,33,35,37,39,-1,-1,-1,-1,41,-1,-1,43,45,47,49,51,53,55,57,-1,59,61,-1,63,65,-1,67,69,-1,-1,-1,-1,-1,-1,-1,-1,-1,-1,-1,-1,-1,-1,-1,-1,-1,-1,-1,-1,-1,-1,-1,-1,-1,-1],"loss_changes":[8.8491184E-1,2.2958665E0,1.6441091E0,1.2269299E0,2.313634E0,2.9248831E0,1.7737727E0,1.9399614E0,1.8992736E0,1.9495344E0,1.120697E0,2.0914798E0,8.5045147E-1,0E0,1.6433723E0,2.207792E0,2.3546145E0,1.6700375E0,3.4904585E0,2.2721925E0,6.736455E-1,0E0,0E0,0E0,0E0,1.9418099E0,0E0,0E0,1.3162454E0,3.030514E0,1.6954836E0,2.336654E0,4.0939713E-1,4.8473263E-1,1.7043897E0,3.6293228E0,0E0,4.0541673E-1,2.778768E0,0E0,7.4467397E-1,6.4140344E-1,0E0,2.2525458E0,2.1999905E0,0E0,0E0,0E0,0E0,0E0,0E0,0E0,0E0,0E0,0E0,0E0,0E0,0E0,0E0,0E0,0E0,0E0,0E0,0E0,0E0,0E0,0E0,0E0,0E0,0E0,0E0],"parents":[2147483647,0,0,1,1,2,2,3,3,4,4,5,5,6,6,7,7,8,8,9,9,10,10,11,11,12,12,14,14,15,15,16,16,17,17,18,18,19,19,20,20,25,25,28,28,29,29,30,30,31,31,32,32,33,33,34,34,35,35,37,37,38,38,40,40,41,41,43,43,44,44],"right_children":[2,4,6,8,10,12,14,16,18,20,22,24,26,-1,28,30,32,34,36,38,40,-1,-1,-1,-1,42,-1,-1,44,46,48,50,52,54,56,58,-1,60,62,-1,64,66,-1,68,70,-1,-1,-1,-1,-1,-1,-1,-1,-1,-1,-1,-1,-1,-1,-1,-1,-1,-1,-1,-1,-1,-1,-1,-1,-1,-1],"split_conditions":[2.510774E-1,3E0,2.6535442E-1,4.03E0,4.51E0,1E0,2.6839128E-1,1.46E0,3E0,2.5E1,3E0,3E0,3E0,-2.1910417E-1,2.6964754E-1,1E0,3.59E0,2.4E1,2.13E0,1.59E0,3.2E1,-7.456465E-2,2.245671E-1,-3.0916405E-1,1.03000104E-1,1E0,3.2416844E-1,2.679611E-1,9.9E-1,3.29E0,3.6E-1,2.6E1,2E0,2.05E0,1.4335664E-1,1E0,-2.7021196E-1,1.7226149E-1,3E0,-3.6206442E-1,3E0,1.7525773E-1,-1.3826925E-1,3.88E0,1.59E0,2.146228E-1,-2.1880947E-1,1.5500301E-1,-9.526208E-2,1.279705E-1,-8.823665E-2,3.647378E-1,6.868953E-2,-3.680421E-1,-6.7655295E-2,1.3970314E-1,-1.8729156E-1,-9.713855E-2,3.4315705E-1,-6.290567E-2,-3.3456224E-1,1.9385043E-1,-1.3195212E-1,-2.1077564E-1,4.3627817E-2,3.0926943E-1,4.0182795E-2,8.128928E-3,1.5025671E-1,-6.2125232E-2,1.8455645E-2],"split_indices":[9,2,9,6,6,3,9,4,0,10,7,7,7,0,9,3,6,10,4,6,10,0,0,0,0,5,0,0,4,6,4,10,2,4,8,4,0,8,6,0,7,8,0,6,4,0,0,0,0,0,0,0,0,0,0,0,0,0,0,0,0,0,0,0,0,0,0,0,0,0,0],"split_type":[0,0,0,0,0,0,0,0,0,0,0,0,0,0,0,0,0,0,0,0,0,0,0,0,0,0,0,0,0,0,0,0,0,0,0,0,0,0,0,0,0,0,0,0,0,0,0,0,0,0,0,0,0,0,0,0,0,0,0,0,0,0,0,0,0,0,0,0,0,0,0],"sum_hessian":[2.7538556E2,8.135874E1,1.9402681E2,6.2112686E1,1.9246056E1,1.0090999E1,1.8393582E2,4.8422794E1,1.368989E1,1.6322973E1,2.9230812E0,2.6955311E0,7.3954673E0,2.1536543E0,1.8178217E2,2.8552147E1,1.987065E1,7.0777545E0,6.6121354E0,1.0251097E1,6.071878E0,1.3127198E0,1.6103613E0,1.207966E0,1.4875653E0,4.5318747E0,2.8635929E0,1.160205E0,1.8062196E2,6.1442056E0,2.240794E1,1.6771837E1,3.0988119E0,3.3159664E0,3.761788E0,5.184347E0,1.427788E0,2.7847729E0,7.4663234E0,3.3598948E0,2.7119832E0,3.1472962E0,1.3845783E0,5.204368E1,1.2857828E2,5.119876E0,1.0243298E0,1.8395054E0,2.0568436E1,1.011075E1,6.661087E0,1.9598645E0,1.1389474E0,2.10714E0,1.2088262E0,2.0050511E0,1.7567369E0,2.41902E0,2.7653272E0,1.3299305E0,1.4548424E0,3.5254939E0,3.9408295E0,1.3855873E0,1.3263958E0,1.4551867E0,1.6921095E0,3.953501E1,1.2508668E1,4.760812E1,8.097016E1],"tree_param":{"num_deleted":"0","num_feature":"11","num_nodes":"71","size_leaf_vector":"1"}},{"base_weights":[-1.2812163E-3,3.367766E-2,-7.933404E-2,-1.1602078E-2,2.9160383E-1,-3.0342532E-2,-3.0255154E-1,7.714087E-2,-1.0705756E-1,-1.240779E-1,6.754809E-1,-1.09446205E-1,3.316263E-1,-4.7174994E-2,2.4312198E-1,-3.0492112E-1,5.4913234E-2,7.970269E-2,-2.8162047E-1,-2.2363153E-1,1.0319514E0,-5.489598E-1,-2.33905E-3,4.9676225E-1,-3.9434817E-1,-3.177551E-1,1.2298267E-1,9.018453E-2,9.4397223E-1,-3.6329913E-1,1.7482865E-1,3.1473258E-1,-1.4131434E-1,-4.5937192E-1,3.3636203E-1,1.1826746E-1,-2.1296005E-1,1.1135007E0,5.4552495E-2,-2.279361E-2,-7.1983355E-1,8.0998677E-1,-9.388175E-2,7.2232044E-1,-2.2287624E-1,-2.9515553E-1,1.1485585E-1,-2.0882638E-1,2.3640348E-2,1.035736E-1,-7.689965E-2,1.9570602E-1,-7.2180435E-2,3.8696733E-1,-1.13446884E-1,-5.9835043E-2,-2.7794823E-1,1.7386726E-1,-2.385257E-2,-8.510597E-2,6.647114E-2,1.310547E-1,-2.5875956E-1,2.2185813E-1,-4.281757E-2,1.2979276E-1,3.651272E-1,-1.3104148E-1,1.8027622E-1,-3.0213916E-1,-8.2338735E-2,-6.85069E-2,3.4255642E-1,8.874506E-2,-7.490784E-2,2.5232503E-1,2.1333724E-2,-2.1004973E-1,1.5059455E-1],"categories":[],"categories_nodes":[],"categories_segments":[],"categories_sizes":[],"default_left":[0,0,0,0,0,0,0,0,0,0,0,0,0,0,0,0,0,0,0,0,0,0,0,0,0,0,0,0,0,0,0,0,0,0,0,0,0,0,0,0,0,0,0,0,0,0,0,0,0,0,0,0,0,0,0,0,0,0,0,0,0,0,0,0,0,0,0,0,0,0,0,0,0,0,0,0,0,0,0],"id":13,"left_children":[1,3,5,7,9,11,-1,13,15,17,19,21,23,25,27,29,31,33,-1,35,37,39,41,43,45,47,49,51,53,55,-1,57,59,61,63,-1,-1,65,-1,67,69,71,73,75,77,-1,-1,-1,-1,-1,-1,-1,-1,-1,-1,-1,-1,-1,-1,-1,-1,-1,-1,-1,-1,-1,-1,-1,-1,-1,-1,-1,-1,-1,-1,-1,-1,-1,-1],"loss_changes":[7.4898446E-1,2.2177532E0,3.834424E0,1.3826967E0,4.608168E0,2.3751583E0,0E0,1.7584268E0,2.5353575E0,2.474936E0,5.0049686E0,3.1897614E0,1.9818962E0,2.3063843E0,3.8184428E0,2.0527844E0,2.2908785E0,1.8821236E0,0E0,1.7972621E0,5.4934597E-1,1.1773958E0,4.203777E0,2.202888E0,1.8969562E0,2.9491324E0,2.6981318E0,5.921762E0,3.4230328E0,2.9481773E0,0E0,2.0578032E0,1.3954282E0,1.9847229E0,1.8509251E0,0E0,0E0,1.5760422E-1,0E0,1.3696779E0,1.001883E0,2.2337766E0,3.1573493E0,6.9914484E-1,1.6544218E0,0E0,0E0,0E0,0E0,0E0,0E0,0E0,0E0,0E0,0E0,0E0,0E0,0E0,0E0,0E0,0E0,0E0,0E0,0E0,0E0,0E0,0E0,0E0,0E0,0E0,0E0,0E0,0E0,0E0,0E0,0E0,0E0,0E0,0E0],"parents":[2147483647,0,0,1,1,2,2,3,3,4,4,5,5,7,7,8,8,9,9,10,10,11,11,12,12,13,13,14,14,15,15,16,16,17,17,19,19,20,20,21,21,22,22,23,23,24,24,25,25,26,26,27,27,28,28,29,29,31,31,32,32,33,33,34,34,37,37,39,39,40,40,41,41,42,42,43,43,44,44],"right_children":[2,4,6,8,10,12,-1,14,16,18,20,22,24,26,28,30,32,34,-1,36,38,40,42,44,46,48,50,52,54,56,-1,58,60,62,64,-1,-1,66,-1,68,70,72,74,76,78,-1,-1,-1,-1,-1,-1,-1,-1,-1,-1,-1,-1,-1,-1,-1,-1,-1,-1,-1,-1,-1,-1,-1,-1,-1,-1,-1,-1,-1,-1,-1,-1,-1,-1],"split_conditions":[1.86E0,1.64E0,4.85E0,2.87E0,2E0,5.6396896E-1,-3.0255154E-1,3E0,3.69E0,2.3343374E-1,1.76E0,1.1228813E-1,3E0,1.5287356E-1,2.6182964E-1,1.58E0,1.6319445E-1,2.631902E-1,-2.8162047E-1,3.4887448E-1,6.7199725E-1,2E0,1.2208258E-1,3.8E0,2E0,3E0,2.2276622E-1,1.382353E-1,3.2E1,1.36E0,1.7482865E-1,1.14E0,3E0,1.3573346E-1,4.1648877E-1,1.1826746E-1,-2.1296005E-1,1.69E0,5.4552495E-2,2.5E1,1.0047393E-1,2.09E0,2E0,8.1120795E-1,3E0,-2.9515553E-1,1.1485585E-1,-2.0882638E-1,2.3640348E-2,1.035736E-1,-7.689965E-2,1.9570602E-1,-7.2180435E-2,3.8696733E-1,-1.13446884E-1,-5.9835043E-2,-2.7794823E-1,1.7386726E-1,-2.385257E-2,-8.510597E-2,6.647114E-2,1.310547E-1,-2.5875956E-1,2.2185813E-1,-4.281757E-2,1.2979276E-1,3.651272E-1,-1.3104148E-1,1.8027622E-1,-3.0213916E-1,-8.2338735E-2,-6.85069E-2,3.4255642E-1,8.874506E-2,-7.490784E-2,2.5232503E-1,2.1333724E-2,-2.1004973E-1,1.5059455E-1],"split_indices":[4,4,6,6,3,9,0,7,6,8,6,8,1,8,8,4,8,9,0,9,9,0,8,6,2,0,8,8,10,4,0,4,2,9,9,0,0,4,0,10,8,4,0,9,0,0,0,0,0,0,0,0,0,0,0,0,0,0,0,0,0,0,0,0,0,0,0,0,0,0,0,0,0,0,0,0,0,0,0],"split_type":[0,0,0,0,0,0,0,0,0,0,0,0,0,0,0,0,0,0,0,0,0,0,0,0,0,0,0,0,0,0,0,0,0,0,0,0,0,0,0,0,0,0,0,0,0,0,0,0,0,0,0,0,0,0,0,0,0,0,0,0,0,0,0,0,0,0,0,0,0,0,0,0,0,0,0,0,0,0,0],"sum_hessian":[2.7251096E2,1.8860548E2,8.390549E1,1.6125218E2,2.73533E1,8.0684E1,3.2214918E0,8.366368E1,7.758849E1,1.3457551E1,1.3895748E1,6.678633E1,1.3897665E1,4.8245068E1,3.5418613E1,3.452733E1,4.3061165E1,1.148646E1,1.9710913E0,4.050918E0,9.8448305E0,1.2278057E1,5.4508274E1,1.1579443E1,2.3182223E0,1.829131E1,2.9953758E1,3.0000643E1,5.4179716E0,3.2951057E1,1.5762745E0,1.8268476E1,2.4792686E1,3.4501414E0,8.036318E0,1.8673358E0,2.1835823E0,8.700388E0,1.1444428E0,3.2877095E0,8.990348E0,4.7256765E0,4.9782597E1,8.813331E0,2.7661123E0,1.1670951E0,1.1511273E0,8.97419E0,9.317119E0,1.8943487E1,1.1010272E1,1.0753315E1,1.9247328E1,4.313722E0,1.1042495E0,2.6574066E1,6.37699E0,1.0646686E1,7.621792E0,1.7963308E1,6.8293786E0,1.0445511E0,2.4055905E0,4.068743E0,3.9675748E0,1.832504E0,6.8678837E0,2.1561584E0,1.1315511E0,4.698283E0,4.292064E0,1.2201128E0,3.5055637E0,1.396249E1,3.5820107E1,7.207332E0,1.6059984E0,1.6884209E0,1.0776914E0],"tree_param":{"num_deleted":"0","num_feature":"11","num_nodes":"79","size_leaf_vector":"1"}},{"base_weights":[2.7990632E-4,-1.6831931E-1,1.7249538E-2,-3.1259546E-1,1.8534815E-1,4.0927902E-1,5.7259537E-3,-5.1716375E-1,-1.1474285E-1,3.376443E-1,-2.9935193E-1,-5.7596844E-2,6.3413984E-1,-5.504864E-1,1.5339007E-2,-1.782128E-1,-8.3796614E-1,2.4975897E-1,-3.7045902E-1,-2.6157364E-1,2.1552731E-1,2.936131E-1,-8.609986E-3,2.9149952E-3,-2.7310577E-1,1.0090895E-1,-2.3657866E-2,2.3214577E-1,-2.1869747E-1,-2.9501888E-1,-8.726424E-2,-5.8632624E-1,1.10883854E-1,2.4158493E-1,-1.5789181E-1,-1.3682076E-1,3.089878E-1,8.6905554E-2,-1.4637147E-1,-8.6941525E-2,2.5259522E-1,6.728407E-2,-2.2558038E-1,1.4613162E-1,-8.314744E-2,1.2693778E-1,-9.777775E-2,-6.9300294E-2,6.0466006E-2,-8.338516E-2,6.807439E-2],"categories":[],"categories_nodes":[],"categories_segments":[],"categories_sizes":[],"default_left":[0,0,0,0,0,0,0,0,0,0,0,0,0,0,0,0,0,0,0,0,0,0,0,0,0,0,0,0,0,0,0,0,0,0,0,0,0,0,0,0,0,0,0,0,0,0,0,0,0,0,0],"id":14,"left_children":[1,3,5,7,9,11,13,15,17,-1,19,-1,21,23,25,27,29,-1,31,-1,33,-1,-1,-1,-1,35,37,39,-1,-1,-1,41,-1,-1,-1,43,45,47,49,-1,-1,-1,-1,-1,-1,-1,-1,-1,-1,-1,-1],"loss_changes":[7.717389E-1,1.3165805E0,1.1047202E0,6.6482496E-1,3.8797653E0,1.0659266E0,1.2867438E0,7.7617836E-1,2.8228939E0,0E0,1.9330993E0,0E0,1.2420249E0,8.331449E-1,7.8985745E-1,1.3917184E0,4.037261E-2,0E0,1.6331085E0,0E0,2.13828E0,0E0,0E0,0E0,0E0,3.7061195E0,2.223121E0,1.4720316E0,0E0,0E0,0E0,1.1419735E0,0E0,0E0,0E0,3.2226863E0,3.0223875E0,3.1930084E0,3.873951E0,0E0,0E0,0E0,0E0,0E0,0E0,0E0,0E0,0E0,0E0,0E0,0E0],"parents":[2147483647,0,0,1,1,2,2,3,3,4,4,5,5,6,6,7,7,8,8,10,10,12,12,13,13,14,14,15,15,16,16,18,18,20,20,25,25,26,26,27,27,31,31,35,35,36,36,37,37,38,38],"right_children":[2,4,6,8,10,12,14,16,18,-1,20,-1,22,24,26,28,30,-1,32,-1,34,-1,-1,-1,-1,36,38,40,-1,-1,-1,42,-1,-1,-1,44,46,48,50,-1,-1,-1,-1,-1,-1,-1,-1,-1,-1,-1,-1],"split_conditions":[1.5225649E-1,2.150289E-1,1.6487433E-1,2.37E0,2.3219815E-1,1E0,1.737439E-1,2.5E1,2.81E0,3.376443E-1,2.739726E-1,-5.7596844E-2,2.1231766E-1,2.4E1,2E0,4E0,3E1,2.4975897E-1,2.22E0,-2.6157364E-1,1.73E0,2.936131E-1,-8.609986E-3,2.9149952E-3,-2.7310577E-1,1.6115703E-1,1.7525773E-1,2E0,-2.1869747E-1,-2.9501888E-1,-8.726424E-2,6E-1,1.10883854E-1,2.4158493E-1,-1.5789181E-1,9.494324E-2,2.1E0,1E0,3E0,-8.6941525E-2,2.5259522E-1,6.728407E-2,-2.2558038E-1,1.4613162E-1,-8.314744E-2,1.2693778E-1,-9.777775E-2,-6.9300294E-2,6.0466006E-2,-8.338516E-2,6.807439E-2],"split_indices":[9,8,9,6,8,2,9,10,6,0,8,0,8,10,7,0,10,0,4,0,4,0,0,0,0,8,8,2,0,0,0,4,0,0,0,8,4,2,3,0,0,0,0,0,0,0,0,0,0,0,0],"split_type":[0,0,0,0,0,0,0,0,0,0,0,0,0,0,0,0,0,0,0,0,0,0,0,0,0,0,0,0,0,0,0,0,0,0,0,0,0,0,0,0,0,0,0,0,0,0,0,0,0,0,0],"sum_hessian":[2.6772336E2,2.3666779E1,2.440566E2,1.6891956E1,6.774822E0,5.9834785E0,2.3807312E2,7.5115542E0,9.380403E0,1.8549373E0,4.9198847E0,1.6684086E0,4.31507E0,3.088826E0,2.3498428E2,4.408829E0,3.102725E0,1.5144835E0,7.8659186E0,2.0011353E0,2.9187493E0,2.5256138E0,1.7894562E0,1.5886996E0,1.5001264E0,7.306713E1,1.6191716E2,2.8579917E0,1.5508376E0,1.8211069E0,1.281618E0,6.2504935E0,1.6154253E0,1.5783967E0,1.3403527E0,3.4263546E1,3.880359E1,8.532879E1,7.658837E1,1.8227298E0,1.0352618E0,1.0002533E0,5.2502403E0,5.8378916E0,2.8425655E1,3.317356E1,5.630026E0,2.2347261E1,6.2981525E1,5.681657E1,1.9771795E1],"tree_param":{"num_deleted":"0","num_feature":"11","num_nodes":"51","size_leaf_vector":"1"}},{"base_weights":[-4.738727E-5,-1.7303704E-1,1.7344737E-2,1.859207E-2,-7.241228E-1,8.557504E-1,-4.1354303E-3,5.4756767E-1,-1.8084468E-1,2.0379355E-2,-1.0325025E0,3.5675076E-1,-4.913311E-2,-3.7627754E-1,1.46688055E-2,8.444194E-3,2.7389818E-1,-4.0229326E-1,5.10694E-1,-3.7641215E-1,-5.355836E-2,1.929364E-1,-1.0915965E0,2.0462477E-1,-8.981903E-3,1.3128507E-1,-1.22231096E-1,7.640457E-2,-7.2241485E-1,-1.0348019E-1,2.92668E-1,6.504354E-1,-5.065004E-1,-3.897311E-1,-6.919792E-2,3.5159394E-1,-3.0282617E-1,-8.946483E-2,4.27606E-2,-1.601986E-1,1.6858421E-1,-2.655925E-1,2.1968832E-2,3.483456E-1,-5.92222E-2,-1.9243944E-1,-3.560535E-2,-1.1194887E-1,1.6518265E-1,-1.9064996E-1,1.5336055E-1,1.0588188E-1,-4.4653878E-2,2.053131E-2,-1.7646931E-1],"categories":[],"categories_nodes":[],"categories_segments":[],"categories_sizes":[],"default_left":[0,0,0,0,0,0,0,0,0,0,0,0,0,0,0,0,0,0,0,0,0,0,0,0,0,0,0,0,0,0,0,0,0,0,0,0,0,0,0,0,0,0,0,0,0,0,0,0,0,0,0,0,0,0,0],"id":15,"left_children":[1,3,5,7,9,11,13,15,17,-1,19,-1,-1,21,23,25,-1,27,29,-1,-1,31,33,35,37,-1,-1,39,41,-1,-1,43,45,-1,-1,47,49,51,53,-1,-1,-1,-1,-1,-1,-1,-1,-1,-1,-1,-1,-1,-1,-1,-1],"loss_changes":[8.0347145E-1,2.5898151E0,4.3736124E0,2.1115692E0,1.6137159E0,2.2569418E0,1.6681577E0,1.070215E0,2.4421136E0,0E0,6.508441E-1,0E0,0E0,4.879035E0,1.022228E0,7.5297225E-1,0E0,1.8361874E0,1.9208368E0,0E0,0E0,2.644469E0,6.348567E-1,1.985115E0,8.4893584E-1,0E0,0E0,1.9484696E0,9.798796E-1,0E0,0E0,2.3126633E0,1.03036165E-1,0E0,0E0,3.0895512E0,2.0023358E0,2.1472719E0,2.0525577E0,0E0,0E0,0E0,0E0,0E0,0E0,0E0,0E0,0E0,0E0,0E0,0E0,0E0,0E0,0E0,0E0],"parents":[2147483647,0,0,1,1,2,2,3,3,4,4,5,5,6,6,7,7,8,8,10,10,13,13,14,14,15,15,17,17,18,18,21,21,22,22,23,23,24,24,27,27,28,28,31,31,32,32,35,35,36,36,37,37,38,38],"right_children":[2,4,6,8,10,12,14,16,18,-1,20,-1,-1,22,24,26,-1,28,30,-1,-1,32,34,36,38,-1,-1,40,42,-1,-1,44,46,-1,-1,48,50,52,54,-1,-1,-1,-1,-1,-1,-1,-1,-1,-1,-1,-1,-1,-1,-1,-1],"split_conditions":[1.01678185E-1,9.719439E-2,1.0526316E-1,1E0,3.067885E-1,4.8830962E-1,1.1308017E-1,1E0,2.9E1,2.0379355E-2,2E0,3.5675076E-1,-4.913311E-2,1.09540634E-1,1.2886597E-1,3.1219482E-1,2.7389818E-1,3.1418E-1,3.365396E-1,-3.7641215E-1,-5.355836E-2,1.67E0,1.9E0,3E1,1.18E0,1.3128507E-1,-1.22231096E-1,2E0,3.82E0,-1.0348019E-1,2.92668E-1,4.232721E-1,3E0,-3.897311E-1,-6.919792E-2,2.021569E-1,2.15E0,1.12E0,4.86E0,-1.601986E-1,1.6858421E-1,-2.655925E-1,2.1968832E-2,3.483456E-1,-5.92222E-2,-1.9243944E-1,-3.560535E-2,-1.1194887E-1,1.6518265E-1,-1.9064996E-1,1.5336055E-1,1.0588188E-1,-4.4653878E-2,2.053131E-2,-1.7646931E-1],"split_indices":[8,8,8,3,9,9,8,5,10,0,3,0,0,8,8,9,0,9,9,0,0,4,4,10,4,0,0,2,6,0,0,9,7,0,0,9,4,6,6,0,0,0,0,0,0,0,0,0,0,0,0,0,0,0,0],"split_type":[0,0,0,0,0,0,0,0,0,0,0,0,0,0,0,0,0,0,0,0,0,0,0,0,0,0,0,0,0,0,0,0,0,0,0,0,0,0,0,0,0,0,0,0,0,0,0,0,0,0,0,0,0,0,0],"sum_hessian":[2.650556E2,2.3396332E1,2.4165927E2,1.8076761E1,5.319571E0,5.0665E0,2.3659277E2,4.4714227E0,1.3605338E1,1.7092317E0,3.6103392E0,3.6925297E0,1.3739705E0,1.0465561E1,2.2612721E2,2.2197187E0,2.2517042E0,1.0622123E1,2.983215E0,2.4925268E0,1.1178124E0,6.2346373E0,4.230924E0,2.4189762E1,2.0193745E2,1.0666816E0,1.153037E0,4.561842E0,6.060281E0,1.141033E0,1.8421819E0,3.8115652E0,2.423072E0,2.9991195E0,1.2318046E0,1.8995405E1,5.1943574E0,7.8736946E1,1.232005E2,1.9768523E0,2.5849895E0,4.9368577E0,1.123423E0,2.1480832E0,1.6634822E0,1.3123238E0,1.1107482E0,3.9037998E0,1.5091604E1,3.8430922E0,1.3512651E0,8.7327175E0,7.000423E1,1.1923979E2,3.960714E0],"tree_param":{"num_deleted":"0","num_feature":"11","num_nodes":"55","size_leaf_vector":"1"}},{"base_weights":[-1.2628215E-3,-1.4940972E-2,2.0142476E-1,-6.9962293E-3,-2.2566338E-1,4.7470552E-1,-5.019446E-1,-3.181007E-1,7.062582E-3,-3.8566727E-2,9.54302E-1,3.0482218E-2,-7.81111E-1,5.4995663E-2,-7.1398306E-1,4.2993823E-1,-3.176905E-3,3.19014E-1,-4.216842E-1,3.493923E-1,6.427343E-2,-2.719002E-1,-7.482198E-2,4.184606E-1,-1.4294073E-1,-2.7035663E-1,4.162364E-3,2.5650445E-1,-1.5932004E-1,-6.409829E-2,6.1175924E-2,2.3428842E-1,-3.2323793E-2,-2.19478E-1,1.8881148E-2,-1.7647872E-5,2.4289304E-1,-2.280571E-1,1.4570615E-1,-9.237673E-3,-1.7293209E-1,3.0983826E-2,-9.3075514E-2],"categories":[],"categories_nodes":[],"categories_segments":[],"categories_sizes":[],"default_left":[0,0,0,0,0,0,0,0,0,0,0,0,0,0,0,0,0,0,0,0,0,0,0,0,0,0,0,0,0,0,0,0,0,0,0,0,0,0,0,0,0,0,0],"id":16,"left_children":[1,3,5,7,-1,9,11,13,15,17,19,-1,21,23,25,27,29,31,33,-1,-1,-1,-1,35,-1,-1,-1,-1,37,39,41,-1,-1,-1,-1,-1,-1,-1,-1,-1,-1,-1,-1],"loss_changes":[7.3203206E-1,1.4430751E0,3.4468946E0,1.0766108E0,0E0,3.1226523E0,9.4826055E-1,1.6111417E0,1.0232373E0,1.0957441E0,7.6529646E-1,0E0,1.6384602E-2,1.4370642E0,7.2581196E-1,1.5355628E0,9.1115487E-1,9.1183674E-1,6.1945903E-1,0E0,0E0,0E0,0E0,7.101616E-1,0E0,0E0,0E0,0E0,1.6032708E0,2.019063E0,1.7999208E0,0E0,0E0,0E0,0E0,0E0,0E0,0E0,0E0,0E0,0E0,0E0,0E0],"parents":[2147483647,0,0,1,1,2,2,3,3,5,5,6,6,7,7,8,8,9,9,10,10,12,12,13,13,14,14,15,15,16,16,17,17,18,18,23,23,28,28,29,29,30,30],"right_children":[2,4,6,8,-1,10,12,14,16,18,20,-1,22,24,26,28,30,32,34,-1,-1,-1,-1,36,-1,-1,-1,-1,38,40,42,-1,-1,-1,-1,-1,-1,-1,-1,-1,-1,-1,-1],"split_conditions":[4.72E0,4.71E0,2.9E1,1.2443996E-1,-2.2566338E-1,3E0,1.14E0,2.4E1,1.3573346E-1,4.83E0,1.85E0,3.0482218E-2,3.520704E-1,1.7E0,2.150289E-1,2E0,2.4E1,2E0,4.92E0,3.493923E-1,6.427343E-2,-2.719002E-1,-7.482198E-2,2.039749E-1,-1.4294073E-1,-2.7035663E-1,4.162364E-3,2.5650445E-1,2E0,2.41E0,2.81493E-1,2.3428842E-1,-3.2323793E-2,-2.19478E-1,1.8881148E-2,-1.7647872E-5,2.4289304E-1,-2.280571E-1,1.4570615E-1,-9.237673E-3,-1.7293209E-1,3.0983826E-2,-9.3075514E-2],"split_indices":[6,6,10,9,0,7,4,10,9,6,4,0,9,4,8,2,10,7,6,0,0,0,0,8,0,0,0,0,3,4,8,0,0,0,0,0,0,0,0,0,0,0,0],"split_type":[0,0,0,0,0,0,0,0,0,0,0,0,0,0,0,0,0,0,0,0,0,0,0,0,0,0,0,0,0,0,0,0,0,0,0,0,0,0,0,0,0,0,0],"sum_hessian":[2.61958E2,2.4626534E2,1.5692662E1,2.4463863E2,1.6267096E0,1.153576E1,4.156902E0,9.642191E0,2.3499644E2,6.0164447E0,5.5193152E0,1.5158019E0,2.6411E0,5.40725E0,4.234941E0,4.5866423E0,2.3040979E2,3.1984804E0,2.8179646E0,3.851053E0,1.6682624E0,1.56738E0,1.07372E0,3.337432E0,2.069818E0,3.179128E0,1.0558131E0,2.4025204E0,2.1841216E0,1.18362564E2,1.1204723E2,1.137362E0,2.0611181E0,1.4079686E0,1.4099959E0,2.0954247E0,1.2420073E0,1.0382972E0,1.1458246E0,1.1213317E2,6.2293906E0,1.0128763E2,1.0759606E1],"tree_param":{"num_deleted":"0","num_feature":"11","num_nodes":"43","size_leaf_vector":"1"}},{"base_weights":[-2.2440108E-3,-8.642805E-3,3.3283097E-1,-3.0850286E-2,9.424005E-2,6.3921803E-1,-6.949758E-2,1.1348414E-1,-7.9807244E-2,4.5184618E-1,-2.9152688E-2,3.4071412E-2,2.5330916E-1,-1.1592597E-1,3.66937E-1,-1.4856452E-1,8.9226425E-2,-2.896109E-1,7.093748E-1,3.079576E-1,-1.5103169E-1,-4.0942125E-2,-3.0620882E-1,7.225301E-1,-1.3334355E-1,-7.3931076E-2,-3.6666316E-1,5.453565E-1,-7.855719E-2,7.867047E-2,-2.1198621E-1,-8.289996E-2,9.533222E-1,-2.4910544E-1,5.356182E-1,1.3511772E-2,-6.729366E-1,3.1975374E-2,-1.3981792E-1,2.7985293E-1,-8.726552E-2,-2.973928E-1,4.172996E-2,4.3128166E-2,-6.310553E-2,-1.6914818E-1,5.3929422E-2,7.112371E-2,3.2940093E-1,-1.6796355E-1,2.4461642E-2,3.444455E-1,6.2118743E-2,-2.2137123E-1,7.39611E-2,2.2598553E-1,-3.655525E-2,-1.0899388E-1,1.15710035E-1,-3.004488E-1,1.7081657E-2],"categories":[],"categories_nodes":[],"categories_segments":[],"categories_sizes":[],"default_left":[0,0,0,0,0,0,0,0,0,0,0,0,0,0,0,0,0,0,0,0,0,0,0,0,0,0,0,0,0,0,0,0,0,0,0,0,0,0,0,0,0,0,0,0,0,0,0,0,0,0,0,0,0,0,0,0,0,0,0,0,0],"id":17,"left_children":[1,3,5,7,9,11,-1,13,15,17,19,-1,-1,21,23,25,27,29,31,33,35,37,-1,39,41,43,45,47,49,-1,-1,-1,51,53,55,57,59,-1,-1,-1,-1,-1,-1,-1,-1,-1,-1,-1,-1,-1,-1,-1,-1,-1,-1,-1,-1,-1,-1,-1,-1],"loss_changes":[5.6291324E-1,5.907373E-1,9.9899006E-1,1.5096276E0,2.0395398E0,2.766738E-1,0E0,3.193947E0,1.8630627E0,2.4664874E0,1.4878744E0,0E0,0E0,1.9398415E0,4.719953E0,1.8206146E0,3.612711E0,1.0511814E0,2.4464836E0,1.35654E0,2.2793672E0,1.8066901E0,0E0,3.5425158E0,2.8593059E0,2.5790644E0,3.1921337E0,1.8982551E0,2.7408159E0,0E0,0E0,0E0,8.530383E-1,1.0251504E0,1.1170013E0,3.096599E0,1.5813882E0,0E0,0E0,0E0,0E0,0E0,0E0,0E0,0E0,0E0,0E0,0E0,0E0,0E0,0E0,0E0,0E0,0E0,0E0,0E0,0E0,0E0,0E0,0E0,0E0],"parents":[2147483647,0,0,1,1,2,2,3,3,4,4,5,5,7,7,8,8,9,9,10,10,13,13,14,14,15,15,16,16,17,17,18,18,19,19,20,20,21,21,23,23,24,24,25,25,26,26,27,27,28,28,32,32,33,33,34,34,35,35,36,36],"right_children":[2,4,6,8,10,12,-1,14,16,18,20,-1,-1,22,24,26,28,30,32,34,36,38,-1,40,42,44,46,48,50,-1,-1,-1,52,54,56,58,60,-1,-1,-1,-1,-1,-1,-1,-1,-1,-1,-1,-1,-1,-1,-1,-1,-1,-1,-1,-1,-1,-1,-1,-1],"split_conditions":[1.0289944E0,2.4796748E-1,3.31E0,1E0,2E0,1.04E0,-6.949758E-2,3E0,3.56E0,2.434457E-1,1.41E0,3.4071412E-2,2.5330916E-1,2.42E0,3.31E0,3E0,1E0,1.9068013E-1,1E0,1E0,4.8069566E-1,2.9E1,-3.0620882E-1,1.9237147E-1,1E0,1.4335664E-1,1.8066157E-1,1.8906605E-1,8.3E-1,7.867047E-2,-2.1198621E-1,-8.289996E-2,4.21E0,1E0,3E0,1.24E0,4.34E0,3.1975374E-2,-1.3981792E-1,2.7985293E-1,-8.726552E-2,-2.973928E-1,4.172996E-2,4.3128166E-2,-6.310553E-2,-1.6914818E-1,5.3929422E-2,7.112371E-2,3.2940093E-1,-1.6796355E-1,2.4461642E-2,3.444455E-1,6.2118743E-2,-2.2137123E-1,7.39611E-2,2.2598553E-1,-3.655525E-2,-1.0899388E-1,1.15710035E-1,-3.004488E-1,1.7081657E-2],"split_indices":[9,8,6,3,0,4,0,7,6,9,6,0,0,4,6,1,1,9,3,1,9,10,0,8,1,8,8,8,4,0,0,0,6,5,3,4,6,0,0,0,0,0,0,0,0,0,0,0,0,0,0,0,0,0,0,0,0,0,0,0,0],"split_type":[0,0,0,0,0,0,0,0,0,0,0,0,0,0,0,0,0,0,0,0,0,0,0,0,0,0,0,0,0,0,0,0,0,0,0,0,0,0,0,0,0,0,0,0,0,0,0,0,0,0,0,0,0,0,0,0,0,0,0,0,0],"sum_hessian":[2.602019E2,2.5628198E2,3.9199095E0,2.113597E2,4.49223E1,2.4550197E0,1.4648898E0,5.319948E1,1.5816022E2,1.0841255E1,3.4081043E1,1.1252909E0,1.3297288E0,2.8209011E1,2.4990467E1,1.1251426E2,4.564596E1,2.762653E0,8.078603E0,8.644395E0,2.5436647E1,2.7015335E1,1.1936752E0,1.4347906E1,1.0642561E1,8.482581E1,2.7688444E1,1.1669998E1,3.3975964E1,1.3488371E0,1.413816E0,1.576351E0,6.502251E0,2.4805465E0,6.163849E0,2.008003E1,5.3566165E0,2.0611795E1,6.4035397E0,1.1947881E1,2.4000251E0,1.9290625E0,8.713499E0,3.2658154E1,5.216766E1,2.032343E1,7.3650146E0,8.408535E0,3.2614634E0,7.857028E0,2.6118935E1,4.7290697E0,1.7731818E0,1.002805E0,1.4777415E0,4.5212674E0,1.6425811E0,9.9897175E0,1.0090314E1,3.4371905E0,1.9194258E0],"tree_param":{"num_deleted":"0","num_feature":"11","num_nodes":"61","size_leaf_vector":"1"}},{"base_weights":[-2.071943E-3,1.0415063E-1,-2.0429343E-2,-1.012648E-1,3.5931268E-1,-2.6511693E-1,-4.3655164E-3,-3.9861006E-1,1.8769091E-1,-1.2535453E-1,6.081139E-1,3.573984E-2,-2.904484E-1,-8.1582725E-2,7.4507244E-2,2.5778005E-1,-7.960718E-1,-7.6795556E-2,2.7641448E-1,1.5671583E-1,-4.9455038E-1,8.3340955E-1,-8.739596E-2,2.6191372E-1,-4.5938715E-1,1.0288645E-2,-2.565353E-1,2.2038408E-1,5.4659385E-2,-1.8560866E-1,2.390775E-1,-3.24902E-1,5.7755172E-2,5.8626026E-1,-6.3660866E-1,3.574322E-2,-2.8060585E-1,3.5975033E-1,3.049091E-1,-1.882069E-1,5.0575495E-1,2.035857E-5,-2.4690616E-1,-3.072181E-2,5.614693E-1,-4.1821808E-1,1.8036449E-1,1.17098264E-1,-1.256118E-1,7.437277E-2,-1.4151888E-1,2.4434523E-1,-1.1269697E-2,-2.689713E-1,2.4725968E-2,-2.1232372E-2,1.7155248E-1,-7.3183924E-2,2.614316E-1,-5.814403E-2,3.4379166E-2,-5.916095E-2,2.5058877E-1,-5.3495508E-2,-2.800926E-1,1.6327104E-1,-5.7280187E-2,8.136058E-2,-4.160466E-2,-2.118294E-1,3.8648568E-2],"categories":[],"categories_nodes":[],"categories_segments":[],"categories_sizes":[],"default_left":[0,0,0,0,0,0,0,0,0,0,0,0,0,0,0,0,0,0,0,0,0,0,0,0,0,0,0,0,0,0,0,0,0,0,0,0,0,0,0,0,0,0,0,0,0,0,0,0,0,0,0,0,0,0,0,0,0,0,0,0,0,0,0,0,0,0,0,0,0,0,0],"id":18,"left_children":[1,3,5,7,9,11,13,15,17,19,21,23,-1,25,27,29,31,33,-1,-1,35,37,-1,39,41,43,45,-1,47,49,-1,-1,-1,51,53,-1,-1,55,-1,-1,57,-1,-1,59,61,63,65,67,69,-1,-1,-1,-1,-1,-1,-1,-1,-1,-1,-1,-1,-1,-1,-1,-1,-1,-1,-1,-1,-1,-1],"loss_changes":[5.056654E-1,2.0393982E0,8.6756194E-1,1.9608759E0,2.1579754E0,2.911E0,1.2753917E0,3.1112132E0,2.363019E0,1.8570453E0,2.5890374E0,1.2948092E0,0E0,1.7030125E0,1.317504E0,1.3327491E0,2.24586E0,3.9387422E0,0E0,0E0,1.4022964E0,4.5919085E-1,0E0,2.0164924E0,6.1016554E-1,1.606916E0,2.6511848E0,0E0,1.1592138E0,5.549036E-1,0E0,0E0,0E0,7.307761E-1,1.1370547E0,0E0,0E0,4.2397386E-1,0E0,0E0,2.0503802E0,0E0,0E0,1.5960096E0,1.1872666E0,3.161642E0,1.5289791E0,3.0348477E0,4.025729E0,0E0,0E0,0E0,0E0,0E0,0E0,0E0,0E0,0E0,0E0,0E0,0E0,0E0,0E0,0E0,0E0,0E0,0E0,0E0,0E0,0E0,0E0],"parents":[2147483647,0,0,1,1,2,2,3,3,4,4,5,5,6,6,7,7,8,8,9,9,10,10,11,11,13,13,14,14,15,15,16,16,17,17,20,20,21,21,23,23,24,24,25,25,26,26,28,28,29,29,33,33,34,34,37,37,40,40,43,43,44,44,45,45,46,46,47,47,48,48],"right_children":[2,4,6,8,10,12,14,16,18,20,22,24,-1,26,28,30,32,34,-1,-1,36,38,-1,40,42,44,46,-1,48,50,-1,-1,-1,52,54,-1,-1,56,-1,-1,58,-1,-1,60,62,64,66,68,70,-1,-1,-1,-1,-1,-1,-1,-1,-1,-1,-1,-1,-1,-1,-1,-1,-1,-1,-1,-1,-1,-1],"split_conditions":[6.1E-1,3.365396E-1,7.3E-1,2.53E0,1.4925373E-1,1.992238E-1,2E0,1.9283824E-1,4E0,2.09E0,3E0,3E1,-2.904484E-1,2.7E1,7.7E-1,1.5225649E-1,4.7E-1,1.8956044E-1,2.7641448E-1,1.5671583E-1,1E0,1E0,-8.739596E-2,2E0,3E0,4.72E0,2.150289E-1,2.2038408E-1,3E0,1E0,2.390775E-1,-3.24902E-1,5.7755172E-2,5.1E-1,2.9535866E-1,3.574322E-2,-2.8060585E-1,4.583144E-1,3.049091E-1,-1.882069E-1,2.6839128E-1,2.035857E-5,-2.4690616E-1,2E0,8.8E-1,1.7525773E-1,2.6182964E-1,1.9881889E-1,1.67E0,7.437277E-2,-1.4151888E-1,2.4434523E-1,-1.1269697E-2,-2.689713E-1,2.4725968E-2,-2.1232372E-2,1.7155248E-1,-7.3183924E-2,2.614316E-1,-5.814403E-2,3.4379166E-2,-5.916095E-2,2.5058877E-1,-5.3495508E-2,-2.800926E-1,1.6327104E-1,-5.7280187E-2,8.136058E-2,-4.160466E-2,-2.118294E-1,3.8648568E-2],"split_indices":[4,9,4,6,8,8,1,9,0,6,1,10,0,10,4,9,4,8,0,0,5,1,0,0,7,6,8,0,2,5,0,0,0,4,8,0,0,9,0,0,9,0,0,3,4,8,8,8,6,0,0,0,0,0,0,0,0,0,0,0,0,0,0,0,0,0,0,0,0,0,0],"split_type":[0,0,0,0,0,0,0,0,0,0,0,0,0,0,0,0,0,0,0,0,0,0,0,0,0,0,0,0,0,0,0,0,0,0,0,0,0,0,0,0,0,0,0,0,0,0,0,0,0,0,0,0,0,0,0,0,0,0,0,0,0,0,0,0,0,0,0,0,0,0,0],"sum_hessian":[2.5722842E2,3.7215065E1,2.2001335E2,2.0951458E1,1.6263607E1,1.2598986E1,2.0741437E2,1.0138802E1,1.0812655E1,5.6851134E0,1.0578493E1,9.487936E0,3.1110487E0,1.0478978E2,1.0262459E2,3.9564078E0,6.1823936E0,8.605727E0,2.206929E0,1.9133252E0,3.7717884E0,8.518207E0,2.0602865E0,6.8361855E0,2.6517508E0,6.9326256E1,3.5463524E1,1.944414E0,1.00680176E2,2.5308175E0,1.4255902E0,4.7176137E0,1.4647797E0,3.9179602E0,4.687767E0,1.8817238E0,1.8900646E0,3.1999736E0,5.318233E0,1.132659E0,5.7035265E0,1.6132298E0,1.0385212E0,6.5404144E1,3.922116E0,2.59157E1,9.547822E0,7.503977E1,2.5640404E1,1.0593253E0,1.4714923E0,2.64476E0,1.2732003E0,3.2616196E0,1.4261473E0,1.2760386E0,1.9239347E0,1.979069E0,3.7244577E0,3.0660328E1,3.4743813E1,1.1143863E0,2.8077297E0,1.8603037E1,7.3126636E0,4.5868974E0,4.960924E0,4.6789536E1,2.8250237E1,7.2728505E0,1.8367554E1],"tree_param":{"num_deleted":"0","num_feature":"11","num_nodes":"71","size_leaf_vector":"1"}},{"base_weights":[-1.8216389E-3,-4.7972813E-2,5.9161194E-2,-1.344413E-2,-4.2171088E-1,8.046E-1,1.2530744E-2,-3.915832E-2,5.3189546E-1,4.4919723E-1,-7.9179406E-1,-1.09673984E-1,3.3631223E-1,3.9200332E-2,-5.4818135E-1,-1.5605867E-2,-4.124622E-1,7.9260534E-1,-1.0461139E-1,-1.6625588E-3,2.7323496E-1,-1.0113004E0,-1.5519837E-1,1.7735206E-2,4.8816007E-1,-2.3737167E-1,4.003843E-2,-5.6901615E-2,4.041491E-1,1.3230642E-2,-3.593948E-1,3.1723085E-1,-6.382088E-3,-6.290612E-2,6.547605E-2,-1.1336843E0,-1.0078952E-1,-2.3594941E-1,1.5668437E-1,6.1655726E-2,-3.0747217E-1,-9.5748276E-2,8.045798E-1,-6.892091E-3,-3.31765E-1,2.4596341E-1,-1.9793044E-1,-1.507739E-1,1.09385416E-1,-3.7610784E-1,-1.09310545E-1,5.1903585E-3,2.2507827E-1,-1.7322233E-1,2.0791024E-1,6.958723E-2,2.853476E-1],"categories":[],"categories_nodes":[],"categories_segments":[],"categories_sizes":[],"default_left":[0,0,0,0,0,0,0,0,0,0,0,0,0,0,0,0,0,0,0,0,0,0,0,0,0,0,0,0,0,0,0,0,0,0,0,0,0,0,0,0,0,0,0,0,0,0,0,0,0,0,0,0,0,0,0,0,0],"id":19,"left_children":[1,3,5,7,9,11,13,15,17,19,21,-1,-1,23,25,27,29,31,-1,33,-1,35,37,39,41,-1,-1,43,45,47,-1,-1,-1,-1,-1,49,-1,-1,-1,51,53,-1,55,-1,-1,-1,-1,-1,-1,-1,-1,-1,-1,-1,-1,-1,-1],"loss_changes":[7.196946E-1,1.8724378E0,3.8194666E0,1.9035686E0,4.312228E0,2.805666E0,1.5871769E0,1.1290517E0,1.6801059E0,8.961471E-1,1.0974436E0,0E0,0E0,9.635205E-1,9.042661E-1,2.1467998E0,2.5656543E0,1.1051784E0,0E0,1.9091685E-1,0E0,1.5584278E-1,1.9004126E0,1.4089289E0,1.4230261E0,0E0,0E0,3.9757507E0,5.449383E0,1.2588451E0,0E0,0E0,0E0,0E0,0E0,1.1873245E-2,0E0,0E0,0E0,2.631065E0,3.572423E0,0E0,7.8504324E-2,0E0,0E0,0E0,0E0,0E0,0E0,0E0,0E0,0E0,0E0,0E0,0E0,0E0,0E0],"parents":[2147483647,0,0,1,1,2,2,3,3,4,4,5,5,6,6,7,7,8,8,9,9,10,10,13,13,14,14,15,15,16,16,17,17,19,19,21,21,22,22,23,23,24,24,27,27,28,28,29,29,35,35,39,39,40,40,42,42],"right_children":[2,4,6,8,10,12,14,16,18,20,22,-1,-1,24,26,28,30,32,-1,34,-1,36,38,40,42,-1,-1,44,46,48,-1,-1,-1,-1,-1,50,-1,-1,-1,52,54,-1,56,-1,-1,-1,-1,-1,-1,-1,-1,-1,-1,-1,-1,-1,-1],"split_conditions":[1.8138042E-1,1.7525773E-1,1.8610747E-1,1.7174515E-1,2E0,2E0,4.86E0,1.6763848E-1,3E1,3E0,4E0,-1.09673984E-1,3.3631223E-1,4.72E0,3E0,1.6115703E-1,2.01E0,3E0,-1.0461139E-1,1.7885375E-1,2.7323496E-1,3E0,1.24E0,4.28E0,2.3343374E-1,-2.3737167E-1,4.003843E-2,1.6E-1,5.690717E-1,8.4E-1,-3.593948E-1,3.1723085E-1,-6.382088E-3,-6.290612E-2,6.547605E-2,5.259037E-1,-1.0078952E-1,-2.3594941E-1,1.5668437E-1,4.08E0,3.2E1,-9.5748276E-2,2.6964754E-1,-6.892091E-3,-3.31765E-1,2.4596341E-1,-1.9793044E-1,-1.507739E-1,1.09385416E-1,-3.7610784E-1,-1.09310545E-1,5.1903585E-3,2.2507827E-1,-1.7322233E-1,2.0791024E-1,6.958723E-2,2.853476E-1],"split_indices":[8,8,8,8,7,0,6,8,10,6,0,0,0,6,2,8,4,3,0,8,0,1,4,6,8,0,0,8,9,4,0,0,0,0,0,9,0,0,0,6,10,0,9,0,0,0,0,0,0,0,0,0,0,0,0,0,0],"split_type":[0,0,0,0,0,0,0,0,0,0,0,0,0,0,0,0,0,0,0,0,0,0,0,0,0,0,0,0,0,0,0,0,0,0,0,0,0,0,0,0,0,0,0,0,0,0,0,0,0,0,0,0,0,0,0,0,0],"sum_hessian":[2.5370757E2,1.445369E2,1.0917068E2,1.3326122E2,1.1275682E1,5.470113E0,1.0370056E2,1.2814694E2,5.1142693E0,3.2988355E0,7.9768467E0,1.1313089E0,4.338804E0,9.987998E1,3.8205814E0,1.2152171E2,6.6252317E0,4.023114E0,1.0911547E0,2.1728628E0,1.1259727E0,5.49388E0,2.4829671E0,9.6314606E1,3.5653756E0,2.6978207E0,1.1227608E0,1.1142417E2,1.0097538E1,4.9343452E0,1.6908864E0,2.8096263E0,1.2134881E0,1.1405238E0,1.032339E0,4.0764494E0,1.4174303E0,1.2019911E0,1.2809759E0,8.556864E1,1.0745967E1,1.0014889E0,2.5638866E0,1.08923096E2,2.5010786E0,7.425413E0,2.6721249E0,1.8250449E0,3.1093004E0,2.981702E0,1.0947474E0,8.135361E1,4.215035E0,8.795763E0,1.9502038E0,1.0488693E0,1.5150174E0],"tree_param":{"num_deleted":"0","num_feature":"11","num_nodes":"57","size_leaf_vector":"1"}},{"base_weights":[-2.592813E-3,-1.536341E-1,1.2292562E-2,1.7342877E-2,-6.3190025E-1,7.2220594E-1,-2.5689856E-3,4.2238674E-1,-1.402232E-1,3.1852012E-3,-8.739605E-1,2.9903924E-1,2.4905825E-2,-2.3619875E-1,1.8505644E-2,3.7979074E-3,2.1757026E-1,-3.057732E-1,4.564398E-1,-3.1789303E-1,-5.2511264E-2,-6.429832E-1,1.841631E-1,2.3538521E-1,-3.9929673E-5,1.2248103E-1,-1.1171117E-1,-2.2681402E-1,-7.651102E-2,1.460487E-3,2.1034345E-1,-1.7629746E-1,-3.5967377E-1,-6.7064576E-2,2.363107E-1,-2.2967307E-1,5.8017224E-1,-2.365434E-2,1.7424846E-1,1.10635184E-1,-8.1220925E-2,1.857523E-1,-1.7281696E-1,1.2947872E-1,-1.6917966E-1,1.1035121E-1,-1.866433E-1,-7.3735915E-2,2.364617E-1,3.7226235E-3,-2.0048977E-1,1.6484371E-1,-2.469028E-2],"categories":[],"categories_nodes":[],"categories_segments":[],"categories_sizes":[],"default_left":[0,0,0,0,0,0,0,0,0,0,0,0,0,0,0,0,0,0,0,0,0,0,0,0,0,0,0,0,0,0,0,0,0,0,0,0,0,0,0,0,0,0,0,0,0,0,0,0,0,0,0,0,0],"id":20,"left_children":[1,3,5,7,9,11,13,15,17,-1,19,-1,-1,21,23,25,-1,27,29,-1,-1,31,33,35,37,-1,-1,-1,39,-1,-1,41,-1,43,-1,45,47,49,51,-1,-1,-1,-1,-1,-1,-1,-1,-1,-1,-1,-1,-1,-1],"loss_changes":[5.693659E-1,1.8686032E0,2.435676E0,1.189372E0,9.438858E-1,7.4809146E-1,1.1218016E0,6.575299E-1,1.4730041E0,0E0,3.8254237E-1,0E0,0E0,3.341862E0,8.410433E-1,6.376505E-1,0E0,1.0948491E0,3.6490977E-1,0E0,0E0,2.331925E0,1.5763785E0,2.7744708E0,8.010408E-1,0E0,0E0,0E0,8.359854E-1,0E0,0E0,2.4241579E0,0E0,2.229592E0,0E0,2.0414035E0,1.8677957E0,3.9930809E0,2.2808735E0,0E0,0E0,0E0,0E0,0E0,0E0,0E0,0E0,0E0,0E0,0E0,0E0,0E0,0E0],"parents":[2147483647,0,0,1,1,2,2,3,3,4,4,5,5,6,6,7,7,8,8,10,10,13,13,14,14,15,15,17,17,18,18,21,21,22,22,23,23,24,24,28,28,31,31,33,33,35,35,36,36,37,37,38,38],"right_children":[2,4,6,8,10,12,14,16,18,-1,20,-1,-1,22,24,26,-1,28,30,-1,-1,32,34,36,38,-1,-1,-1,40,-1,-1,42,-1,44,-1,46,48,50,52,-1,-1,-1,-1,-1,-1,-1,-1,-1,-1,-1,-1,-1,-1],"split_conditions":[1.01678185E-1,9.719439E-2,1.04275286E-1,1E0,3.067885E-1,2.7E1,1.1817368E-1,1E0,3E1,3.1852012E-3,2E0,2.9903924E-1,2.4905825E-2,2E0,1.2886597E-1,3.1219482E-1,2.1757026E-1,1E0,3.4474692E-1,-3.1789303E-1,-5.2511264E-2,3.7523544E-1,5.048044E-1,3.0775994E-1,4.47E0,1.2248103E-1,-1.1171117E-1,-2.2681402E-1,1.75E0,1.460487E-3,2.1034345E-1,1.09540634E-1,-3.5967377E-1,3.1E0,2.363107E-1,1.07E0,2E0,4.24E0,1.8956044E-1,1.10635184E-1,-8.1220925E-2,1.857523E-1,-1.7281696E-1,1.2947872E-1,-1.6917966E-1,1.1035121E-1,-1.866433E-1,-7.3735915E-2,2.364617E-1,3.7226235E-3,-2.0048977E-1,1.6484371E-1,-2.469028E-2],"split_indices":[8,8,8,3,9,10,8,5,10,0,3,0,0,1,8,9,0,2,9,0,0,9,9,9,6,0,0,0,6,0,0,8,0,6,0,4,7,6,8,0,0,0,0,0,0,0,0,0,0,0,0,0,0],"split_type":[0,0,0,0,0,0,0,0,0,0,0,0,0,0,0,0,0,0,0,0,0,0,0,0,0,0,0,0,0,0,0,0,0,0,0,0,0,0,0,0,0,0,0,0,0,0,0,0,0,0,0,0,0],"sum_hessian":[2.5140216E2,2.1717224E1,2.2968494E2,1.6707973E1,5.009252E0,3.7337513E0,2.2595119E2,4.2085805E0,1.24993925E1,1.6323986E0,3.3768532E0,2.2203999E0,1.5133516E0,1.7850943E1,2.0810023E2,2.1917434E0,2.0168371E0,1.0166206E1,2.333186E0,2.2602603E0,1.1165929E0,8.802837E0,9.048106E0,1.5472005E1,1.9262823E2,1.0150164E0,1.1767268E0,2.654669E0,7.5115376E0,1.1784335E0,1.1547524E0,5.501564E0,3.301273E0,7.016371E0,2.031735E0,6.729261E0,8.7427435E0,1.7040436E2,2.222388E1,2.0083375E0,5.5032E0,1.6564876E0,3.8450763E0,3.5674334E0,3.4489377E0,2.692651E0,4.0366096E0,1.722479E0,7.0202646E0,1.6230533E2,8.099025E0,8.560882E0,1.3662998E1],"tree_param":{"num_deleted":"0","num_feature":"11","num_nodes":"53","size_leaf_vector":"1"}},{"base_weights":[-1.5171159E-3,-4.4027396E-2,5.4592773E-2,9.995352E-3,-2.0001017E-1,7.811025E-1,1.8418206E-2,7.6207854E-2,-1.967626E-1,2.3937672E-1,-3.4714174E-1,3.1101084E-1,-6.9741076E-3,-5.2644286E-2,2.0040159E-1,1.3101874E-1,-4.618233E-1,3.5886505E-1,-5.255871E-1,5.170757E-1,-4.2865583E-1,-9.075007E-2,-7.6333666E-1,-1.5740022E-1,5.6261033E-2,1.6657723E-2,6.522832E-1,1.8937595E-2,3.9922377E-1,3.8861433E-1,-3.0368766E-1,-3.2620538E-2,7.941098E-1,-7.9148215E-1,2.2518456E-1,7.612058E-1,-1.2504973E-1,3.4429785E-2,-2.3258714E-1,-5.092146E-1,2.0357859E-1,-9.538576E-1,1.6906017E-2,9.95228E-3,-5.0164884E-1,5.8073395E-1,-1.2816799E-1,-5.5942804E-1,2.0230171E-1,-1.0994928E-1,8.9692694E-1,-7.676766E-2,5.1290188E-2,-4.4345774E-2,1.7970026E-1,-4.051246E-2,2.1068965E-1,1.6049537E-1,-1.07419536E-1,3.0815306E-1,1.990018E-2,-1.3531351E-1,-3.726609E-1,2.3563534E-1,-1.7126064E-1,3.0132693E-1,2.0453557E-2,-2.7425048E-1,7.747E-2,2.6266524E-1,1.0126475E-2,-7.7109635E-2,-3.605839E-1,-2.2178885E-2,2.4510166E-1,8.321927E-2,-2.1579777E-1,3.0316085E-1,-4.0389676E-2,-1.7128706E-1,2.1440644E-2,6.115654E-2,-2.8031737E-1,-1.0548126E-1,1.05183735E-1,3.33736E-1,9.632418E-3],"categories":[],"categories_nodes":[],"categories_segments":[],"categories_sizes":[],"default_left":[0,0,0,0,0,0,0,0,0,0,0,0,0,0,0,0,0,0,0,0,0,0,0,0,0,0,0,0,0,0,0,0,0,0,0,0,0,0,0,0,0,0,0,0,0,0,0,0,0,0,0,0,0,0,0,0,0,0,0,0,0,0,0,0,0,0,0,0,0,0,0,0,0,0,0,0,0,0,0,0,0,0,0,0,0,0,0],"id":21,"left_children":[1,3,5,7,9,11,13,15,17,19,21,-1,-1,23,25,27,29,31,33,35,37,39,41,43,45,47,49,51,53,55,-1,57,59,61,63,65,-1,-1,-1,67,69,71,-1,73,75,77,79,81,83,-1,85,-1,-1,-1,-1,-1,-1,-1,-1,-1,-1,-1,-1,-1,-1,-1,-1,-1,-1,-1,-1,-1,-1,-1,-1,-1,-1,-1,-1,-1,-1,-1,-1,-1,-1,-1,-1],"loss_changes":[5.9768933E-1,1.2031814E0,2.8246021E0,1.4774851E0,2.4567542E0,1.072511E0,1.3545175E0,2.4679904E0,4.974001E0,2.040127E0,2.9094331E0,0E0,0E0,8.705523E-1,2.4296417E0,2.2430449E0,4.0302444E0,1.786396E0,3.5439353E0,1.9993064E0,7.341576E-1,2.3709354E0,1.6944671E0,2.2381265E0,3.7277412E0,2.4576988E0,2.4399118E0,2.29383E0,2.494611E0,7.1496856E-1,0E0,1.3737898E0,7.684357E-1,1.3841295E0,2.7622526E0,9.7697043E-1,0E0,0E0,0E0,2.6871312E0,1.2852361E0,1.1744056E0,0E0,1.8924998E0,2.3530781E0,3.2128036E0,2.5832858E0,1.7956094E0,1.5456235E0,0E0,1.2914715E0,0E0,0E0,0E0,0E0,0E0,0E0,0E0,0E0,0E0,0E0,0E0,0E0,0E0,0E0,0E0,0E0,0E0,0E0,0E0,0E0,0E0,0E0,0E0,0E0,0E0,0E0,0E0,0E0,0E0,0E0,0E0,0E0,0E0,0E0,0E0,0E0],"parents":[2147483647,0,0,1,1,2,2,3,3,4,4,5,5,6,6,7,7,8,8,9,9,10,10,13,13,14,14,15,15,16,16,17,17,18,18,19,19,20,20,21,21,22,22,23,23,24,24,25,25,26,26,27,27,28,28,29,29,31,31,32,32,33,33,34,34,35,35,39,39,40,40,41,41,43,43,44,44,45,45,46,46,47,47,48,48,50,50],"right_children":[2,4,6,8,10,12,14,16,18,20,22,-1,-1,24,26,28,30,32,34,36,38,40,42,44,46,48,50,52,54,56,-1,58,60,62,64,66,-1,-1,-1,68,70,72,-1,74,76,78,80,82,84,-1,86,-1,-1,-1,-1,-1,-1,-1,-1,-1,-1,-1,-1,-1,-1,-1,-1,-1,-1,-1,-1,-1,-1,-1,-1,-1,-1,-1,-1,-1,-1,-1,-1,-1,-1,-1,-1],"split_conditions":[1.8289787E-1,3E0,1.8610747E-1,3E0,2E0,1.65E0,3E0,1.7525773E-1,1E0,3E0,1.89E0,3.1101084E-1,-6.9741076E-3,2.73E0,4E0,2E0,2E0,3E0,4E0,3.3E1,1.1690647E-1,8.8E-1,2.36E0,2.13E0,3.25E0,2.0525059E-1,1.67E0,1.23595506E-1,2.3843576E-1,2.03E0,-3.0368766E-1,1E0,3.31E0,2.7E1,3E0,3.8547388E-1,-1.2504973E-1,3.4429785E-2,-2.3258714E-1,3.35E0,1.01E0,2.57E0,1.6906017E-2,2.04E0,2.1076359E-1,3.3178312E-1,2.5186414E-1,2.21E0,6.8E-1,-1.0994928E-1,4.1048363E-1,-7.676766E-2,5.1290188E-2,-4.4345774E-2,1.7970026E-1,-4.051246E-2,2.1068965E-1,1.6049537E-1,-1.07419536E-1,3.0815306E-1,1.990018E-2,-1.3531351E-1,-3.726609E-1,2.3563534E-1,-1.7126064E-1,3.0132693E-1,2.0453557E-2,-2.7425048E-1,7.747E-2,2.6266524E-1,1.0126475E-2,-7.7109635E-2,-3.605839E-1,-2.2178885E-2,2.4510166E-1,8.321927E-2,-2.1579777E-1,3.0316085E-1,-4.0389676E-2,-1.7128706E-1,2.1440644E-2,6.115654E-2,-2.8031737E-1,-1.0548126E-1,1.05183735E-1,3.33736E-1,9.632418E-3],"split_indices":[8,3,8,1,0,4,3,8,3,2,4,0,0,6,0,1,7,7,0,10,8,4,4,6,6,8,6,8,9,6,0,2,6,10,7,9,0,0,0,6,4,6,0,6,9,9,9,6,4,0,9,0,0,0,0,0,0,0,0,0,0,0,0,0,0,0,0,0,0,0,0,0,0,0,0,0,0,0,0,0,0,0,0,0,0,0,0],"split_type":[0,0,0,0,0,0,0,0,0,0,0,0,0,0,0,0,0,0,0,0,0,0,0,0,0,0,0,0,0,0,0,0,0,0,0,0,0,0,0,0,0,0,0,0,0,0,0,0,0,0,0,0,0,0,0,0,0,0,0,0,0,0,0,0,0,0,0,0,0,0,0,0,0,0,0,0,0,0,0,0,0,0,0,0,0,0,0],"sum_hessian":[2.4856982E2,1.4154617E2,1.0702365E2,1.0582938E2,3.5716805E1,4.0994763E0,1.0292417E2,8.063735E1,2.519202E1,8.802493E0,2.6914312E1,2.891702E0,1.2077745E0,7.4531265E1,2.8392912E1,7.3868614E1,6.768738E0,9.3320055E0,1.5860015E1,6.377401E0,2.4250925E0,1.7408234E1,9.506078E0,3.7762375E1,3.6768887E1,2.0922342E1,7.4705696E0,5.28525E1,2.1016111E1,2.7752273E0,3.9935105E0,5.3999844E0,3.9320214E0,1.1672005E1,4.18801E0,5.202385E0,1.1750156E0,1.2049682E0,1.2201244E0,6.8867893E0,1.0521445E1,7.5804653E0,1.925612E0,2.606316E1,1.1699215E1,9.00681E0,2.7762077E1,4.6083574E0,1.6313984E1,1.3501197E0,6.12045E0,1.8580557E1,3.4271946E1,5.691458E0,1.5324654E1,1.2530016E0,1.5222256E0,1.7332246E0,3.66676E0,2.6666474E0,1.2653738E0,7.789319E0,3.8826861E0,2.4658504E0,1.72216E0,3.5183105E0,1.6840746E0,4.382911E0,2.5038784E0,1.2842346E0,9.23721E0,2.5248303E0,5.055635E0,2.4432173E1,1.630987E0,2.4951057E0,9.20411E0,5.3686414E0,3.638169E0,8.049199E0,1.971288E1,1.6684192E0,2.9399383E0,3.1560702E0,1.3157914E1,4.6702166E0,1.4502333E0],"tree_param":{"num_deleted":"0","num_feature":"11","num_nodes":"87","size_leaf_vector":"1"}},{"base_weights":[-6.8091246E-4,-6.6752527E-3,3.3955425E-1,1.1149692E-1,-2.6534304E-2,-6.875764E-2,2.1242328E-1,-4.600941E-2,3.3903727E-1,-3.171623E-3,-2.8560513E-1,7.509842E-2,-2.3338185E-1,8.654567E-2,9.065262E-1,-3.0037763E-2,3.4017915E-1,1.16278015E-1,-3.948891E-1,-1.09641105E-1,5.4347837E-1,2.2287123E-1,-2.3804872E-1,8.9817055E-2,3.15052E-1,5.7789806E-2,-8.657211E-2,6.588509E-1,-2.2730444E-1,-7.2741365E-1,-5.3535346E-2,1.0293572E-2,-2.4633582E-1,2.6282477E-1,-2.0542534E-2,-2.0331007E-1,5.0181735E-2,7.63989E-5,1.8575522E-1,-3.340559E-1,-1.6823897E-2,-6.9229536E-2,2.6286542E-1,3.254466E-2,-2.0426719E-1,-2.7714315E-1,3.5560682E-2,2.1709396E-1,-1.365267E-1],"categories":[],"categories_nodes":[],"categories_segments":[],"categories_sizes":[],"default_left":[0,0,0,0,0,0,0,0,0,0,0,0,0,0,0,0,0,0,0,0,0,0,0,0,0,0,0,0,0,0,0,0,0,0,0,0,0,0,0,0,0,0,0,0,0,0,0,0,0],"id":22,"left_children":[1,3,5,7,9,-1,-1,11,13,15,17,19,-1,21,23,25,27,-1,29,31,33,-1,35,-1,-1,37,39,41,43,45,47,-1,-1,-1,-1,-1,-1,-1,-1,-1,-1,-1,-1,-1,-1,-1,-1,-1,-1],"loss_changes":[5.0055844E-1,5.687057E-1,1.0529194E0,1.2655317E0,1.253171E0,0E0,0E0,1.9633821E0,1.9828459E0,1.7727345E0,1.4131545E0,1.7340227E0,0E0,2.5335426E0,6.2717676E-2,8.8942796E-1,2.6719027E0,0E0,1.6899197E0,1.5347409E0,1.2082568E0,0E0,1.5672481E0,0E0,0E0,2.2723029E0,3.343502E0,1.9788835E0,9.509926E-1,1.3781462E0,3.0117238E0,0E0,0E0,0E0,0E0,0E0,0E0,0E0,0E0,0E0,0E0,0E0,0E0,0E0,0E0,0E0,0E0,0E0,0E0],"parents":[2147483647,0,0,1,1,2,2,3,3,4,4,7,7,8,8,9,9,10,10,11,11,13,13,14,14,15,15,16,16,18,18,19,19,20,20,22,22,25,25,26,26,27,27,28,28,29,29,30,30],"right_children":[2,4,6,8,10,-1,-1,12,14,16,18,20,-1,22,24,26,28,-1,30,32,34,-1,36,-1,-1,38,40,42,44,46,48,-1,-1,-1,-1,-1,-1,-1,-1,-1,-1,-1,-1,-1,-1,-1,-1,-1,-1],"split_conditions":[3.8054967E-1,6.1E-1,2E0,1.9687875E-1,2.8846154E-1,-6.875764E-2,2.1242328E-1,1.8697226E-1,4E0,2.5946704E-1,1E0,3.6E0,-2.3338185E-1,2.21E0,1.59E0,3.0013204E-1,2.9E1,1.16278015E-1,2.73E0,3.31E0,1E0,2.2287123E-1,3.31E0,8.9817055E-2,3.15052E-1,2.8401598E-1,3.0622655E-1,8.8E-1,4E0,3.3393502E-1,3.25E0,1.0293572E-2,-2.4633582E-1,2.6282477E-1,-2.0542534E-2,-2.0331007E-1,5.0181735E-2,7.63989E-5,1.8575522E-1,-3.340559E-1,-1.6823897E-2,-6.9229536E-2,2.6286542E-1,3.254466E-2,-2.0426719E-1,-2.7714315E-1,3.5560682E-2,2.1709396E-1,-1.365267E-1],"split_indices":[8,4,7,8,8,0,0,8,0,8,6,6,0,6,6,9,10,0,6,6,5,0,6,0,0,9,9,4,0,8,6,0,0,0,0,0,0,0,0,0,0,0,0,0,0,0,0,0,0],"split_type":[0,0,0,0,0,0,0,0,0,0,0,0,0,0,0,0,0,0,0,0,0,0,0,0,0,0,0,0,0,0,0,0,0,0,0,0,0,0,0,0,0,0,0,0,0,0,0,0,0],"sum_hessian":[2.4332233E2,2.4007304E2,3.2492812E0,3.3876286E1,2.0619676E2,1.4262352E0,1.823046E0,2.049038E1,1.3385906E1,1.9006883E2,1.6127926E1,1.8351303E1,2.139077E0,1.0061687E1,3.324218E0,1.7712209E2,1.2946743E1,1.8968024E0,1.4231125E1,1.3709775E1,4.6415277E0,2.9029508E0,7.158737E0,1.2261218E0,2.0980961E0,6.935504E1,1.0776705E2,8.187839E0,4.7589045E0,6.635898E0,7.5952263E0,1.2194285E1,1.5154896E0,2.7274883E0,1.9140394E0,3.1115901E0,4.047147E0,6.3815308E1,5.539732E0,2.0833852E0,1.0568367E2,1.5956604E0,6.592178E0,3.1717296E0,1.5871748E0,5.310877E0,1.325021E0,2.314173E0,5.2810535E0],"tree_param":{"num_deleted":"0","num_feature":"11","num_nodes":"49","size_leaf_vector":"1"}},{"base_weights":[6.0985016E-4,-2.3865128E-1,6.9336267E-3,-5.720859E-1,1.7515816E-1,1.6748844E-1,-4.7795434E-4,-4.2671304E-2,-2.1214898E-1,2.2844507E-1,-1.5780517E-1,-3.3808365E-1,8.978127E-3,1.048994E-1,-2.862414E-1,2.0795586E-2,-2.9559767E-1,-1.2906642E-1,4.0803838E-1,2.282783E-3,3.0235252E-1,1.7343055E-1,-6.385502E-1,-4.296076E-2,2.4524488E-1,5.689842E-3,-2.0889722E-1,1.3531262E-1,-1.4896026E-1,-7.500639E-2,1.7267188E-1,-3.1719232E-1,6.484318E-2],"categories":[],"categories_nodes":[],"categories_segments":[],"categories_sizes":[],"default_left":[0,0,0,0,0,0,0,0,0,0,0,0,0,0,0,0,0,0,0,0,0,0,0,0,0,0,0,0,0,0,0,0,0],"id":23,"left_children":[1,3,5,7,9,-1,11,-1,-1,-1,-1,13,15,17,-1,19,21,-1,23,25,27,29,31,-1,-1,-1,-1,-1,-1,-1,-1,-1,-1],"loss_changes":[3.6730635E-1,9.627285E-1,9.6637356E-1,1.1402464E-1,1.862064E0,0E0,7.509571E-1,0E0,0E0,0E0,0E0,1.8491385E0,8.299248E-1,9.264751E-1,0E0,1.15259E0,1.496373E0,0E0,8.998858E-1,2.4446237E0,1.8445354E0,8.973854E-1,2.0858798E0,0E0,0E0,0E0,0E0,0E0,0E0,0E0,0E0,0E0,0E0],"parents":[2147483647,0,0,1,1,2,2,3,3,4,4,6,6,11,11,12,12,13,13,15,15,16,16,18,18,19,19,20,20,21,21,22,22],"right_children":[2,4,6,8,10,-1,12,-1,-1,-1,-1,14,16,18,-1,20,22,-1,24,26,28,30,32,-1,-1,-1,-1,-1,-1,-1,-1,-1,-1],"split_conditions":[6.7E-1,3E0,7E-1,2.274831E-1,6.4E-1,1.6748844E-1,8.3E-1,-4.2671304E-2,-2.1214898E-1,2.2844507E-1,-1.5780517E-1,4E0,2.43E0,1E0,-2.862414E-1,2.32E0,1E0,-1.2906642E-1,2.4E1,2.27E0,4.15E0,2.4E1,4.19E0,-4.296076E-2,2.4524488E-1,5.689842E-3,-2.0889722E-1,1.3531262E-1,-1.4896026E-1,-7.500639E-2,1.7267188E-1,-3.1719232E-1,6.484318E-2],"split_indices":[6,0,6,9,6,0,6,0,0,0,0,0,4,5,0,4,5,0,10,4,6,10,6,0,0,0,0,0,0,0,0,0,0],"split_type":[0,0,0,0,0,0,0,0,0,0,0,0,0,0,0,0,0,0,0,0,0,0,0,0,0,0,0,0,0,0,0,0,0],"sum_hessian":[2.4066782E2,5.2511454E0,2.3541667E2,2.69617E0,2.5549753E0,2.1366947E0,2.3327998E2,1.1355593E0,1.5606108E0,1.3446033E0,1.2103721E0,5.4090853E0,2.278709E2,3.6291876E0,1.7798977E0,2.2025671E2,7.614178E0,1.1608166E0,2.4683712E0,2.0761389E2,1.2642825E1,3.4247413E0,4.189437E0,1.3291582E0,1.1392128E0,2.037217E2,3.892205E0,1.1026057E1,1.6167679E0,1.8524289E0,1.5723124E0,2.6526911E0,1.5367459E0],"tree_param":{"num_deleted":"0","num_feature":"11","num_nodes":"33","size_leaf_vector":"1"}},{"base_weights":[-2.2153317E-3,-7.393828E-3,2.9627046E-1,5.8786113E-2,-3.751739E-2,-4.9415357E-2,1.7803212E-1,-1.338944E-1,2.2989754E-1,-2.8274876E-1,-5.402074E-3,1.5835637E-2,-5.5078596E-1,3.2943714E-1,-2.46715E-1,-4.627212E-1,6.47103E-1,8.0019504E-1,-2.6237706E-2,1.8083043E-1,-3.9485914E-1,-7.342005E-1,6.2135447E-2,-3.0376282E-1,3.891085E-1,2.7054074E-1,-2.8311208E-1,-9.2930067E-1,-2.5284094E-1,3.0841405E-2,2.5868008E-1,4.493173E-2,3.1381717E-1,6.532444E-2,-1.3294443E-1,-8.884488E-2,9.708958E-2,2.5930608E-2,-2.1915448E-1,-1.1214369E-1,-3.140639E-1,4.921385E-2,-1.6977684E-1,1.3202749E-1,-1.2969683E-1,-1.1630786E-1,2.775662E-1,-9.292989E-2,-3.5109955E-1,6.3338906E-2,-1.4410216E-1,3.9631132E-2,-8.274481E-2,-1.3556466E-1,-5.0705415E-3],"categories":[],"categories_nodes":[],"categories_segments":[],"categories_sizes":[],"default_left":[0,0,0,0,0,0,0,0,0,0,0,0,0,0,0,0,0,0,0,0,0,0,0,0,0,0,0,0,0,0,0,0,0,0,0,0,0,0,0,0,0,0,0,0,0,0,0,0,0,0,0,0,0,0,0],"id":24,"left_children":[1,3,5,7,9,-1,-1,11,13,15,17,19,21,23,25,27,29,31,33,35,37,39,-1,41,43,45,-1,47,49,-1,-1,-1,-1,51,53,-1,-1,-1,-1,-1,-1,-1,-1,-1,-1,-1,-1,-1,-1,-1,-1,-1,-1,-1,-1],"loss_changes":[3.7333572E-1,4.746716E-1,6.620319E-1,2.4877262E0,1.2859368E0,0E0,0E0,2.236114E0,1.9712498E0,3.4639554E0,2.464296E0,1.9163046E0,1.4667277E0,1.3795483E0,2.9427924E0,1.3736112E0,3.193097E-1,4.3527246E-1,1.404487E0,1.4655246E0,1.3744677E0,4.9150848E-1,0E0,5.1430726E-1,1.4862814E0,2.537539E0,0E0,3.4270573E-1,1.4423316E0,0E0,0E0,0E0,0E0,1.8032866E0,2.4463058E0,0E0,0E0,0E0,0E0,0E0,0E0,0E0,0E0,0E0,0E0,0E0,0E0,0E0,0E0,0E0,0E0,0E0,0E0,0E0,0E0],"parents":[2147483647,0,0,1,1,2,2,3,3,4,4,7,7,8,8,9,9,10,10,11,11,12,12,13,13,14,14,15,15,16,16,17,17,18,18,19,19,20,20,21,21,23,23,24,24,25,25,27,27,28,28,33,33,34,34],"right_children":[2,4,6,8,10,-1,-1,12,14,16,18,20,22,24,26,28,30,32,34,36,38,40,-1,42,44,46,-1,48,50,-1,-1,-1,-1,52,54,-1,-1,-1,-1,-1,-1,-1,-1,-1,-1,-1,-1,-1,-1,-1,-1,-1,-1,-1,-1],"split_conditions":[3.8054967E-1,2E0,2E0,1.6115703E-1,1.13E0,-4.9415357E-2,1.7803212E-1,1.4658926E-1,2.08E0,6.2451303E-1,1.2E0,3E0,3E0,4.2E-1,2.8E1,1E0,1E0,2.6839128E-1,3.13E0,2E0,1.08216435E-1,2E0,6.2135447E-2,2.4E1,4.83E0,2.0751342E-1,-2.8311208E-1,9.4E-1,1.18E0,3.0841405E-2,2.5868008E-1,4.493173E-2,3.1381717E-1,6.010633E-1,3.56E0,-8.884488E-2,9.708958E-2,2.5930608E-2,-2.1915448E-1,-1.1214369E-1,-3.140639E-1,4.921385E-2,-1.6977684E-1,1.3202749E-1,-1.2969683E-1,-1.1630786E-1,2.775662E-1,-9.292989E-2,-3.5109955E-1,6.3338906E-2,-1.4410216E-1,3.9631132E-2,-8.274481E-2,-1.3556466E-1,-5.0705415E-3],"split_indices":[8,7,7,8,6,0,0,8,4,9,6,2,2,4,10,1,3,9,6,0,8,2,0,10,6,8,0,6,4,0,0,0,0,9,6,0,0,0,0,0,0,0,0,0,0,0,0,0,0,0,0,0,0,0,0],"split_type":[0,0,0,0,0,0,0,0,0,0,0,0,0,0,0,0,0,0,0,0,0,0,0,0,0,0,0,0,0,0,0,0,0,0,0,0,0,0,0,0,0,0,0,0,0,0,0,0,0,0,0,0,0,0,0],"sum_hessian":[2.391134E2,2.3599431E2,3.1190891E0,7.352097E1,1.6247334E2,1.3972696E0,1.7218195E0,3.4683273E1,3.8837696E1,1.7909895E1,1.4456345E2,2.6226002E1,8.457271E0,3.23833E1,6.4543953E0,1.54264765E1,2.4834177E0,2.7016249E0,1.4186182E2,1.9108816E1,7.1171856E0,6.834565E0,1.6227051E0,2.43662E0,2.9946682E1,4.056102E0,2.3982933E0,3.7227535E0,1.1703723E1,1.1222548E0,1.3611628E0,1.1825058E0,1.5191191E0,7.655762E1,6.530421E1,4.155367E0,1.495345E1,3.22926E0,3.8879256E0,4.195E0,2.639565E0,1.0094922E0,1.4271277E0,2.8633734E1,1.3129488E0,2.2259161E0,1.8301859E0,1.6827273E0,2.0400262E0,3.8742986E0,7.829425E0,6.453705E1,1.2020574E1,1.664956E1,4.8654644E1],"tree_param":{"num_deleted":"0","num_feature":"11","num_nodes":"55","size_leaf_vector":"1"}},{"base_weights":[-4.7821132E-3,-1.279717E-2,2.2489662E-1,-3.185059E-1,-5.537287E-3,-9.189309E-2,6.928078E-1,-5.524513E-1,7.107085E-2,4.591803E-1,-1.1891391E-2,-3.4124812E-1,1.2605026E-1,2.8178754E-1,3.4899414E-2,-2.4881527E-2,-2.3012652E-1,2.6046757E-3,2.0334263E-1,-7.0816404E-3,-1.2379428E-1,1.2473779E-1,-2.3986368E-1,-1.4165701E-2,4.2037705E-1,-6.719469E-4,-9.8730974E-2,2.519589E-1,-4.832794E-2],"categories":[],"categories_nodes":[],"categories_segments":[],"categories_sizes":[],"default_left":[0,0,0,0,0,0,0,0,0,0,0,0,0,0,0,0,0,0,0,0,0,0,0,0,0,0,0,0,0],"id":25,"left_children":[1,3,5,7,9,11,13,15,-1,17,19,21,-1,-1,-1,-1,-1,-1,-1,23,-1,-1,-1,25,27,-1,-1,-1,-1],"loss_changes":[4.3977368E-1,5.0930464E-1,1.2578874E0,8.226391E-1,6.726546E-1,8.695222E-1,3.695265E-1,3.4412837E-1,0E0,2.9677737E-1,4.2860568E-1,1.8508291E0,0E0,0E0,0E0,0E0,0E0,0E0,0E0,6.789226E-1,0E0,0E0,0E0,8.239928E-1,1.0269631E0,0E0,0E0,0E0,0E0],"parents":[2147483647,0,0,1,1,2,2,3,3,4,4,5,5,6,6,7,7,9,9,10,10,11,11,19,19,23,23,24,24],"right_children":[2,4,6,8,10,12,14,16,-1,18,20,22,-1,-1,-1,-1,-1,-1,-1,24,-1,-1,-1,26,28,-1,-1,-1,-1],"split_conditions":[9.1364753E-1,6.7E-1,3E0,3E0,7E-1,1.9237147E-1,1.27E0,6.1E-1,7.107085E-2,2.4E1,8.542731E-1,1.388889E-1,1.2605026E-1,2.8178754E-1,3.4899414E-2,-2.4881527E-2,-2.3012652E-1,2.6046757E-3,2.0334263E-1,8.0391306E-1,-1.2379428E-1,1.2473779E-1,-2.3986368E-1,7.267054E-1,1.4925373E-1,-6.719469E-4,-9.8730974E-2,2.519589E-1,-4.832794E-2],"split_indices":[9,6,3,2,6,8,4,6,0,10,9,8,0,0,0,0,0,0,0,9,0,0,0,9,8,0,0,0,0],"split_type":[0,0,0,0,0,0,0,0,0,0,0,0,0,0,0,0,0,0,0,0,0,0,0,0,0,0,0,0,0],"sum_hessian":[2.3632872E2,2.2927213E2,7.056586E0,4.323893E0,2.2494824E2,4.686975E0,2.3696108E0,3.046143E0,1.2777503E0,2.0729718E0,2.2287526E2,3.376379E0,1.310596E0,1.2190251E0,1.1505855E0,1.3906171E0,1.6555258E0,1.0170295E0,1.0559423E0,2.2123772E2,1.6375551E0,1.308188E0,2.068191E0,2.1858212E2,2.6555924E0,2.1157733E2,7.0047803E0,1.2845268E0,1.3710656E0],"tree_param":{"num_deleted":"0","num_feature":"11","num_nodes":"29","size_leaf_vector":"1"}},{"base_weights":[-2.068836E-3,-1.2761026E-2,1.490488E-1,-1.8082216E-3,-4.7531772E-1,4.834771E-1,-1.3199985E-1,-8.442707E-3,1.4304027E-1,-2.2090922E-1,6.09066E-2,-1.2521537E-1,8.0087113E-1,-4.927148E-1,2.0813075E-1,-5.129519E-4,-1.9481163E-1,1.1644363E-1,-2.0044E-1,3.009336E-1,3.3990316E-2,4.333799E-2,-2.4207261E-1,-8.746617E-2,2.1232669E-1,-2.1902807E-2,1.5052047E-1,1.1703517E-1,-1.5352374E-1,2.1869167E-4,-7.296376E-2,-1.16161205E-1,9.873111E-2],"categories":[],"categories_nodes":[],"categories_segments":[],"categories_sizes":[],"default_left":[0,0,0,0,0,0,0,0,0,0,0,0,0,0,0,0,0,0,0,0,0,0,0,0,0,0,0,0,0,0,0,0,0],"id":26,"left_children":[1,3,5,7,9,11,13,15,-1,-1,-1,17,19,21,23,25,-1,-1,-1,-1,-1,-1,-1,27,-1,29,31,-1,-1,-1,-1,-1,-1],"loss_changes":[3.8402033E-1,1.1227723E0,1.5400301E0,6.95165E-1,1.0572598E0,1.5272914E0,1.2459705E0,1.0957712E0,0E0,0E0,0E0,1.205922E0,5.802398E-1,1.0814928E0,8.741395E-1,6.9474256E-1,0E0,0E0,0E0,0E0,0E0,0E0,0E0,1.0801386E0,0E0,9.4356686E-1,2.6893315E0,0E0,0E0,0E0,0E0,0E0,0E0],"parents":[2147483647,0,0,1,1,2,2,3,3,4,4,5,5,6,6,7,7,11,11,12,12,13,13,14,14,15,15,23,23,25,25,26,26],"right_children":[2,4,6,8,10,12,14,16,-1,-1,-1,18,20,22,24,26,-1,-1,-1,-1,-1,-1,-1,28,-1,30,32,-1,-1,-1,-1,-1,-1],"split_conditions":[7.700827E-1,7.267054E-1,1.2E0,7.119737E-1,3E0,1E0,1.77E0,6.983268E-1,1.4304027E-1,-2.2090922E-1,6.09066E-2,2.14E0,9.524618E-1,2E0,9.9791193E-1,5.501325E-1,-1.9481163E-1,1.1644363E-1,-2.0044E-1,3.009336E-1,3.3990316E-2,4.333799E-2,-2.4207261E-1,1E0,2.1232669E-1,4.667943E-1,2E0,1.1703517E-1,-1.5352374E-1,2.1869167E-4,-7.296376E-2,-1.16161205E-1,9.873111E-2],"split_indices":[9,9,4,9,2,2,4,9,0,0,0,6,9,7,9,9,0,0,0,0,0,0,0,3,0,9,0,0,0,0,0,0,0],"split_type":[0,0,0,0,0,0,0,0,0,0,0,0,0,0,0,0,0,0,0,0,0,0,0,0,0,0,0,0,0,0,0,0,0],"sum_hessian":[2.3549174E2,2.207858E2,1.4705941E1,2.1665947E2,4.126335E0,6.3863587E0,8.319582E0,2.1466612E2,1.9933449E0,2.917898E0,1.2084372E0,2.3962889E0,3.9900699E0,3.8199008E0,4.499682E0,2.1303123E2,1.6348813E0,1.3781976E0,1.0180913E0,2.728569E0,1.2615008E0,1.43995E0,2.3799508E0,3.3453708E0,1.1543111E0,1.873527E2,2.5678534E1,1.6117027E0,1.7336681E0,1.7087521E2,1.6477493E1,6.11069E0,1.9567842E1],"tree_param":{"num_deleted":"0","num_feature":"11","num_nodes":"33","size_leaf_vector":"1"}},{"base_weights":[-1.8849066E-3,-1.2913047E-1,1.0357376E-2,1.1905097E-2,-5.26202E-1,6.8080056E-1,-3.1789488E-3,4.19872E-1,-1.1124262E-1,-2.5674093E-1,-8.397258E-2,3.887551E-2,2.7144E-1,-2.6221564E-1,1.00288205E-2,1.9359998E-1,-2.1913512E-2,-2.4986434E-1,3.01543E-1,7.8467704E-2,-1.3599724E-1,5.6237046E-2,-2.5553447E-1,2.0434417E-2,-2.6198423E-1,1.2680312E-1,-4.5268774E-1,-6.266972E-2,2.1855295E-1,-3.9922407E-1,5.3733367E-1,9.003083E-3,4.0841386E-1,3.3233783E-1,-7.095032E-1,-7.496906E-3,-2.0778506E-1,1.679764E-2,-2.175803E-1,-4.5565385E-2,2.4435411E-1,4.718848E-2,-5.1722955E-3,-7.503464E-3,2.1054988E-1,-5.7956383E-2,2.2533058E-1,-2.7165082E-1,-6.875476E-2],"categories":[],"categories_nodes":[],"categories_segments":[],"categories_sizes":[],"default_left":[0,0,0,0,0,0,0,0,0,0,0,0,0,0,0,0,0,0,0,0,0,0,0,0,0,0,0,0,0,0,0,0,0,0,0,0,0,0,0,0,0,0,0,0,0,0,0,0,0],"id":27,"left_children":[1,3,5,7,9,11,13,15,17,-1,19,-1,-1,21,23,-1,-1,25,27,-1,-1,29,-1,31,33,-1,35,-1,-1,37,39,41,43,45,47,-1,-1,-1,-1,-1,-1,-1,-1,-1,-1,-1,-1,-1,-1],"loss_changes":[3.6743268E-1,1.165504E0,1.9561859E0,8.6324555E-1,7.2217E-1,4.0945494E-1,7.281E-1,4.8921776E-1,8.349415E-1,0E0,5.569696E-1,0E0,0E0,1.9862373E0,5.7914776E-1,0E0,0E0,1.6214888E0,9.782648E-1,0E0,0E0,1.8889009E0,0E0,8.6640435E-1,2.2416205E0,0E0,8.588387E-1,0E0,0E0,7.083524E-1,9.1506124E-1,7.4832886E-1,7.287463E-1,1.0078821E0,2.275157E-1,0E0,0E0,0E0,0E0,0E0,0E0,0E0,0E0,0E0,0E0,0E0,0E0,0E0,0E0],"parents":[2147483647,0,0,1,1,2,2,3,3,4,4,5,5,6,6,7,7,8,8,10,10,13,13,14,14,17,17,18,18,21,21,23,23,24,24,26,26,29,29,30,30,31,31,32,32,33,33,34,34],"right_children":[2,4,6,8,10,12,14,16,18,-1,20,-1,-1,22,24,-1,-1,26,28,-1,-1,30,-1,32,34,-1,36,-1,-1,38,40,42,44,46,48,-1,-1,-1,-1,-1,-1,-1,-1,-1,-1,-1,-1,-1,-1],"split_conditions":[1.01678185E-1,9.719439E-2,1.04275286E-1,1E0,2E0,1.0278578E-1,1.1308017E-1,2.06E0,2.9E1,-2.5674093E-1,1.97E0,3.887551E-2,2.7144E-1,1.1E-1,4.85E0,1.9359998E-1,-2.1913512E-2,6.8E-1,2.37E0,7.8467704E-2,-1.3599724E-1,3E0,-2.5553447E-1,4.72E0,2.4E1,1.2680312E-1,2E0,-6.266972E-2,2.1855295E-1,1.08216435E-1,2.6E1,1.3575129E-1,2.2173275E-1,3.0853033E-1,4.94E0,-7.496906E-3,-2.0778506E-1,1.679764E-2,-2.175803E-1,-4.5565385E-2,2.4435411E-1,4.718848E-2,-5.1722955E-3,-7.503464E-3,2.1054988E-1,-5.7956383E-2,2.2533058E-1,-2.7165082E-1,-6.875476E-2],"split_indices":[8,8,8,1,3,8,8,6,10,0,4,0,0,8,6,0,0,4,6,0,0,7,0,6,10,0,7,0,0,8,10,8,8,9,6,0,0,0,0,0,0,0,0,0,0,0,0,0,0],"split_type":[0,0,0,0,0,0,0,0,0,0,0,0,0,0,0,0,0,0,0,0,0,0,0,0,0,0,0,0,0,0,0,0,0,0,0,0,0,0,0,0,0,0,0,0,0,0,0,0,0],"sum_hessian":[2.3401144E2,1.9700256E1,2.1431119E2,1.5252684E1,4.447572E0,3.265773E0,2.1104541E2,2.9779053E0,1.2274778E1,2.0124547E0,2.4351172E0,1.3997612E0,1.8660117E0,9.324088E0,2.0172133E2,1.8311299E0,1.1467752E0,9.48441E0,2.7903683E0,1.4089111E0,1.0262063E0,6.641376E0,2.6827116E0,1.951798E2,6.541537E0,1.9463961E0,7.538014E0,1.5035727E0,1.2867956E0,3.4990005E0,3.1423755E0,1.9058757E2,4.5922217E0,2.9204483E0,3.6210887E0,3.1057866E0,4.432227E0,1.8059013E0,1.6930994E0,1.0309405E0,2.1114352E0,2.7906818E1,1.6268076E2,2.2231066E0,2.3691149E0,1.5340153E0,1.3864331E0,1.9430172E0,1.6780715E0],"tree_param":{"num_deleted":"0","num_feature":"11","num_nodes":"49","size_leaf_vector":"1"}},{"base_weights":[-1.2225171E-3,9.6085615E-2,-1.7145008E-2,-6.7943506E-2,2.970421E-1,-2.2789386E-1,-3.8635444E-3,-3.4277788E-1,1.7009017E-1,6.727839E-1,6.631129E-2,1.0827664E-2,-2.3301528E-1,9.20211E-2,-3.830828E-2,-5.8722943E-1,2.7399835E-1,4.9042115E-1,-3.005145E-1,2.614599E-1,2.7756754E-1,5.2792454E-1,-2.8315675E-1,-2.849041E-1,2.9521662E-1,1.984557E-1,-2.0357299E-1,4.0305158E-1,-6.265685E-2,-1.0205738E-1,-8.348437E-1,-6.9544055E-2,2.0233388E-1,-1.5134692E-2,7.372557E-1,1.3819942E-1,-2.063094E-1,-4.373903E-2,1.781393E-1,-7.3412113E-4,2.4412991E-1,-6.055161E-1,2.1875446E-1,6.501334E-2,-1.9420864E-1,2.1729788E-1,-1.01046175E-1,-1.6032536E-1,2.5298476E-1,1.1007343E-1,-7.791149E-1,5.765091E-1,-1.0628449E-1,-1.7125964E-1,2.991013E-2,-1.3967016E-1,7.825635E-2,-8.826E-2,-3.0302647E-1,1.572271E-1,-1.5937878E-1,2.684183E-1,7.012783E-2,1.5500048E-1,-9.3092725E-2,-2.073809E-2,-2.5803688E-1,1.216508E-1,-2.111551E-2,-1.0688969E-1,1.2168246E-1,1.2044507E-1,-1.5838541E-1,1.2142014E-1,-3.6575526E-2,-4.1385993E-2,1.7404932E-1,2.5332717E-2,-3.0904174E-1,-7.124352E-2,2.6122227E-1,-1.3816372E-1,-1.24318125E-2,1.3161911E-1,-2.4650158E-2],"categories":[],"categories_nodes":[],"categories_segments":[],"categories_sizes":[],"default_left":[0,0,0,0,0,0,0,0,0,0,0,0,0,0,0,0,0,0,0,0,0,0,0,0,0,0,0,0,0,0,0,0,0,0,0,0,0,0,0,0,0,0,0,0,0,0,0,0,0,0,0,0,0,0,0,0,0,0,0,0,0,0,0,0,0,0,0,0,0,0,0,0,0,0,0,0,0,0,0,0,0,0,0,0,0],"id":28,"left_children":[1,3,5,7,9,11,13,15,17,19,21,23,-1,25,27,29,31,33,35,37,-1,39,41,43,45,47,49,51,53,55,57,-1,-1,59,61,63,-1,-1,-1,-1,-1,65,67,69,-1,-1,71,-1,73,75,77,79,-1,81,83,-1,-1,-1,-1,-1,-1,-1,-1,-1,-1,-1,-1,-1,-1,-1,-1,-1,-1,-1,-1,-1,-1,-1,-1,-1,-1,-1,-1,-1,-1],"loss_changes":[3.618648E-1,1.1028154E0,5.607382E-1,1.2945706E0,1.251198E0,1.5646048E0,6.302762E-1,1.5332828E0,1.7747263E0,3.371899E-1,1.8223053E0,8.6321247E-1,0E0,1.627558E0,1.5332038E0,7.361524E-1,8.177723E-1,8.6009336E-1,9.4300807E-1,5.623139E-1,0E0,7.322662E-1,1.192641E0,6.82603E-1,9.5969987E-1,1.6377395E0,2.5857992E0,1.185661E0,1.3507154E0,5.765122E-1,1.1851382E-1,0E0,0E0,1.1722803E0,1.5487456E-1,6.9892776E-1,0E0,0E0,0E0,0E0,0E0,5.216907E-1,2.0657922E-1,6.436394E-1,0E0,0E0,9.817236E-1,0E0,2.0788417E0,1.2273823E0,1.1727898E0,1.7537856E0,0E0,2.2995229E0,3.385948E0,0E0,0E0,0E0,0E0,0E0,0E0,0E0,0E0,0E0,0E0,0E0,0E0,0E0,0E0,0E0,0E0,0E0,0E0,0E0,0E0,0E0,0E0,0E0,0E0,0E0,0E0,0E0,0E0,0E0,0E0],"parents":[2147483647,0,0,1,1,2,2,3,3,4,4,5,5,6,6,7,7,8,8,9,9,10,10,11,11,13,13,14,14,15,15,16,16,17,17,18,18,19,19,21,21,22,22,23,23,24,24,25,25,26,26,27,27,28,28,29,29,30,30,33,33,34,34,35,35,41,41,42,42,43,43,46,46,48,48,49,49,50,50,51,51,53,53,54,54],"right_children":[2,4,6,8,10,12,14,16,18,20,22,24,-1,26,28,30,32,34,36,38,-1,40,42,44,46,48,50,52,54,56,58,-1,-1,60,62,64,-1,-1,-1,-1,-1,66,68,70,-1,-1,72,-1,74,76,78,80,-1,82,84,-1,-1,-1,-1,-1,-1,-1,-1,-1,-1,-1,-1,-1,-1,-1,-1,-1,-1,-1,-1,-1,-1,-1,-1,-1,-1,-1,-1,-1,-1],"split_conditions":[6.1E-1,3.365396E-1,7.3E-1,2.35E0,2.21E0,1.992238E-1,1.78E0,5.2E-1,2.2891566E-1,1.53E0,2E0,3.6029065E-1,-2.3301528E-1,3E0,8.1E-1,2.0661266E-1,2E0,2.3508255E-1,2E0,4.8E-1,2.7756754E-1,4.2E-1,3.88E0,2.8E1,5.1272666E-1,8.5E-1,1E0,4.58E0,1.59E0,1E0,1E0,-6.9544055E-2,2.0233388E-1,1.3662457E-1,4.7E-1,3.32E0,-2.063094E-1,-4.373903E-2,1.781393E-1,-7.3412113E-4,2.4412991E-1,2.93E0,2E0,2.19E0,-1.9420864E-1,2.1729788E-1,2E0,-1.6032536E-1,2E-1,1.99E0,2E0,1.6060962E-1,-1.0628449E-1,2E0,1.83E0,-1.3967016E-1,7.825635E-2,-8.826E-2,-3.0302647E-1,1.572271E-1,-1.5937878E-1,2.684183E-1,7.012783E-2,1.5500048E-1,-9.3092725E-2,-2.073809E-2,-2.5803688E-1,1.216508E-1,-2.111551E-2,-1.0688969E-1,1.2168246E-1,1.2044507E-1,-1.5838541E-1,1.2142014E-1,-3.6575526E-2,-4.1385993E-2,1.7404932E-1,2.5332717E-2,-3.0904174E-1,-7.124352E-2,2.6122227E-1,-1.3816372E-1,-1.24318125E-2,1.3161911E-1,-2.4650158E-2],"split_indices":[4,9,4,6,6,8,6,4,8,6,7,9,0,2,4,9,2,9,3,4,0,4,6,10,9,4,5,6,4,1,5,0,0,8,4,6,0,0,0,0,0,6,2,6,0,0,2,0,8,4,0,8,0,7,4,0,0,0,0,0,0,0,0,0,0,0,0,0,0,0,0,0,0,0,0,0,0,0,0,0,0,0,0,0,0],"split_type":[0,0,0,0,0,0,0,0,0,0,0,0,0,0,0,0,0,0,0,0,0,0,0,0,0,0,0,0,0,0,0,0,0,0,0,0,0,0,0,0,0,0,0,0,0,0,0,0,0,0,0,0,0,0,0,0,0,0,0,0,0,0,0,0,0,0,0,0,0,0,0,0,0,0,0,0,0,0,0,0,0,0,0,0,0],"sum_hessian":[2.3149014E2,3.1844181E1,1.9964597E2,1.789744E1,1.3946742E1,1.0877894E1,1.8876807E2,8.102375E0,9.795065E0,4.577107E0,9.369635E0,8.263706E0,2.614188E0,4.9447712E1,1.3932036E2,5.8368983E0,2.2654767E0,5.8029838E0,3.992081E0,2.5149727E0,2.0621343E0,3.8170419E0,5.5525928E0,4.050177E0,4.213529E0,3.659836E1,1.2849355E1,6.47089E0,1.3284947E2,2.4495149E0,3.3873837E0,1.1871207E0,1.0783561E0,2.21172E0,3.5912638E0,2.172972E0,1.8191088E0,1.3823271E0,1.1326458E0,1.6839527E0,2.133089E0,3.2553678E0,2.2972252E0,2.4782772E0,1.5719E0,1.6254497E0,2.5880795E0,1.925045E0,3.4673313E1,8.840434E0,4.008921E0,5.4592767E0,1.0116135E0,6.073865E1,7.211081E1,1.0824329E0,1.3670819E0,1.4849595E0,1.9024241E0,1.0741128E0,1.1376072E0,2.143759E0,1.4475048E0,1.096084E0,1.076888E0,1.4571155E0,1.7982521E0,1.1512282E0,1.1459969E0,1.087251E0,1.3910261E0,1.2161005E0,1.3719791E0,2.4625938E1,1.0047375E1,6.249596E0,2.5908377E0,1.0523393E0,2.9565816E0,1.5006473E0,3.9586294E0,1.8024977E1,4.2713676E1,1.4888407E1,5.7222404E1],"tree_param":{"num_deleted":"0",